//Numpy array shape [5, 5, 1, 8]
//Min -0.390625000000
//Max 0.390625000000
//Number of zeros 100

#ifndef W3_H_
#define W3_H_

#ifndef __SYNTHESIS__
weight3_t w3[200];
#else
weight3_t w3[200] = {0.2812500, 0.0000000, 0.0000000, 0.3515625, -0.3750000, 0.0000000, 0.3359375, -0.2265625, 0.0000000, 0.0000000, -0.2734375, 0.0000000, 0.3125000, 0.0000000, 0.0000000, 0.0000000, -0.3125000, -0.1953125, 0.0000000, -0.2734375, -0.3906250, 0.2656250, 0.2968750, 0.0000000, 0.2812500, -0.2421875, 0.0000000, 0.0000000, 0.0000000, 0.0000000, -0.1875000, 0.3359375, -0.2578125, 0.0000000, -0.1953125, -0.2343750, 0.0000000, -0.2031250, 0.0000000, 0.0000000, -0.2734375, 0.0000000, 0.0000000, 0.0000000, 0.3125000, 0.0000000, 0.0000000, 0.0000000, -0.2421875, 0.0000000, 0.0000000, 0.0000000, -0.3593750, -0.2265625, 0.2109375, 0.2500000, 0.0000000, 0.0000000, -0.3593750, -0.3046875, 0.0000000, 0.2578125, 0.0000000, 0.0000000, 0.0000000, 0.2187500, 0.0000000, 0.0000000, 0.2421875, 0.2500000, 0.0000000, 0.2812500, 0.2812500, 0.0000000, 0.0000000, -0.2656250, 0.3125000, 0.0000000, 0.0000000, -0.2265625, -0.1875000, 0.3515625, -0.3281250, 0.0000000, 0.0000000, -0.2031250, 0.2656250, 0.2265625, 0.0000000, 0.0000000, 0.0000000, 0.2031250, 0.0000000, -0.2421875, 0.2890625, 0.0000000, 0.2343750, 0.2734375, 0.0000000, -0.2500000, 0.3046875, 0.2500000, 0.0000000, -0.2187500, -0.1796875, 0.0000000, -0.3203125, 0.0000000, 0.2656250, 0.0000000, -0.2031250, 0.0000000, 0.0000000, 0.2890625, 0.0000000, 0.0000000, 0.2890625, -0.2578125, -0.2187500, 0.0000000, 0.0000000, -0.2812500, -0.2968750, 0.3515625, 0.2734375, 0.0000000, 0.2578125, -0.2890625, 0.0000000, -0.2109375, 0.0000000, 0.0000000, 0.0000000, 0.0000000, 0.0000000, -0.3203125, 0.0000000, 0.0000000, 0.2656250, 0.0000000, -0.2812500, 0.0000000, 0.0000000, 0.2500000, 0.2343750, 0.0000000, 0.0000000, 0.3906250, 0.0000000, 0.0000000, 0.0000000, 0.3203125, -0.2500000, 0.0000000, 0.0000000, -0.2656250, 0.2109375, 0.0000000, 0.2421875, 0.2343750, 0.0000000, 0.0000000, -0.3281250, 0.3125000, 0.3281250, -0.2734375, 0.2500000, 0.0000000, 0.2343750, -0.1953125, -0.1875000, 0.0000000, 0.0000000, 0.0000000, 0.0000000, 0.2968750, 0.0000000, -0.1796875, 0.0000000, -0.2812500, 0.0000000, 0.3671875, -0.2968750, -0.2890625, 0.0000000, 0.0000000, 0.0000000, -0.2265625, 0.0000000, 0.0000000, 0.0000000, -0.3203125, 0.0000000, 0.0000000, 0.2734375, 0.2968750, 0.0000000, 0.0000000, 0.1953125, 0.0000000};

#endif

#endif
