//Numpy array shape [3, 3, 24, 24]
//Min -0.226562500000
//Max 0.210937500000
//Number of zeros 2592

#ifndef W18_H_
#define W18_H_

#ifndef __SYNTHESIS__
weight18_t w18[5184];
#else
weight18_t w18[5184] = {0.1171875, 0.0000000, 0.1015625, 0.0000000, 0.1093750, 0.0000000, 0.0000000, 0.1250000, -0.0937500, 0.0937500, 0.0625000, 0.0000000, 0.0000000, 0.1171875, 0.0000000, 0.0000000, 0.0000000, 0.0000000, 0.0000000, -0.1953125, 0.0000000, 0.0000000, -0.0703125, 0.0000000, 0.0000000, -0.1093750, 0.1250000, 0.0000000, 0.0000000, 0.0000000, 0.0546875, 0.0000000, -0.0937500, -0.0781250, -0.0937500, 0.0000000, 0.0000000, 0.0000000, 0.0000000, 0.0000000, 0.0000000, 0.0000000, 0.0000000, 0.0000000, -0.0937500, 0.0781250, 0.0703125, -0.0546875, 0.0000000, 0.0000000, 0.0000000, -0.1171875, 0.0000000, -0.0703125, 0.0000000, -0.0625000, 0.0000000, 0.0000000, -0.1015625, 0.0000000, -0.0781250, 0.0000000, 0.0000000, 0.1093750, 0.0937500, 0.0000000, 0.0000000, 0.0000000, 0.0703125, 0.0000000, -0.0703125, 0.0000000, -0.0781250, 0.0000000, 0.0000000, -0.0859375, 0.0000000, 0.0000000, 0.1250000, 0.0703125, -0.0937500, 0.0000000, 0.0000000, 0.0000000, -0.0703125, 0.0859375, 0.1171875, -0.1015625, 0.0000000, -0.0937500, 0.0937500, 0.0000000, 0.0000000, 0.0703125, -0.0625000, 0.0937500, 0.0000000, 0.0000000, 0.0781250, 0.0000000, 0.0000000, -0.0625000, -0.0703125, 0.0000000, 0.0000000, 0.0625000, -0.0859375, 0.0000000, -0.0625000, 0.1093750, 0.0000000, 0.0000000, 0.0859375, 0.0000000, 0.0000000, 0.0000000, 0.1093750, 0.0000000, -0.0937500, -0.0937500, 0.0000000, -0.0781250, 0.0000000, -0.0937500, 0.0000000, 0.1406250, 0.1093750, 0.0000000, 0.0000000, 0.0000000, 0.0000000, 0.0000000, 0.0546875, -0.0937500, 0.0000000, 0.0937500, 0.0000000, -0.1093750, -0.0859375, 0.0781250, 0.0859375, 0.0000000, -0.1093750, 0.0625000, 0.0000000, 0.0000000, -0.1093750, 0.0000000, 0.0000000, -0.0859375, 0.0000000, 0.0000000, 0.0000000, 0.1015625, 0.0000000, 0.0000000, 0.0000000, 0.0703125, 0.0703125, -0.0703125, 0.0000000, 0.1093750, 0.0000000, 0.0000000, 0.0000000, -0.0625000, 0.0000000, 0.0000000, 0.0000000, -0.0781250, -0.0937500, 0.1093750, 0.1015625, 0.0781250, 0.0000000, 0.0000000, 0.0937500, -0.0859375, 0.0000000, 0.0000000, 0.0000000, 0.0937500, -0.1015625, 0.0000000, 0.0000000, 0.0000000, -0.0781250, -0.1171875, 0.0000000, -0.0625000, 0.0000000, 0.0000000, 0.0000000, 0.0859375, 0.1093750, 0.1015625, -0.0859375, 0.1093750, -0.0781250, 0.1093750, 0.0000000, 0.0000000, 0.0000000, -0.1484375, 0.0000000, -0.0781250, -0.1328125, 0.0781250, 0.0000000, 0.0000000, 0.0703125, 0.0000000, -0.0781250, 0.0000000, 0.0000000, 0.0000000, 0.0000000, 0.0000000, 0.1015625, 0.0000000, 0.0000000, 0.0000000, 0.1328125, 0.0000000, 0.0000000, 0.0000000, 0.0000000, 0.0000000, 0.1015625, 0.1093750, -0.1718750, 0.0000000, -0.0859375, 0.0000000, 0.0000000, -0.0937500, 0.0000000, -0.0859375, 0.0000000, 0.0000000, 0.0000000, 0.1093750, 0.0000000, 0.0000000, -0.0625000, 0.0937500, 0.0000000, 0.1171875, 0.0000000, 0.0703125, 0.0000000, -0.1093750, 0.0000000, 0.0000000, 0.0000000, -0.0781250, 0.1171875, 0.0000000, 0.0000000, 0.0000000, 0.1171875, 0.0000000, -0.0937500, 0.0000000, 0.1015625, 0.0781250, 0.0000000, 0.0000000, 0.0000000, 0.1093750, 0.0000000, 0.0000000, 0.0000000, 0.0000000, -0.0937500, -0.0859375, 0.0000000, 0.0000000, 0.0000000, 0.1093750, 0.0781250, 0.1484375, -0.0703125, 0.0000000, 0.0000000, 0.0000000, 0.0000000, -0.1093750, 0.0000000, 0.0000000, 0.0000000, 0.0000000, 0.0703125, 0.0000000, 0.0000000, 0.0000000, -0.1093750, 0.0000000, -0.1015625, -0.1484375, 0.0703125, 0.0000000, 0.0000000, 0.0781250, 0.1015625, -0.0625000, -0.0859375, 0.0000000, 0.0000000, 0.1015625, -0.0703125, -0.0859375, 0.0000000, 0.0000000, 0.0859375, 0.0000000, 0.0000000, 0.0000000, 0.0000000, 0.0000000, 0.0937500, 0.1406250, 0.0000000, 0.0000000, 0.1250000, 0.0000000, -0.1328125, 0.0000000, -0.1015625, 0.1171875, -0.0703125, 0.0000000, 0.0000000, 0.0937500, 0.0000000, 0.0000000, 0.0000000, 0.1093750, 0.1015625, 0.1250000, 0.0000000, 0.0000000, 0.0000000, 0.0703125, -0.1484375, 0.1484375, 0.0000000, 0.0000000, 0.0000000, 0.0000000, 0.0000000, 0.0000000, 0.0000000, 0.1250000, 0.0000000, 0.0000000, 0.0000000, 0.0000000, 0.0000000, 0.0000000, -0.1015625, -0.1015625, 0.0625000, -0.0703125, -0.1328125, -0.1015625, -0.1406250, 0.1484375, -0.1093750, 0.0937500, 0.1015625, -0.1562500, 0.0000000, 0.0000000, -0.0546875, 0.0703125, 0.0000000, 0.0781250, 0.0000000, 0.0000000, 0.0937500, 0.0000000, 0.1171875, 0.0000000, -0.1093750, 0.1328125, -0.1250000, 0.0937500, -0.0625000, 0.0937500, 0.0703125, 0.0000000, -0.1328125, 0.0000000, 0.0000000, 0.0000000, 0.0000000, 0.0000000, 0.1171875, 0.0000000, 0.0000000, 0.0000000, 0.0000000, 0.0000000, -0.0859375, 0.0000000, 0.1406250, 0.0000000, -0.1562500, 0.1093750, -0.1171875, 0.0000000, 0.0000000, 0.0000000, 0.0000000, 0.0000000, 0.0781250, 0.0937500, 0.0859375, 0.0000000, 0.0000000, 0.1015625, 0.1093750, -0.1093750, 0.1015625, 0.0937500, 0.0000000, 0.0000000, -0.0859375, -0.0703125, 0.1171875, 0.0703125, 0.0000000, 0.0000000, 0.0000000, 0.0000000, -0.0703125, -0.0703125, -0.0937500, 0.0859375, -0.1093750, 0.0000000, 0.0546875, 0.0937500, -0.0859375, 0.0000000, -0.0937500, 0.0000000, 0.1093750, -0.0781250, -0.0859375, -0.0781250, 0.0000000, -0.0859375, -0.1328125, -0.0781250, 0.0000000, 0.0000000, -0.0859375, 0.0000000, 0.0000000, 0.1171875, -0.0781250, 0.0000000, -0.0625000, -0.0625000, 0.0000000, 0.1171875, -0.1171875, 0.0000000, 0.0703125, 0.0000000, -0.0703125, 0.0546875, 0.0000000, 0.0000000, 0.0000000, -0.0703125, 0.0000000, 0.0000000, 0.0000000, -0.1093750, 0.0937500, -0.1406250, 0.0000000, -0.0937500, -0.0781250, 0.0000000, 0.0000000, -0.0859375, 0.0546875, 0.1328125, 0.0000000, 0.0000000, 0.0000000, 0.0781250, 0.0000000, -0.1093750, 0.0000000, 0.0000000, 0.0000000, 0.1171875, -0.1015625, 0.0859375, 0.0937500, 0.1171875, 0.1250000, 0.0000000, 0.0000000, 0.0000000, 0.0703125, 0.0000000, 0.0000000, 0.0000000, -0.0546875, 0.0000000, -0.0703125, 0.0000000, 0.0000000, -0.0703125, 0.0000000, 0.0000000, 0.0000000, 0.0000000, 0.0000000, -0.1015625, 0.1484375, -0.0859375, 0.0000000, 0.1171875, 0.0703125, 0.1015625, 0.0000000, 0.0781250, 0.0000000, 0.1406250, -0.1171875, 0.0781250, -0.0546875, 0.0000000, 0.0000000, 0.0000000, 0.0000000, 0.0000000, 0.0000000, 0.1250000, 0.0000000, -0.0468750, 0.0937500, 0.0000000, 0.0000000, 0.0000000, 0.0000000, 0.0000000, 0.0000000, 0.0000000, 0.0000000, -0.0703125, 0.0000000, 0.0000000, -0.1093750, 0.0000000, 0.0000000, 0.0000000, 0.0625000, 0.0000000, 0.0000000, -0.0703125, 0.0000000, 0.0000000, -0.1015625, 0.0000000, 0.1484375, 0.0000000, 0.0703125, 0.0000000, -0.0703125, 0.0000000, -0.0781250, 0.0000000, 0.0000000, 0.0000000, 0.0000000, -0.0703125, 0.1015625, 0.1406250, 0.0000000, 0.1328125, -0.0937500, 0.0625000, 0.1093750, 0.0000000, 0.0859375, 0.0000000, 0.0000000, 0.0000000, 0.0000000, 0.0937500, 0.0000000, 0.1250000, 0.0937500, 0.0000000, 0.0000000, -0.1484375, 0.1250000, 0.0000000, 0.0000000, 0.0000000, 0.0000000, 0.0000000, 0.0000000, 0.1093750, -0.1015625, 0.0000000, 0.0000000, 0.0000000, 0.0781250, 0.0859375, 0.0000000, 0.0000000, -0.0781250, -0.0781250, 0.0000000, -0.0703125, 0.0000000, 0.0000000, 0.0000000, 0.0000000, -0.0781250, 0.1250000, 0.1406250, 0.0000000, 0.0000000, 0.1015625, 0.0000000, 0.0703125, 0.0000000, 0.0000000, 0.1171875, 0.0625000, 0.0000000, -0.0937500, 0.0000000, -0.0859375, 0.0937500, 0.0000000, 0.0000000, 0.1171875, 0.0000000, 0.1171875, -0.0937500, 0.1250000, 0.0000000, 0.0000000, 0.1171875, -0.0468750, 0.0000000, 0.1328125, -0.0546875, -0.1953125, 0.0937500, -0.0859375, 0.0000000, 0.1015625, 0.0000000, 0.1406250, -0.0625000, 0.0000000, -0.0781250, 0.0000000, 0.0000000, -0.1093750, 0.0000000, 0.0000000, -0.1015625, 0.0859375, 0.1171875, 0.0000000, -0.1328125, 0.1171875, 0.0000000, 0.0546875, 0.0000000, 0.0000000, 0.0703125, 0.1093750, 0.0000000, 0.0000000, 0.0546875, 0.0000000, -0.0703125, 0.0000000, 0.0859375, 0.0000000, 0.0000000, 0.0000000, -0.0937500, 0.0000000, 0.1250000, 0.0859375, 0.1171875, 0.0000000, 0.0000000, 0.0000000, -0.0781250, 0.1093750, -0.1406250, -0.1093750, 0.0000000, 0.0000000, -0.1328125, 0.0703125, -0.0625000, -0.0781250, 0.0781250, -0.1718750, 0.0703125, 0.1406250, 0.0000000, 0.0000000, 0.1015625, 0.0000000, -0.1015625, 0.0000000, 0.0000000, -0.0859375, 0.1171875, 0.0000000, 0.0000000, -0.0781250, 0.0000000, 0.1093750, 0.0546875, -0.1328125, -0.0859375, 0.0000000, 0.0000000, 0.0000000, 0.0000000, 0.1015625, -0.1171875, -0.0937500, -0.0703125, 0.0000000, -0.1015625, 0.0000000, 0.0703125, -0.0703125, 0.0000000, 0.0000000, -0.1015625, 0.0000000, 0.1015625, -0.1171875, 0.0625000, 0.0000000, -0.1093750, 0.0937500, 0.0000000, -0.1171875, 0.0625000, -0.0781250, 0.0000000, 0.0937500, 0.0000000, 0.0000000, 0.0000000, -0.0703125, -0.0625000, 0.0000000, 0.0625000, -0.0859375, 0.0703125, -0.0859375, 0.0000000, 0.0000000, 0.1562500, 0.0000000, 0.0000000, 0.0937500, 0.0703125, 0.0625000, -0.0703125, 0.0000000, -0.0937500, 0.0000000, -0.1015625, 0.0000000, -0.0859375, 0.1171875, -0.1015625, 0.0000000, 0.0000000, 0.0937500, 0.0000000, 0.0000000, -0.0625000, 0.0000000, 0.1171875, 0.1015625, 0.1562500, 0.0000000, -0.1171875, 0.0000000, -0.0703125, -0.1093750, 0.0000000, 0.0000000, 0.1093750, 0.0000000, 0.0781250, 0.0000000, -0.0546875, -0.0781250, 0.0000000, 0.1406250, 0.1328125, 0.0000000, 0.0000000, -0.0859375, 0.0000000, 0.0000000, 0.0000000, -0.0937500, 0.0000000, 0.0000000, 0.0000000, 0.0000000, -0.0625000, 0.0000000, 0.0781250, 0.0000000, 0.0000000, 0.0000000, 0.0703125, 0.0000000, -0.0546875, 0.0000000, 0.0000000, 0.0000000, 0.0000000, 0.0000000, 0.0000000, 0.0000000, 0.0000000, 0.1562500, 0.0000000, 0.0000000, -0.0703125, 0.0000000, 0.0000000, 0.0000000, 0.1171875, 0.1015625, -0.0781250, -0.0937500, 0.0000000, 0.0000000, 0.0000000, 0.0859375, -0.0625000, -0.0468750, 0.0000000, 0.1562500, 0.0000000, 0.1093750, -0.0703125, 0.0937500, 0.1406250, 0.0000000, 0.1328125, 0.0781250, 0.0625000, -0.0781250, 0.1015625, -0.1328125, 0.0781250, 0.0000000, 0.0000000, 0.0000000, 0.0859375, 0.0000000, 0.0000000, 0.0000000, 0.0000000, 0.0625000, 0.0703125, 0.0000000, 0.0000000, -0.0625000, 0.0000000, 0.0000000, 0.0000000, -0.0703125, 0.0000000, 0.0000000, 0.0625000, 0.0000000, 0.0000000, 0.0000000, 0.1250000, 0.1171875, 0.0000000, 0.1015625, 0.0000000, 0.0000000, 0.0000000, 0.0000000, 0.1171875, 0.0781250, 0.0000000, 0.0000000, 0.0625000, 0.0546875, -0.0859375, 0.0625000, 0.1250000, 0.0000000, -0.0781250, 0.0000000, 0.0000000, 0.0625000, 0.0000000, -0.1484375, -0.0859375, 0.0000000, 0.0000000, 0.0000000, -0.0703125, 0.0000000, 0.1015625, 0.0000000, 0.0000000, 0.1015625, 0.0000000, 0.0000000, 0.0000000, 0.0703125, 0.0000000, -0.0859375, -0.1171875, 0.0625000, 0.0000000, 0.0859375, 0.0000000, 0.0937500, -0.0781250, 0.0000000, -0.0937500, 0.1015625, 0.0000000, 0.1093750, 0.0000000, 0.0000000, -0.0937500, 0.0703125, 0.0000000, 0.1093750, 0.1015625, -0.1093750, 0.1015625, -0.1093750, 0.0937500, -0.1171875, -0.0781250, 0.0000000, 0.0000000, -0.0703125, 0.0000000, 0.0000000, 0.0859375, -0.1171875, -0.1015625, 0.0000000, -0.1093750, -0.0859375, 0.1015625, 0.0937500, 0.0000000, 0.0000000, 0.0000000, 0.0000000, 0.0000000, 0.0000000, 0.0781250, -0.1171875, 0.0000000, 0.0859375, -0.0781250, 0.0625000, -0.0781250, 0.0000000, 0.0937500, -0.0859375, 0.0000000, 0.0000000, 0.0000000, 0.0000000, -0.1093750, 0.0000000, 0.0703125, 0.0781250, 0.0000000, 0.0000000, 0.0000000, 0.0000000, -0.0781250, -0.0859375, 0.0000000, 0.0000000, 0.0703125, 0.0000000, -0.0625000, 0.0000000, 0.0000000, -0.1171875, 0.0000000, -0.1015625, -0.1171875, 0.0937500, 0.0000000, -0.0859375, 0.0781250, 0.0000000, 0.0000000, 0.0000000, 0.0000000, -0.0859375, -0.0859375, 0.0937500, 0.0000000, 0.0000000, 0.0000000, -0.1015625, 0.0000000, -0.0859375, 0.0000000, -0.0703125, 0.0000000, -0.1093750, 0.0000000, 0.0000000, 0.0937500, 0.0000000, 0.0000000, -0.0625000, 0.0000000, 0.0625000, -0.0937500, 0.0000000, 0.0000000, 0.0000000, -0.0937500, 0.1015625, 0.0000000, 0.0000000, 0.1015625, 0.0000000, 0.0000000, 0.0000000, 0.0625000, 0.1015625, -0.0703125, 0.0000000, 0.0859375, 0.0000000, 0.0000000, 0.0000000, -0.0859375, -0.1328125, -0.0781250, 0.0000000, -0.1015625, 0.0000000, 0.0000000, 0.1015625, -0.0703125, 0.0859375, -0.0859375, 0.0859375, -0.0625000, 0.0000000, 0.1328125, -0.1171875, 0.1406250, 0.0000000, 0.0000000, -0.0781250, 0.0000000, 0.0000000, -0.0859375, 0.0000000, -0.0703125, 0.0000000, -0.1171875, 0.0781250, 0.0937500, -0.0625000, -0.1093750, 0.0000000, 0.0000000, 0.0937500, 0.0000000, 0.0000000, 0.0000000, 0.0000000, 0.0000000, -0.1171875, 0.1015625, 0.0000000, 0.0000000, 0.0000000, 0.0000000, 0.0000000, -0.0781250, 0.0000000, 0.0781250, 0.0000000, -0.1093750, -0.0937500, 0.1093750, 0.0000000, 0.1093750, 0.0000000, 0.0781250, 0.0000000, -0.0859375, 0.0859375, -0.0625000, 0.0000000, 0.0000000, 0.0859375, 0.0000000, 0.0859375, -0.0781250, -0.0703125, 0.0000000, 0.0000000, -0.1406250, 0.0000000, -0.0781250, 0.0937500, 0.0000000, 0.0000000, 0.0000000, 0.0703125, -0.0859375, 0.0000000, -0.0703125, -0.0937500, 0.0000000, -0.1250000, 0.0000000, 0.0000000, -0.0625000, 0.0937500, -0.0859375, -0.1093750, -0.0859375, 0.1250000, 0.0000000, 0.0000000, 0.0781250, -0.1171875, 0.0000000, 0.0000000, 0.0000000, 0.0000000, 0.1093750, 0.1328125, 0.0781250, 0.0000000, 0.1093750, 0.0000000, 0.0000000, -0.1250000, 0.0000000, 0.0000000, 0.1015625, 0.1171875, 0.0000000, 0.0000000, 0.1015625, 0.0703125, 0.0000000, -0.0703125, 0.0000000, 0.0937500, 0.1171875, 0.0000000, 0.0000000, 0.1093750, -0.0703125, 0.0859375, 0.0000000, -0.0859375, 0.0000000, -0.0859375, 0.0859375, 0.0000000, -0.0703125, 0.0000000, 0.0000000, 0.0000000, -0.0937500, 0.0000000, -0.0781250, 0.0781250, 0.0000000, 0.0000000, -0.1093750, 0.0000000, 0.1171875, 0.0703125, 0.0000000, 0.0625000, 0.0000000, 0.0781250, 0.1093750, 0.0000000, 0.0781250, 0.1015625, 0.0000000, -0.0859375, 0.0000000, 0.1093750, 0.0000000, 0.0781250, 0.0000000, 0.0000000, 0.0546875, -0.0703125, -0.0625000, 0.0000000, 0.0000000, 0.0000000, 0.0000000, 0.0000000, 0.0000000, 0.1171875, 0.0000000, 0.0703125, 0.0625000, -0.1093750, 0.0000000, 0.0000000, 0.0000000, 0.0000000, -0.0625000, 0.1250000, -0.0625000, 0.0000000, 0.1328125, 0.1250000, 0.1093750, 0.0000000, 0.0000000, -0.0625000, 0.0781250, 0.0000000, 0.0703125, -0.0781250, 0.0000000, 0.1015625, 0.0000000, 0.0000000, 0.0000000, 0.0000000, 0.0000000, 0.1406250, -0.0625000, -0.0625000, 0.0000000, 0.0000000, 0.0000000, 0.0000000, 0.0000000, 0.0000000, 0.0000000, 0.1406250, -0.1093750, -0.1015625, 0.0703125, 0.0000000, 0.0000000, 0.0000000, 0.0000000, 0.0000000, 0.0000000, -0.1093750, 0.0000000, 0.0859375, 0.1250000, -0.0859375, 0.0000000, 0.0000000, 0.0703125, 0.0000000, 0.0000000, 0.0000000, 0.0000000, 0.0000000, 0.1015625, 0.0000000, 0.0000000, -0.0937500, 0.0703125, -0.0781250, 0.0000000, -0.1015625, -0.1484375, 0.0703125, 0.1171875, 0.1250000, 0.0000000, 0.0546875, 0.1093750, 0.1250000, 0.0000000, 0.0703125, 0.0703125, 0.0000000, -0.0625000, -0.1484375, 0.1093750, 0.0000000, 0.0000000, -0.0937500, -0.1015625, 0.0000000, -0.1171875, -0.1015625, 0.0859375, 0.0000000, -0.1250000, 0.0781250, 0.0000000, 0.0000000, -0.0937500, 0.0000000, -0.0703125, 0.0000000, 0.0000000, 0.0000000, 0.0000000, 0.0000000, -0.0781250, -0.1250000, -0.0703125, 0.0000000, -0.0859375, -0.0625000, -0.1171875, 0.0000000, -0.0937500, 0.1015625, 0.0000000, 0.0000000, -0.1171875, -0.0546875, 0.1171875, 0.0781250, 0.0000000, 0.0546875, -0.0937500, 0.0000000, 0.0937500, -0.1015625, -0.1015625, -0.0625000, 0.0000000, -0.1093750, 0.0000000, 0.0000000, -0.0937500, 0.0000000, -0.1250000, 0.0000000, -0.0781250, 0.0000000, 0.0000000, 0.0000000, 0.1015625, -0.0781250, 0.0000000, 0.0000000, -0.0859375, 0.0000000, 0.1171875, 0.0000000, -0.0859375, 0.0703125, 0.0937500, 0.0000000, 0.0781250, 0.0703125, 0.0781250, 0.0000000, -0.0937500, 0.0781250, 0.0000000, 0.0000000, 0.0000000, 0.0000000, 0.1093750, -0.0703125, 0.0937500, 0.1015625, 0.0937500, 0.0546875, 0.0000000, -0.0703125, 0.1093750, 0.0000000, -0.0781250, 0.0000000, 0.0859375, 0.0000000, 0.0000000, 0.0000000, 0.0000000, -0.0937500, 0.0000000, 0.0000000, 0.0000000, 0.0000000, 0.0000000, -0.0859375, 0.0000000, 0.0000000, 0.0000000, 0.0000000, 0.0859375, -0.0937500, 0.0703125, 0.0000000, 0.1171875, -0.0781250, 0.0000000, 0.0859375, 0.0000000, -0.2031250, 0.0703125, -0.1250000, -0.0625000, -0.0625000, -0.1015625, 0.0000000, 0.0937500, 0.0000000, 0.0546875, -0.1015625, 0.0000000, 0.0000000, 0.0000000, -0.0859375, 0.0000000, 0.0859375, 0.0859375, 0.0000000, 0.1406250, 0.0781250, -0.1718750, 0.0000000, 0.1171875, 0.0000000, 0.0000000, 0.0000000, -0.0781250, 0.0000000, -0.1015625, 0.1093750, 0.0000000, 0.0000000, 0.0703125, 0.0937500, -0.0859375, 0.0703125, 0.0000000, 0.1093750, 0.0781250, 0.0000000, 0.1093750, 0.0000000, 0.1484375, 0.0000000, 0.0000000, 0.1406250, 0.0000000, -0.1171875, 0.0000000, 0.0000000, 0.0000000, 0.1640625, 0.0000000, 0.1093750, 0.0000000, 0.0781250, -0.0703125, 0.1328125, 0.0937500, 0.0000000, 0.0937500, 0.0937500, 0.0000000, -0.0546875, -0.1171875, -0.1250000, 0.1484375, 0.0703125, -0.0781250, 0.0000000, 0.0000000, 0.0000000, -0.1015625, 0.0000000, -0.1015625, 0.1250000, 0.0000000, 0.0000000, 0.0000000, -0.0937500, -0.0937500, 0.0000000, 0.0000000, 0.0000000, -0.1171875, 0.0781250, 0.0000000, 0.0000000, -0.0937500, -0.1250000, -0.0781250, 0.0000000, 0.0625000, -0.2031250, 0.0781250, 0.0000000, 0.0000000, 0.1640625, -0.0937500, 0.0000000, 0.1250000, 0.0000000, 0.0000000, 0.0000000, -0.0781250, 0.0859375, 0.0000000, 0.1406250, 0.0937500, -0.1093750, -0.0781250, 0.0625000, 0.0000000, 0.0000000, 0.0000000, 0.0000000, 0.1406250, -0.1640625, 0.1093750, 0.1562500, -0.0546875, 0.0000000, 0.1250000, -0.0703125, 0.0000000, 0.0000000, 0.0000000, 0.0000000, 0.0000000, 0.0000000, 0.0000000, 0.0000000, -0.1015625, -0.1171875, 0.0000000, 0.1484375, 0.0000000, -0.0937500, 0.1093750, 0.0000000, 0.0000000, 0.0000000, 0.0000000, 0.0000000, 0.1406250, -0.0859375, 0.0000000, -0.1093750, 0.0000000, 0.0000000, -0.1406250, 0.0781250, -0.0859375, 0.0781250, 0.0000000, 0.0000000, 0.0000000, 0.0000000, 0.0000000, 0.0000000, 0.0546875, 0.0703125, 0.1171875, 0.0703125, 0.0000000, -0.0781250, -0.1093750, 0.0000000, 0.1484375, 0.0000000, 0.0000000, 0.0000000, 0.0000000, 0.0859375, 0.0000000, 0.0000000, -0.0781250, -0.1015625, 0.0000000, 0.0000000, 0.0000000, 0.0000000, 0.0000000, 0.0000000, -0.0703125, 0.0000000, 0.0000000, 0.0000000, 0.0000000, 0.0000000, 0.0000000, 0.0781250, -0.0703125, 0.0625000, 0.0000000, 0.0000000, 0.0000000, 0.0000000, -0.1562500, 0.0781250, 0.0000000, -0.0781250, 0.0000000, 0.1015625, 0.0000000, 0.1250000, 0.0859375, 0.0000000, 0.0000000, -0.0859375, 0.0000000, 0.0859375, 0.1093750, -0.1093750, 0.0000000, 0.0000000, 0.1328125, 0.1093750, -0.0937500, 0.0000000, 0.0937500, -0.0703125, 0.1015625, 0.0937500, -0.0546875, -0.0937500, 0.1015625, 0.0000000, 0.0000000, -0.0625000, 0.1171875, 0.0000000, 0.0000000, 0.0000000, 0.0000000, 0.0859375, 0.0000000, -0.0703125, 0.0000000, 0.0703125, 0.0000000, 0.0859375, 0.0937500, 0.0000000, 0.1328125, 0.1718750, 0.0000000, 0.0000000, 0.0000000, -0.0781250, 0.0703125, 0.0781250, 0.0000000, 0.0000000, 0.0000000, 0.0937500, 0.1015625, -0.1406250, 0.0000000, 0.0000000, 0.0000000, -0.0781250, 0.0000000, 0.0000000, 0.1328125, 0.0000000, 0.0000000, 0.0000000, -0.0703125, 0.0000000, 0.0000000, 0.1328125, 0.0000000, 0.0000000, 0.0000000, 0.0000000, 0.0000000, 0.0859375, 0.1093750, 0.0000000, 0.0625000, 0.0000000, 0.1171875, 0.1562500, 0.0000000, 0.0625000, 0.1015625, -0.0937500, 0.1093750, 0.0000000, 0.1406250, -0.0781250, 0.0937500, 0.0000000, 0.0000000, 0.1171875, 0.0000000, -0.1875000, 0.1484375, 0.0000000, 0.0000000, 0.0000000, -0.0703125, 0.0000000, 0.0000000, -0.1640625, 0.1328125, 0.1406250, -0.0859375, 0.0000000, -0.0625000, 0.0000000, 0.1093750, 0.0625000, 0.0000000, 0.0000000, 0.1171875, 0.0000000, 0.0546875, 0.0000000, 0.0000000, -0.1875000, -0.0703125, 0.0000000, 0.0000000, -0.0625000, 0.1171875, 0.0000000, 0.0000000, -0.1328125, 0.0000000, 0.0937500, 0.0000000, 0.0000000, 0.1328125, 0.0000000, 0.1171875, 0.0000000, 0.1015625, 0.0000000, 0.0546875, 0.0000000, -0.1250000, -0.0781250, 0.0000000, 0.0000000, -0.0781250, 0.0000000, 0.0000000, 0.0000000, 0.0000000, 0.1171875, 0.0000000, 0.0000000, 0.1328125, 0.0000000, 0.0000000, 0.0859375, 0.0000000, -0.1718750, 0.0625000, -0.0937500, 0.0000000, 0.1640625, -0.0937500, -0.0937500, 0.0000000, 0.0000000, 0.0000000, 0.0000000, 0.0000000, -0.1171875, 0.0000000, 0.0000000, 0.0000000, 0.0000000, 0.0625000, 0.0000000, 0.0000000, 0.1250000, 0.1328125, 0.1640625, 0.1718750, -0.1406250, -0.0937500, 0.0000000, 0.0000000, 0.1171875, 0.0781250, 0.0000000, 0.0000000, 0.0000000, 0.1171875, 0.0000000, 0.0000000, 0.0000000, 0.0000000, -0.0546875, 0.0000000, -0.0859375, 0.0703125, 0.0703125, 0.0781250, 0.0000000, -0.0625000, 0.0859375, 0.1640625, 0.0000000, 0.0000000, 0.0546875, 0.0625000, 0.1015625, 0.1015625, 0.0000000, 0.0000000, 0.0000000, 0.0000000, 0.1406250, 0.0000000, 0.0000000, -0.0859375, 0.0781250, -0.0859375, 0.0000000, 0.1093750, 0.0000000, 0.0000000, 0.1562500, 0.0000000, 0.1093750, 0.0000000, 0.0546875, 0.0000000, 0.0000000, 0.1015625, -0.0859375, 0.0000000, 0.0000000, 0.0000000, -0.0937500, 0.0703125, 0.0000000, 0.0000000, 0.0000000, 0.0781250, 0.1015625, -0.1015625, 0.0000000, 0.0000000, 0.0000000, -0.0703125, 0.0000000, 0.0000000, -0.1093750, -0.1093750, -0.1484375, 0.0703125, 0.0000000, -0.1171875, 0.0000000, -0.0937500, 0.0000000, 0.0000000, 0.0000000, -0.0625000, 0.0000000, -0.1093750, 0.0000000, -0.0546875, 0.0703125, 0.0000000, -0.0859375, 0.0000000, 0.0781250, 0.0546875, 0.0000000, 0.0859375, 0.0000000, 0.0781250, 0.0000000, -0.0859375, 0.0000000, 0.0000000, 0.0000000, -0.0781250, -0.0546875, 0.0000000, -0.1015625, 0.0000000, -0.0781250, -0.1015625, 0.0000000, 0.0000000, -0.0625000, -0.0781250, 0.0000000, 0.0781250, 0.0781250, 0.0000000, -0.0703125, 0.0000000, 0.1093750, -0.0859375, 0.1328125, -0.0703125, 0.0000000, 0.0937500, -0.0546875, 0.0859375, -0.0546875, 0.0000000, 0.0000000, 0.0000000, 0.0000000, -0.0781250, 0.1093750, 0.0000000, 0.0000000, 0.0000000, 0.0859375, 0.1093750, 0.1562500, 0.0000000, 0.0703125, 0.1250000, 0.0000000, -0.1015625, 0.1953125, -0.1093750, 0.0000000, -0.1093750, 0.0000000, -0.0859375, 0.0000000, 0.1562500, 0.0000000, 0.0000000, 0.1250000, 0.1328125, 0.1093750, 0.0000000, 0.0000000, 0.0000000, 0.0000000, 0.1093750, 0.0000000, 0.0000000, 0.0000000, -0.0546875, 0.0703125, 0.0000000, 0.0000000, 0.1093750, 0.0000000, 0.0000000, 0.0000000, 0.0000000, 0.0000000, 0.0000000, 0.0000000, 0.1640625, 0.1015625, 0.0859375, 0.0000000, 0.0000000, -0.0625000, -0.0546875, 0.0000000, 0.0859375, 0.1796875, -0.1093750, 0.0859375, 0.0000000, 0.0000000, 0.0937500, 0.0000000, 0.0000000, -0.1328125, -0.1171875, 0.0000000, 0.0000000, 0.0000000, 0.0000000, -0.0859375, 0.0000000, 0.0000000, -0.1093750, 0.0546875, 0.0000000, 0.0000000, 0.0000000, 0.0000000, -0.1015625, -0.1093750, -0.0703125, -0.0781250, 0.0000000, -0.0703125, 0.0000000, 0.0000000, 0.0000000, -0.1171875, 0.1015625, -0.1015625, 0.0781250, 0.0000000, 0.0000000, -0.0781250, 0.0000000, 0.0859375, -0.1171875, 0.0000000, 0.0000000, 0.0703125, -0.0859375, -0.1171875, -0.1093750, 0.0000000, -0.0781250, 0.0000000, -0.1015625, 0.0000000, 0.0000000, 0.0000000, 0.0000000, -0.1875000, 0.0000000, 0.0000000, -0.1093750, -0.1015625, 0.0000000, 0.0000000, -0.1484375, 0.0937500, 0.0000000, 0.0703125, 0.0781250, 0.0937500, -0.0546875, 0.0000000, -0.0937500, 0.0000000, 0.0000000, 0.0781250, -0.0859375, 0.0937500, 0.0000000, 0.1718750, -0.0781250, 0.1250000, 0.0000000, 0.0000000, 0.0625000, 0.0937500, -0.0937500, -0.1484375, 0.0000000, 0.0000000, 0.0000000, 0.0000000, 0.0000000, 0.1015625, 0.0703125, 0.0000000, 0.0000000, -0.0781250, -0.0781250, 0.0000000, 0.1250000, -0.1562500, -0.1953125, 0.1640625, 0.0000000, 0.0000000, 0.0000000, 0.0000000, 0.0000000, 0.1015625, -0.1718750, 0.0703125, 0.0703125, -0.1406250, 0.0000000, 0.0000000, 0.0000000, 0.0000000, 0.1015625, 0.0859375, 0.1093750, 0.0000000, 0.0703125, -0.1562500, 0.0000000, 0.0000000, 0.0000000, 0.0000000, 0.1171875, 0.1484375, 0.1015625, 0.0000000, 0.0000000, 0.0000000, 0.0000000, 0.0000000, 0.1093750, -0.1406250, 0.1015625, 0.1015625, 0.0625000, 0.0000000, 0.0781250, 0.0625000, 0.0000000, -0.0625000, 0.0000000, -0.0781250, 0.0859375, 0.0000000, -0.0703125, 0.1015625, 0.0703125, 0.0000000, 0.0000000, 0.0859375, 0.1015625, -0.0703125, -0.0781250, -0.1093750, 0.0000000, -0.0859375, -0.0703125, 0.1015625, 0.0000000, -0.1171875, 0.0000000, -0.1171875, 0.0703125, -0.1093750, 0.0000000, -0.0781250, 0.0000000, 0.0000000, 0.0625000, -0.0781250, 0.0859375, 0.1015625, 0.0000000, 0.0000000, 0.0937500, 0.0000000, 0.0000000, 0.0000000, -0.1171875, 0.1093750, 0.0000000, 0.0859375, 0.0000000, 0.0000000, -0.1171875, -0.1015625, -0.0781250, 0.0000000, 0.0625000, 0.0000000, 0.0000000, -0.0781250, -0.0703125, 0.0000000, -0.1171875, 0.1093750, -0.0781250, 0.0000000, 0.0000000, 0.0625000, 0.0000000, 0.0703125, 0.0000000, 0.0000000, -0.0781250, 0.0625000, 0.0000000, -0.1093750, 0.0000000, 0.0000000, -0.0781250, 0.0000000, 0.0703125, 0.0000000, 0.0000000, 0.0781250, 0.0000000, -0.1015625, -0.0703125, 0.0000000, 0.0000000, 0.0781250, 0.0000000, 0.0000000, -0.0625000, 0.0625000, -0.0703125, -0.1093750, 0.0000000, 0.0000000, 0.0000000, 0.0781250, 0.0000000, 0.0781250, 0.0703125, 0.0000000, 0.0625000, 0.0859375, -0.1171875, 0.0000000, 0.0000000, -0.1171875, 0.0000000, 0.0000000, -0.1328125, 0.0000000, 0.0000000, -0.1171875, 0.0000000, 0.0000000, 0.0546875, -0.0859375, -0.1015625, 0.0000000, 0.0937500, 0.0703125, -0.1015625, 0.0937500, 0.0000000, -0.0937500, 0.0000000, -0.0859375, 0.0781250, 0.0000000, -0.1171875, 0.0000000, 0.0000000, -0.0703125, 0.0937500, 0.1015625, 0.1015625, 0.0000000, 0.0000000, 0.0625000, -0.1171875, 0.0000000, 0.0000000, -0.0546875, 0.0000000, -0.1171875, 0.0859375, -0.1171875, 0.0000000, 0.0000000, 0.0000000, 0.0703125, 0.1015625, 0.0000000, 0.0859375, -0.0703125, -0.1093750, -0.0703125, 0.0000000, -0.0625000, 0.0781250, 0.0000000, 0.0781250, 0.0000000, 0.0625000, -0.0703125, 0.0000000, -0.0703125, -0.1093750, -0.0859375, -0.1093750, -0.0937500, -0.0781250, 0.0000000, 0.0625000, 0.0000000, -0.0703125, -0.0859375, -0.0859375, 0.0000000, -0.0937500, -0.0703125, -0.0703125, 0.0781250, 0.0937500, -0.0546875, 0.0000000, -0.1093750, -0.0625000, 0.0937500, 0.0000000, 0.0703125, 0.0000000, 0.0859375, -0.1093750, 0.0000000, 0.0703125, 0.0781250, 0.0000000, 0.0000000, 0.0000000, 0.0000000, -0.0781250, 0.0000000, 0.0937500, 0.0000000, 0.0000000, 0.0000000, 0.0859375, 0.0000000, -0.0937500, -0.1015625, 0.0000000, 0.0000000, 0.0000000, 0.0000000, 0.0859375, 0.0000000, 0.0000000, 0.0859375, -0.0937500, -0.1093750, -0.1093750, 0.1015625, 0.0859375, 0.0000000, 0.1250000, 0.0937500, 0.0000000, 0.0546875, 0.0000000, 0.0000000, -0.0781250, 0.0000000, 0.1171875, 0.0000000, 0.0859375, 0.0859375, 0.0000000, 0.0781250, 0.0000000, 0.0000000, 0.1015625, 0.0625000, 0.0000000, -0.0937500, -0.0703125, 0.0000000, 0.0937500, 0.0000000, 0.1171875, 0.1171875, 0.0703125, -0.1093750, 0.0703125, 0.0000000, 0.0000000, 0.1015625, 0.0000000, 0.0781250, 0.1093750, 0.1015625, 0.0000000, 0.0000000, 0.0000000, 0.1250000, 0.0000000, 0.0000000, 0.0781250, -0.1015625, 0.0000000, -0.0937500, 0.0000000, 0.0000000, 0.0000000, 0.1406250, 0.0000000, 0.0000000, -0.0546875, 0.0000000, 0.0703125, 0.0000000, 0.0000000, -0.0859375, 0.0000000, 0.0000000, 0.0000000, 0.0000000, 0.0625000, -0.0546875, 0.1171875, 0.0937500, -0.1093750, -0.1562500, 0.1093750, -0.0625000, -0.0937500, 0.0937500, 0.0000000, 0.1171875, -0.1171875, 0.0000000, 0.0546875, -0.1015625, 0.1093750, -0.1171875, 0.0000000, 0.0000000, 0.0000000, 0.0000000, -0.0625000, 0.0000000, -0.1484375, 0.0000000, 0.0000000, 0.0000000, 0.0937500, 0.0000000, 0.0000000, -0.0781250, 0.0859375, -0.1171875, -0.1250000, 0.0000000, -0.0937500, 0.1328125, 0.0000000, 0.0000000, -0.0625000, 0.1171875, -0.1171875, 0.0000000, 0.1015625, -0.1171875, 0.0781250, 0.0000000, 0.0000000, -0.0625000, 0.1250000, 0.0000000, 0.0000000, 0.0000000, 0.0703125, -0.0781250, 0.0000000, 0.0000000, 0.0000000, 0.1640625, 0.0000000, 0.1093750, 0.0000000, 0.0000000, 0.0781250, 0.0000000, 0.0000000, 0.0000000, 0.0000000, 0.0000000, 0.0000000, 0.0703125, -0.1250000, 0.0000000, 0.0000000, 0.0000000, 0.0000000, 0.0000000, 0.0000000, 0.0703125, 0.0937500, 0.0000000, 0.0000000, 0.0781250, -0.0859375, 0.1171875, -0.0859375, 0.0000000, 0.0703125, 0.0000000, 0.0000000, 0.0000000, 0.0000000, 0.0000000, 0.0000000, 0.0000000, 0.0000000, 0.0625000, -0.0625000, 0.0000000, 0.0000000, 0.1328125, 0.0000000, -0.0625000, 0.0000000, 0.0000000, 0.0000000, 0.1250000, 0.0000000, 0.1406250, 0.0859375, -0.0546875, -0.0625000, 0.1015625, 0.0000000, -0.0859375, 0.1328125, 0.0000000, 0.0000000, 0.1171875, 0.0781250, 0.0000000, -0.0781250, 0.1015625, 0.0000000, 0.0000000, 0.0937500, 0.0000000, 0.0781250, -0.1171875, 0.0000000, 0.0937500, 0.0000000, 0.0781250, 0.1093750, 0.0000000, 0.0625000, 0.0703125, -0.0859375, -0.0703125, 0.0000000, 0.0000000, 0.0000000, 0.0000000, 0.0000000, -0.0937500, 0.0000000, 0.0000000, 0.0000000, 0.1796875, 0.0703125, -0.0937500, -0.1093750, 0.0000000, 0.0937500, 0.0000000, 0.0859375, -0.0781250, 0.0000000, -0.0781250, 0.1328125, 0.0000000, 0.0000000, 0.1171875, 0.0000000, -0.1015625, 0.0000000, 0.0000000, 0.0000000, 0.0000000, 0.0000000, 0.0000000, -0.1250000, 0.0000000, 0.0000000, 0.0000000, -0.1250000, 0.0781250, -0.0625000, 0.0000000, -0.0859375, -0.0781250, 0.0546875, 0.0000000, 0.0000000, 0.0000000, -0.0625000, 0.0625000, -0.1093750, 0.0000000, 0.1015625, 0.0859375, 0.0000000, 0.0000000, 0.0000000, 0.0000000, 0.0000000, 0.0000000, 0.1406250, -0.0859375, 0.0000000, -0.1015625, 0.1250000, -0.0781250, -0.0703125, 0.0859375, 0.0000000, 0.0703125, 0.0000000, 0.1328125, 0.0000000, 0.1093750, 0.0000000, 0.0390625, 0.1171875, 0.0000000, 0.0000000, 0.0781250, 0.0000000, -0.0781250, -0.0859375, 0.0000000, -0.0781250, -0.1015625, 0.0000000, 0.0000000, -0.1015625, -0.0781250, 0.0000000, 0.0546875, 0.0000000, -0.1093750, 0.1171875, -0.0781250, 0.0000000, -0.0781250, -0.1328125, 0.0000000, -0.0703125, 0.1015625, -0.0625000, 0.1250000, 0.0625000, 0.0000000, 0.0000000, 0.0000000, -0.1093750, 0.0000000, 0.0000000, 0.0859375, -0.1406250, 0.0000000, -0.0625000, -0.0937500, -0.0859375, 0.0000000, 0.0937500, 0.0000000, 0.0546875, 0.1093750, 0.0546875, 0.1640625, 0.0625000, 0.0703125, 0.0000000, 0.0000000, 0.1015625, 0.0000000, 0.0000000, 0.0000000, 0.0000000, 0.0000000, -0.0859375, -0.0937500, 0.0546875, 0.0000000, 0.0703125, 0.0546875, 0.0937500, 0.0546875, -0.0781250, 0.0000000, -0.1796875, 0.1015625, 0.0000000, -0.0546875, 0.0000000, 0.0000000, 0.0000000, 0.0000000, 0.1093750, 0.0000000, 0.0000000, 0.1484375, 0.0937500, 0.0000000, 0.0625000, 0.0000000, 0.0000000, 0.0000000, -0.1015625, 0.0000000, 0.0000000, 0.0625000, 0.0625000, 0.0703125, 0.0000000, -0.1015625, 0.1406250, 0.0000000, 0.0000000, -0.0781250, 0.0781250, 0.0000000, 0.1250000, 0.0703125, 0.0000000, 0.1015625, 0.0000000, 0.0000000, 0.1015625, 0.1250000, 0.0000000, 0.0000000, 0.0781250, 0.0000000, 0.1093750, 0.0625000, 0.0000000, 0.0000000, 0.0000000, 0.0000000, 0.0000000, -0.0703125, 0.1328125, 0.0000000, 0.0859375, 0.0000000, 0.0000000, 0.0937500, 0.0000000, 0.0000000, 0.0000000, 0.0000000, 0.1015625, 0.0859375, 0.0000000, 0.0000000, 0.0937500, 0.0000000, 0.0937500, 0.0000000, 0.1093750, -0.0625000, 0.0000000, -0.0703125, -0.0781250, 0.0000000, 0.0781250, 0.0000000, 0.0000000, 0.0000000, -0.0625000, 0.1093750, 0.0000000, 0.0703125, 0.0000000, -0.1171875, 0.0000000, 0.0000000, 0.0000000, -0.0859375, -0.1093750, 0.0000000, 0.0000000, 0.1406250, 0.0000000, 0.0000000, 0.1250000, 0.0000000, 0.0000000, 0.0000000, -0.1171875, -0.0859375, 0.1015625, 0.0000000, 0.0000000, -0.0625000, -0.0625000, 0.1562500, 0.0625000, -0.0625000, -0.1093750, 0.0000000, 0.0625000, 0.0000000, 0.0000000, 0.0000000, -0.1093750, -0.0625000, 0.0703125, 0.0000000, 0.0859375, 0.0000000, 0.0000000, 0.1953125, 0.0000000, -0.0859375, 0.0000000, -0.1171875, -0.0625000, 0.0000000, 0.0000000, 0.0000000, 0.0000000, 0.0625000, 0.0000000, 0.0937500, -0.0703125, 0.0000000, 0.0000000, -0.1171875, -0.1015625, 0.0000000, 0.0937500, -0.1406250, 0.0000000, 0.0000000, 0.0000000, 0.0000000, 0.0000000, 0.0000000, 0.1484375, -0.1171875, 0.0000000, 0.0000000, -0.0625000, 0.1328125, 0.0000000, 0.1171875, 0.0000000, 0.0703125, 0.0000000, 0.0000000, 0.1484375, 0.1406250, 0.0859375, -0.1484375, 0.0000000, 0.0000000, 0.0000000, -0.0859375, -0.0859375, -0.1406250, 0.0000000, 0.1250000, 0.0000000, 0.1562500, 0.0000000, 0.0000000, 0.0000000, 0.0000000, -0.0781250, -0.1250000, 0.1328125, 0.0000000, -0.2265625, 0.0000000, 0.1406250, 0.1796875, 0.0000000, -0.1562500, 0.0000000, 0.1406250, -0.2109375, 0.0000000, 0.0000000, -0.1562500, 0.1406250, 0.1484375, 0.0859375, 0.1406250, 0.0000000, 0.1484375, 0.0000000, 0.0000000, 0.0000000, -0.1093750, 0.1406250, 0.0000000, 0.0000000, 0.2109375, 0.0000000, 0.1640625, 0.1093750, -0.1875000, 0.0000000, 0.0000000, 0.0000000, 0.0000000, 0.0000000, -0.1562500, 0.1640625, 0.0000000, -0.1171875, 0.1406250, 0.0000000, 0.1015625, 0.0000000, 0.0000000, 0.0000000, -0.0781250, 0.0781250, -0.1484375, 0.0000000, 0.0546875, 0.0000000, 0.0000000, -0.0625000, -0.1093750, 0.0000000, -0.1328125, 0.1015625, -0.1171875, 0.0000000, 0.0000000, 0.0000000, 0.0000000, 0.0000000, 0.0859375, 0.0937500, 0.0000000, 0.0000000, 0.1406250, 0.0000000, 0.0000000, -0.0859375, 0.0000000, -0.0937500, 0.0000000, -0.0937500, 0.0625000, 0.0000000, -0.0781250, 0.0000000, 0.0000000, 0.0000000, 0.0000000, 0.1093750, -0.0546875, 0.0546875, 0.0000000, 0.0000000, -0.0781250, 0.0000000, 0.0000000, 0.0000000, 0.1640625, -0.1484375, 0.0859375, -0.0625000, 0.0000000, 0.0000000, -0.1250000, -0.0625000, 0.0000000, 0.0859375, 0.0000000, 0.0000000, -0.1015625, 0.0859375, -0.0703125, 0.0000000, 0.0000000, 0.0000000, -0.1171875, 0.0937500, -0.0859375, 0.0000000, -0.1171875, 0.1171875, 0.0000000, -0.1562500, -0.0781250, 0.0859375, 0.0000000, 0.0000000, -0.0859375, 0.0859375, -0.0859375, 0.0000000, 0.0859375, 0.0000000, 0.0000000, -0.1250000, 0.0937500, 0.0000000, 0.0781250, 0.1406250, -0.0703125, -0.1875000, 0.1328125, 0.1328125, 0.0000000, 0.0000000, 0.0000000, 0.0000000, 0.0000000, 0.0000000, 0.0703125, 0.1406250, -0.0937500, 0.0000000, 0.0625000, 0.0000000, 0.0703125, 0.0781250, 0.0000000, -0.0859375, 0.0000000, -0.0625000, 0.0000000, 0.1250000, 0.0000000, -0.1171875, 0.0703125, 0.0000000, 0.0000000, 0.0000000, 0.0000000, 0.0000000, 0.1406250, 0.0000000, 0.0000000, 0.0000000, 0.0703125, 0.0546875, -0.1015625, 0.0781250, -0.0859375, 0.0000000, 0.0546875, 0.0000000, 0.0000000, 0.0000000, -0.1406250, 0.0937500, 0.0000000, 0.0000000, 0.1250000, 0.0000000, 0.0000000, 0.0000000, 0.0000000, 0.0781250, 0.0000000, 0.0859375, 0.0000000, 0.0937500, 0.0703125, 0.1406250, 0.0000000, 0.0000000, 0.0000000, 0.0000000, 0.0000000, 0.0000000, 0.0000000, 0.0000000, 0.0000000, 0.0000000, 0.1093750, 0.0000000, 0.0000000, -0.0859375, -0.0781250, 0.0000000, -0.0859375, 0.0000000, 0.0000000, 0.0781250, 0.0781250, -0.0859375, 0.1171875, 0.0000000, 0.0000000, 0.0000000, -0.0703125, -0.0781250, 0.0000000, 0.0781250, 0.0781250, 0.0000000, 0.1015625, 0.0000000, 0.1406250, 0.0000000, -0.0625000, 0.1250000, 0.0781250, 0.0000000, -0.0859375, 0.0000000, 0.0000000, 0.1015625, 0.0000000, 0.0000000, -0.1484375, 0.0000000, 0.0625000, 0.0625000, 0.0000000, 0.0000000, 0.1015625, 0.0000000, 0.0000000, -0.1093750, 0.0000000, 0.0000000, 0.0703125, 0.0000000, 0.1250000, 0.1328125, 0.0625000, 0.0000000, 0.0000000, 0.0781250, 0.0703125, 0.0000000, -0.0703125, 0.0000000, -0.1328125, 0.0000000, 0.1328125, 0.0000000, -0.1250000, 0.0000000, 0.0000000, 0.0781250, 0.1093750, 0.0000000, -0.1406250, 0.0937500, 0.0546875, 0.0000000, 0.0000000, 0.0000000, 0.0781250, 0.0000000, 0.0703125, 0.0000000, 0.0000000, 0.0000000, 0.1093750, -0.0546875, 0.1093750, 0.0000000, 0.0000000, 0.0000000, 0.0000000, 0.0000000, 0.0000000, 0.1328125, 0.0000000, 0.0000000, -0.1640625, 0.0000000, 0.0000000, 0.0000000, 0.0000000, 0.0937500, 0.0000000, 0.0000000, 0.0000000, 0.0000000, -0.0781250, 0.1406250, -0.0937500, 0.0859375, 0.0000000, -0.0625000, 0.0000000, -0.1093750, 0.0000000, 0.0000000, -0.0546875, 0.0781250, -0.0781250, 0.0000000, 0.0000000, 0.1328125, 0.0625000, 0.1171875, 0.0703125, 0.0000000, 0.1250000, 0.0000000, 0.0000000, 0.0000000, 0.0000000, 0.0000000, 0.1406250, 0.0000000, 0.0000000, 0.0000000, 0.0937500, 0.0000000, -0.1015625, 0.0000000, 0.0000000, 0.1406250, 0.0000000, 0.0000000, 0.1093750, 0.0000000, 0.1328125, -0.1093750, 0.0000000, -0.1015625, 0.0000000, 0.0000000, 0.0000000, 0.0000000, 0.0703125, 0.0937500, -0.1406250, -0.0625000, 0.0000000, 0.0000000, 0.0000000, -0.0781250, 0.0000000, 0.0000000, 0.0000000, 0.0000000, -0.1015625, 0.0000000, 0.0000000, 0.0000000, 0.0000000, -0.0859375, -0.0781250, -0.0703125, 0.0000000, 0.0625000, 0.0546875, 0.0000000, 0.0781250, 0.0000000, -0.1718750, -0.0859375, 0.0000000, -0.0625000, 0.0000000, 0.0000000, 0.1093750, 0.0000000, 0.0000000, 0.0546875, -0.1015625, 0.0703125, 0.0000000, 0.0000000, 0.1250000, 0.0000000, -0.1171875, 0.0625000, 0.0781250, 0.0000000, 0.0000000, 0.0781250, 0.0000000, -0.0859375, -0.1718750, -0.1953125, 0.0859375, 0.1093750, -0.1093750, 0.1015625, 0.0000000, 0.0000000, 0.0000000, -0.1953125, 0.1093750, -0.1328125, 0.0546875, -0.0703125, -0.0625000, 0.0000000, 0.0625000, 0.0703125, 0.0000000, 0.0000000, 0.0000000, 0.1171875, 0.1093750, 0.0000000, 0.0000000, 0.0000000, 0.0781250, 0.0000000, -0.1171875, 0.1328125, -0.0781250, 0.0000000, 0.0859375, -0.2187500, 0.0000000, 0.0703125, 0.0859375, 0.0000000, -0.0781250, 0.0000000, 0.0625000, 0.0703125, 0.0000000, -0.0703125, 0.0000000, 0.0000000, 0.0000000, 0.1406250, -0.0937500, 0.0000000, 0.0703125, -0.0859375, 0.0859375, 0.0546875, -0.1406250, 0.0937500, 0.0000000, -0.1562500, 0.0000000, 0.0000000, 0.0000000, 0.0000000, 0.0000000, 0.0000000, 0.0625000, 0.0000000, 0.0000000, 0.0000000, 0.0000000, 0.1015625, 0.0937500, 0.0000000, -0.0781250, 0.0000000, 0.1015625, 0.0000000, -0.0703125, 0.0000000, 0.0703125, 0.0000000, 0.1328125, -0.0703125, 0.1093750, 0.0000000, -0.1406250, 0.0625000, 0.1093750, 0.0000000, 0.0000000, -0.0703125, 0.1250000, 0.0781250, 0.0000000, 0.0000000, -0.0781250, 0.0000000, 0.0781250, 0.0000000, 0.1328125, 0.0859375, 0.0000000, 0.0000000, 0.0000000, 0.0000000, 0.0000000, 0.0000000, 0.0000000, 0.0859375, 0.0000000, 0.0000000, 0.1250000, 0.0625000, 0.1015625, 0.0000000, -0.0937500, 0.0781250, 0.0000000, 0.0000000, 0.0703125, 0.0000000, 0.0000000, 0.0937500, 0.0937500, 0.1093750, 0.0000000, 0.0000000, -0.0937500, 0.0703125, 0.0000000, 0.0000000, 0.0625000, 0.1093750, 0.0000000, 0.0000000, 0.0703125, -0.1484375, 0.0000000, 0.0000000, 0.0703125, 0.0000000, 0.0000000, 0.0000000, 0.0000000, 0.0000000, -0.1015625, 0.0781250, 0.0859375, 0.0000000, 0.0000000, 0.0000000, -0.0937500, -0.1171875, 0.0625000, 0.0000000, 0.0000000, 0.0859375, 0.1484375, 0.0000000, -0.1406250, 0.0000000, 0.0000000, -0.0546875, -0.0781250, 0.0000000, 0.0000000, -0.0937500, -0.0937500, 0.0000000, 0.0781250, 0.0000000, 0.0000000, 0.1015625, -0.1328125, -0.1093750, 0.0000000, 0.0000000, 0.0000000, 0.0000000, -0.0859375, 0.0000000, 0.0000000, 0.0000000, -0.1406250, 0.0000000, -0.0859375, 0.0000000, -0.0625000, 0.0000000, 0.0000000, 0.0000000, -0.1015625, 0.0000000, 0.0000000, 0.0000000, -0.0859375, 0.0781250, -0.1015625, -0.1093750, -0.0781250, 0.0937500, -0.0625000, 0.1093750, 0.0859375, 0.0000000, 0.0000000, 0.0000000, 0.0000000, 0.0000000, 0.1015625, -0.0703125, 0.0000000, 0.0937500, 0.1640625, 0.0703125, 0.0000000, 0.0000000, 0.0000000, 0.0781250, -0.0781250, 0.0000000, 0.0000000, 0.0000000, -0.0625000, 0.0937500, 0.1250000, 0.0000000, -0.0625000, -0.0703125, 0.0000000, -0.0937500, 0.0000000, -0.0781250, 0.1250000, -0.0781250, 0.1093750, 0.0000000, 0.0000000, -0.0546875, -0.1093750, 0.0781250, -0.1093750, -0.0546875, 0.0000000, 0.0000000, 0.0000000, 0.0000000, 0.1406250, -0.0859375, 0.0781250, 0.0859375, 0.0937500, 0.0000000, 0.1093750, 0.1093750, -0.0937500, -0.0703125, 0.0000000, 0.0000000, 0.0937500, -0.1171875, 0.0000000, 0.0000000, 0.0000000, -0.0859375, -0.1250000, 0.0000000, -0.0703125, 0.0000000, 0.0000000, 0.0000000, 0.1250000, -0.0546875, 0.0000000, 0.0000000, 0.0000000, 0.0000000, 0.0000000, 0.1250000, -0.0859375, 0.0000000, 0.0000000, 0.0000000, 0.1171875, 0.0000000, 0.0000000, 0.0000000, 0.0000000, -0.0859375, 0.0000000, -0.1484375, 0.0000000, 0.0781250, 0.0000000, 0.0000000, -0.1093750, 0.1250000, 0.0546875, -0.1640625, 0.1015625, 0.0000000, 0.0000000, 0.0000000, 0.0000000, -0.0703125, 0.1171875, 0.0000000, 0.0000000, -0.1015625, 0.0781250, 0.1015625, 0.0000000, 0.0000000, 0.0000000, -0.1406250, 0.1015625, 0.0000000, 0.1250000, 0.0000000, 0.0000000, 0.0000000, -0.1406250, 0.0000000, 0.0625000, -0.0703125, 0.0000000, 0.0000000, 0.0781250, 0.0000000, 0.0000000, 0.0937500, 0.0937500, -0.0703125, 0.0000000, 0.0000000, 0.0000000, 0.1484375, 0.0000000, -0.1406250, 0.0000000, 0.1171875, 0.0000000, 0.0000000, 0.0000000, -0.1015625, -0.0937500, 0.0000000, -0.0859375, -0.0781250, -0.1562500, 0.0000000, 0.0000000, 0.0625000, 0.1171875, 0.0859375, 0.0937500, 0.0937500, 0.0625000, 0.0000000, 0.0000000, 0.1171875, 0.0000000, 0.0000000, 0.0000000, -0.0546875, 0.1250000, -0.0703125, -0.1328125, 0.0937500, 0.0000000, -0.0781250, -0.1093750, 0.0000000, 0.0000000, 0.0000000, 0.0000000, 0.0000000, 0.0000000, 0.0625000, 0.1328125, 0.0000000, -0.0859375, 0.0000000, -0.1093750, 0.0000000, 0.0000000, 0.0000000, 0.1484375, 0.0000000, 0.0000000, 0.0000000, 0.0859375, 0.0937500, 0.0000000, 0.1484375, 0.0000000, 0.0703125, -0.0937500, 0.0000000, 0.0000000, 0.0000000, 0.0000000, 0.0000000, 0.0000000, 0.1015625, 0.0781250, 0.1015625, 0.0546875, 0.0000000, 0.0703125, 0.0000000, 0.0000000, -0.0781250, 0.1796875, 0.0937500, 0.0000000, 0.0000000, 0.0000000, 0.0937500, 0.1093750, 0.1484375, -0.0859375, 0.1093750, 0.0000000, -0.0546875, 0.1093750, -0.1093750, 0.0000000, 0.0000000, 0.1171875, 0.0781250, 0.0000000, 0.0000000, 0.0000000, 0.0000000, 0.1093750, -0.1171875, 0.0000000, 0.0000000, 0.0625000, -0.1406250, 0.0000000, 0.0937500, -0.0937500, -0.0781250, 0.0000000, -0.0703125, -0.0937500, 0.0000000, 0.0000000, -0.0703125, -0.0859375, 0.0000000, 0.0000000, 0.0000000, 0.0000000, 0.0000000, 0.0000000, 0.0000000, -0.1250000, 0.0000000, 0.0000000, 0.0546875, -0.1328125, -0.1171875, 0.0000000, 0.0937500, 0.0000000, 0.0781250, -0.0546875, 0.0000000, 0.0000000, -0.0625000, 0.0000000, -0.1250000, 0.0000000, 0.0000000, 0.0000000, -0.0937500, -0.1171875, -0.1093750, -0.0859375, -0.0625000, 0.0000000, -0.1328125, 0.0000000, 0.0000000, -0.0625000, -0.1328125, -0.1562500, 0.1406250, 0.0000000, 0.0000000, 0.0000000, -0.1015625, -0.1171875, 0.0000000, -0.1093750, 0.0859375, -0.0781250, 0.0000000, 0.1171875, 0.0000000, 0.0000000, 0.0000000, 0.0781250, 0.0000000, 0.0000000, 0.0000000, 0.0000000, 0.0000000, 0.0000000, 0.1171875, -0.0781250, 0.0000000, 0.0000000, -0.1093750, 0.0937500, 0.0000000, 0.0000000, 0.1406250, 0.0625000, 0.0000000, 0.0000000, 0.0000000, 0.0000000, 0.1015625, 0.0937500, 0.0859375, -0.1171875, -0.0781250, 0.0000000, 0.0000000, 0.0000000, 0.0000000, 0.0000000, 0.0781250, 0.0000000, -0.1093750, 0.0625000, -0.1171875, 0.0781250, 0.0000000, 0.0000000, 0.0000000, 0.1093750, 0.0703125, 0.0000000, 0.0000000, 0.0000000, 0.0000000, 0.0000000, 0.0937500, 0.0000000, 0.0000000, 0.0000000, 0.0000000, -0.1171875, 0.0000000, 0.0703125, 0.1171875, 0.0000000, 0.0000000, 0.1093750, -0.1406250, -0.0781250, 0.0000000, -0.0937500, 0.1484375, 0.1406250, 0.0000000, 0.0000000, 0.0000000, 0.0000000, 0.0000000, 0.0000000, 0.0000000, 0.0000000, -0.0546875, 0.0000000, 0.0703125, 0.0000000, -0.0937500, 0.0000000, 0.1015625, 0.0000000, -0.1250000, 0.0000000, 0.0000000, 0.1328125, 0.0000000, 0.0937500, 0.0000000, -0.0781250, 0.0000000, -0.1093750, 0.1015625, -0.0937500, 0.0000000, -0.1171875, 0.0000000, 0.0000000, 0.1328125, 0.0000000, 0.0000000, -0.1093750, 0.1171875, -0.0781250, 0.0937500, 0.0625000, 0.1171875, 0.0000000, -0.0937500, 0.0000000, 0.0703125, 0.0000000, 0.0937500, 0.0000000, 0.0781250, 0.0000000, -0.1093750, 0.0937500, -0.0859375, 0.1015625, 0.0000000, 0.0000000, -0.0703125, 0.0000000, 0.1171875, -0.1171875, 0.1171875, 0.1250000, 0.0000000, -0.1015625, -0.0546875, 0.1015625, 0.0000000, 0.0000000, -0.0781250, 0.0000000, 0.0000000, 0.0000000, 0.0000000, 0.0000000, 0.0000000, 0.0000000, -0.1015625, -0.1015625, -0.1171875, 0.0781250, 0.0000000, 0.0000000, 0.0937500, 0.0000000, 0.0000000, 0.1015625, 0.0000000, 0.0000000, 0.1171875, -0.0859375, 0.0000000, -0.1171875, 0.0781250, 0.0000000, -0.1328125, 0.0000000, 0.0703125, 0.0000000, 0.0000000, 0.0937500, 0.0703125, -0.0937500, 0.0781250, 0.0859375, 0.0000000, 0.0000000, 0.0000000, 0.0000000, 0.0937500, 0.0703125, 0.0000000, 0.0000000, 0.0000000, 0.0000000, 0.0703125, -0.1250000, 0.0000000, 0.0000000, 0.1015625, 0.1015625, 0.0000000, 0.0781250, 0.0000000, 0.0000000, 0.0937500, 0.0781250, 0.0000000, 0.0000000, 0.0625000, 0.0000000, 0.0000000, 0.0000000, 0.0000000, 0.0000000, 0.0000000, 0.1015625, -0.0703125, -0.0703125, -0.0781250, -0.1250000, -0.0859375, 0.1093750, -0.1328125, 0.0781250, 0.0781250, 0.1406250, 0.0000000, 0.0546875, 0.0859375, -0.1015625, 0.0000000, 0.0000000, 0.0000000, 0.0000000, 0.0000000, 0.0000000, 0.0000000, 0.0000000, 0.1093750, 0.1250000, 0.0000000, 0.0000000, 0.0000000, 0.0000000, 0.0000000, -0.0859375, 0.0000000, -0.0859375, 0.0000000, -0.0937500, 0.0000000, 0.0859375, 0.0781250, 0.0781250, 0.0000000, 0.0000000, 0.0000000, 0.0000000, 0.0000000, 0.0546875, 0.0000000, 0.1484375, -0.0703125, -0.0781250, 0.0625000, 0.0000000, -0.1328125, 0.0781250, -0.1015625, 0.0937500, 0.0000000, 0.1015625, 0.0000000, 0.0000000, 0.0000000, 0.0000000, 0.0703125, 0.1171875, 0.0000000, 0.1171875, 0.1171875, -0.1640625, -0.0546875, 0.0000000, 0.0000000, 0.0000000, 0.0000000, 0.0000000, -0.0937500, 0.0859375, 0.0000000, 0.1562500, 0.1015625, 0.0703125, 0.0000000, -0.0859375, 0.0000000, 0.0703125, -0.0625000, 0.0000000, 0.0937500, 0.0000000, 0.0859375, 0.0937500, 0.1250000, 0.0000000, -0.0937500, -0.1406250, 0.0859375, 0.0000000, 0.0000000, 0.0625000, 0.0000000, 0.0000000, 0.0000000, 0.0000000, -0.1171875, -0.1015625, 0.0000000, -0.0781250, -0.0781250, 0.0000000, 0.0000000, -0.1015625, 0.0000000, 0.0000000, -0.0703125, -0.0937500, 0.0703125, 0.1015625, -0.1015625, 0.0000000, -0.0625000, -0.0703125, 0.0000000, 0.0000000, 0.0000000, -0.0781250, -0.1093750, 0.1015625, 0.0000000, 0.0000000, -0.0703125, 0.0000000, -0.0625000, 0.0000000, -0.1171875, -0.0937500, 0.0937500, 0.0000000, 0.0000000, 0.0000000, 0.0000000, 0.0000000, 0.0000000, 0.0000000, 0.0859375, 0.0000000, 0.0000000, 0.0000000, 0.0000000, 0.0000000, -0.1171875, 0.0000000, 0.0703125, -0.0781250, 0.0000000, 0.0000000, 0.0000000, 0.0000000, 0.0000000, -0.0703125, 0.0000000, -0.1015625, 0.0000000, 0.0703125, 0.0000000, 0.0000000, 0.0000000, 0.0000000, 0.0781250, 0.1250000, 0.0000000, 0.0859375, 0.0000000, 0.0000000, -0.0781250, 0.0000000, 0.0781250, 0.1328125, 0.0000000, 0.0000000, 0.0000000, 0.0703125, 0.0000000, -0.1093750, 0.0703125, 0.0625000, 0.0000000, -0.1015625, 0.0000000, -0.0625000, 0.0000000, 0.1484375, 0.0000000, 0.0000000, 0.1328125, 0.0000000, 0.0859375, 0.1015625, -0.1171875, 0.0000000, 0.0000000, 0.0000000, -0.1015625, 0.0625000, 0.0000000, 0.0000000, 0.0703125, 0.0000000, 0.0000000, 0.0000000, 0.1015625, 0.0000000, 0.0000000, 0.0000000, 0.0000000, 0.0000000, 0.0000000, 0.0000000, 0.1718750, 0.1328125, 0.0000000, 0.0000000, 0.0000000, 0.0000000, 0.1640625, 0.0000000, 0.0000000, 0.0000000, 0.0000000, 0.1250000, 0.0000000, 0.0000000, 0.0000000, 0.0000000, 0.0000000, 0.0000000, 0.0781250, 0.0000000, 0.0000000, 0.0000000, 0.0000000, 0.1328125, 0.0000000, 0.1015625, 0.0000000, -0.0703125, 0.0000000, 0.0000000, 0.0000000, 0.0546875, 0.0468750, 0.0000000, 0.0000000, 0.0000000, 0.0937500, 0.0000000, 0.0703125, 0.0000000, -0.0781250, 0.0000000, 0.0000000, 0.0000000, 0.1093750, -0.1250000, 0.0625000, 0.1015625, 0.0000000, 0.0000000, 0.0000000, 0.0000000, 0.0000000, 0.0000000, -0.0859375, -0.0703125, 0.0000000, 0.0859375, 0.0000000, 0.0000000, 0.0859375, 0.0000000, 0.1484375, 0.0000000, 0.0000000, 0.0937500, 0.0000000, -0.1640625, 0.1562500, 0.0000000, 0.1250000, 0.0000000, 0.1328125, 0.0859375, 0.0000000, 0.0000000, 0.0000000, -0.1250000, 0.0000000, 0.0000000, -0.0859375, 0.0781250, 0.1171875, 0.0000000, 0.0859375, 0.0000000, 0.1171875, 0.0000000, -0.1250000, 0.1171875, 0.0000000, -0.1406250, 0.0000000, 0.0000000, 0.1015625, 0.0000000, 0.1250000, -0.0859375, -0.0859375, -0.1015625, 0.0000000, 0.0625000, 0.0000000, 0.0859375, 0.0000000, -0.1015625, 0.0000000, 0.0000000, 0.0937500, -0.1328125, 0.0000000, 0.0000000, 0.0000000, 0.0625000, 0.0000000, 0.0000000, 0.0625000, 0.0546875, 0.0000000, -0.0625000, 0.0703125, 0.0000000, 0.0000000, 0.0000000, -0.0781250, 0.0703125, -0.1093750, 0.0000000, 0.0000000, -0.0937500, -0.1015625, 0.0937500, 0.0000000, 0.0000000, -0.0781250, -0.0937500, 0.0000000, 0.0703125, -0.0781250, 0.0781250, -0.1015625, -0.1640625, 0.0000000, -0.1015625, 0.0000000, 0.0000000, -0.1171875, -0.0859375, -0.1093750, 0.0000000, 0.0000000, 0.0000000, 0.0000000, 0.0000000, 0.0000000, 0.0000000, -0.1015625, -0.1406250, 0.0000000, 0.0937500, -0.1328125, 0.0000000, 0.0000000, 0.0625000, 0.0000000, 0.0000000, 0.0000000, -0.0703125, 0.0000000, 0.0000000, 0.0000000, 0.0781250, 0.0000000, 0.0000000, -0.0625000, 0.0000000, -0.1171875, 0.0703125, 0.0937500, 0.0000000, -0.0703125, 0.0000000, 0.1093750, 0.0703125, 0.0000000, -0.1250000, 0.0937500, 0.0000000, 0.0000000, 0.0000000, -0.0625000, -0.0703125, 0.1328125, 0.0000000, -0.0703125, 0.0703125, 0.1093750, 0.0000000, 0.0000000, 0.0000000, 0.0000000, 0.0000000, 0.0000000, 0.0937500, 0.0000000, 0.0000000, 0.1015625, 0.0000000, 0.0859375, 0.0000000, -0.0703125, 0.0000000, 0.0000000, -0.0781250, -0.0703125, 0.1093750, 0.1250000, -0.0859375, 0.0000000, 0.0000000, 0.0000000, 0.0000000, -0.0859375, 0.1093750, -0.0703125, 0.0000000, 0.0000000, -0.0703125, -0.0703125, 0.0000000, -0.0937500, 0.0000000, 0.0703125, 0.0000000, 0.0000000, -0.0937500, 0.0703125, 0.0000000, 0.0000000, 0.0703125, 0.0000000, 0.0000000, -0.0546875, 0.0000000, -0.1171875, -0.1171875, 0.0000000, 0.0000000, -0.1093750, 0.1328125, 0.0703125, 0.1093750, 0.0000000, -0.1171875, 0.0000000, 0.1093750, -0.1406250, -0.0625000, 0.0000000, -0.0859375, 0.0937500, 0.0000000, 0.0000000, 0.1171875, 0.0000000, 0.0000000, 0.0000000, 0.0937500, -0.1328125, 0.0000000, -0.0703125, 0.0937500, 0.0000000, 0.0546875, 0.0625000, 0.0703125, 0.0859375, 0.0000000, 0.0000000, 0.0781250, -0.1250000, 0.0781250, 0.0000000, -0.0625000, 0.0000000, 0.0000000, 0.0000000, 0.0859375, 0.0703125, 0.0937500, 0.0000000, -0.1015625, -0.1484375, -0.1015625, 0.0937500, 0.0000000, 0.0625000, 0.0000000, 0.0703125, 0.0000000, -0.0781250, 0.0000000, 0.0859375, 0.0859375, -0.1093750, 0.0781250, -0.1406250, 0.0000000, 0.0859375, 0.1406250, 0.0781250, -0.1171875, 0.1250000, 0.0000000, -0.0937500, 0.0000000, 0.0546875, 0.0000000, 0.0859375, 0.0000000, 0.0000000, 0.0000000, 0.0703125, 0.0000000, 0.0859375, 0.0000000, 0.0000000, 0.0859375, 0.1562500, -0.0546875, -0.0625000, 0.0000000, 0.0000000, 0.1718750, 0.0859375, -0.1015625, 0.1484375, 0.0000000, 0.0000000, 0.0000000, 0.0859375, -0.0781250, 0.0000000, 0.1015625, 0.0937500, 0.1093750, 0.1406250, 0.0000000, 0.0703125, 0.0000000, 0.0000000, -0.0703125, 0.2031250, 0.0000000, -0.0781250, 0.1250000, 0.1171875, 0.0000000, 0.0000000, 0.0000000, 0.1562500, 0.0000000, 0.1093750, -0.0546875, 0.0000000, 0.0000000, 0.0000000, 0.0000000, 0.1015625, 0.0000000, -0.0781250, 0.0000000, 0.0000000, 0.0000000, 0.0000000, 0.0000000, 0.0000000, 0.0000000, 0.0937500, 0.0000000, -0.1250000, 0.0000000, 0.0000000, 0.0859375, 0.0781250, 0.0000000, 0.0000000, -0.0859375, -0.0703125, 0.1562500, 0.0000000, 0.0000000, 0.0703125, 0.0000000, 0.0703125, 0.0703125, 0.0703125, -0.1171875, 0.0000000, 0.0000000, -0.1484375, -0.1562500, 0.0000000, 0.0000000, 0.0000000, 0.0781250, 0.0000000, 0.0000000, -0.0546875, 0.0000000, 0.0000000, 0.0000000, 0.1406250, 0.1328125, 0.0000000, 0.0937500, -0.1093750, 0.0000000, 0.0000000, 0.0859375, -0.0703125, 0.0000000, -0.0937500, 0.0000000, -0.0625000, -0.1171875, 0.1406250, 0.0000000, -0.1250000, 0.1328125, 0.0625000, -0.1171875, -0.0937500, 0.0000000, 0.0000000, -0.1406250, 0.0000000, 0.1484375, 0.0625000, 0.0000000, 0.0000000, 0.0000000, 0.0000000, 0.0000000, -0.0859375, 0.0000000, 0.0000000, 0.0000000, 0.0000000, -0.1484375, 0.0000000, 0.1875000, 0.1250000, 0.1250000, 0.0937500, 0.0000000, -0.0937500, 0.0000000, -0.1171875, 0.0000000, 0.0000000, -0.1250000, 0.0000000, 0.1328125, 0.0000000, 0.1328125, -0.1015625, 0.1562500, 0.0625000, 0.0000000, -0.1171875, 0.0000000, 0.0000000, -0.0703125, -0.1562500, 0.1250000, 0.1093750, 0.0000000, 0.0859375, 0.0000000, 0.0000000, -0.0625000, 0.0000000, -0.0937500, 0.1093750, -0.1640625, 0.0625000, -0.0703125, 0.0000000, 0.0000000, 0.0000000, 0.0000000, -0.0937500, -0.1171875, -0.0625000, 0.0000000, 0.0000000, -0.0937500, -0.0937500, 0.0000000, 0.1093750, 0.0000000, 0.1406250, -0.1562500, 0.1015625, 0.1093750, 0.0000000, 0.0000000, 0.0000000, 0.0000000, 0.0000000, 0.0000000, 0.0000000, 0.0000000, 0.1328125, 0.0000000, 0.0000000, 0.0000000, 0.0000000, 0.0000000, 0.1015625, -0.0859375, -0.1015625, -0.0781250, 0.0000000, 0.0000000, 0.0000000, -0.1250000, 0.0703125, -0.1015625, 0.0000000, 0.0000000, 0.0000000, -0.1093750, -0.0625000, 0.0000000, 0.0000000, 0.0000000, 0.0000000, 0.0000000, 0.0937500, -0.1562500, -0.1015625, -0.0703125, -0.0859375, 0.0000000, 0.0937500, 0.0000000, -0.0546875, 0.0781250, -0.0859375, -0.0625000, 0.0937500, 0.0000000, 0.0781250, 0.0781250, 0.0000000, -0.1093750, 0.0000000, 0.0000000, 0.0859375, 0.1015625, -0.1093750, 0.0937500, -0.0625000, -0.1093750, 0.0000000, -0.1171875, 0.1015625, 0.0000000, 0.0000000, 0.0000000, 0.0000000, -0.0937500, -0.1093750, -0.1250000, 0.0000000, 0.0000000, 0.0000000, -0.0546875, -0.1093750, -0.1093750, -0.1171875, 0.0000000, 0.0000000, 0.0000000, 0.0000000, -0.0859375, 0.0000000, 0.0000000, 0.0781250, 0.0000000, -0.1328125, -0.1015625, 0.0000000, 0.0000000, 0.1171875, 0.0000000, 0.1250000, 0.1250000, 0.0000000, 0.0000000, 0.0000000, 0.0625000, 0.0937500, -0.1015625, 0.1171875, 0.0000000, 0.0000000, 0.0000000, 0.0000000, 0.0781250, 0.0000000, 0.0000000, 0.1015625, -0.1171875, -0.0703125, -0.1171875, 0.0000000, 0.0000000, 0.1328125, 0.0781250, -0.0859375, 0.0000000, 0.0000000, 0.0703125, -0.0859375, 0.1171875, -0.0937500, 0.0000000, 0.0000000, 0.1328125, 0.0000000, -0.0703125, -0.0859375, 0.1250000, 0.0000000, 0.0000000, -0.0703125, 0.0859375, -0.0703125, 0.0000000, 0.0000000, -0.1328125, 0.1171875, -0.1015625, 0.1250000, -0.0937500, 0.0703125, 0.0000000, -0.0625000, 0.0781250, 0.0000000, 0.0000000, 0.0000000, 0.0781250, 0.0000000, 0.0781250, 0.1250000, 0.0000000, 0.0000000, 0.0000000, 0.0000000, -0.0859375, 0.0000000, 0.0000000, 0.0000000, 0.0000000, 0.0781250, -0.1640625, 0.0859375, -0.0781250, 0.0000000, 0.1171875, -0.0625000, -0.0703125, -0.1484375, -0.0703125, 0.0000000, 0.0000000, -0.1093750, 0.0000000, 0.1093750, -0.0937500, -0.0937500, 0.0000000, 0.0000000, 0.1640625, 0.0000000, 0.0000000, 0.0000000, -0.1484375, 0.1328125, 0.0000000, 0.0781250, 0.0781250, 0.0625000, 0.0000000, -0.1250000, 0.0937500, 0.0000000, 0.0000000, 0.1093750, 0.0000000, 0.0000000, 0.0000000, 0.1250000, 0.1250000, 0.0000000, 0.0000000, 0.0000000, 0.0000000, 0.0000000, 0.0000000, 0.0000000, -0.1484375, 0.0000000, 0.0000000, -0.0703125, -0.1015625, 0.0000000, -0.0546875, 0.0000000, 0.0000000, 0.0000000, 0.0000000, 0.0000000, -0.0859375, -0.1015625, 0.1406250, 0.0000000, 0.0000000, -0.0781250, -0.1718750, 0.0703125, 0.0000000, -0.0859375, 0.0000000, 0.0000000, -0.1484375, 0.1250000, 0.0000000, 0.1093750, 0.0000000, 0.0000000, -0.1015625, 0.1093750, -0.0781250, 0.0000000, 0.0000000, 0.1093750, 0.1015625, 0.0781250, 0.0000000, 0.0000000, 0.0000000, 0.1093750, -0.1562500, 0.0000000, 0.0000000, 0.1015625, 0.0000000, 0.0000000, 0.0000000, 0.0000000, 0.0000000, 0.1015625, 0.0000000, 0.1171875, 0.0000000, 0.0000000, 0.0859375, 0.0000000, 0.0000000, -0.0781250, 0.0000000, 0.0000000, 0.1015625, 0.0859375, 0.0859375, 0.0625000, 0.0000000, 0.1171875, 0.0000000, 0.0000000, 0.0000000, 0.0000000, 0.0000000, -0.0625000, -0.1328125, 0.1250000, 0.0000000, 0.0000000, 0.0000000, -0.0937500, -0.0781250, 0.0625000, 0.0781250, 0.0000000, 0.0000000, -0.0937500, -0.1015625, 0.0937500, 0.0000000, 0.0000000, 0.0000000, 0.0000000, 0.0000000, 0.0000000, 0.1093750, 0.0000000, 0.0000000, -0.0937500, -0.1328125, 0.1015625, 0.1406250, 0.1328125, 0.0000000, 0.1171875, 0.0000000, 0.0000000, 0.1015625, 0.0000000, 0.1015625, 0.0000000, 0.0625000, 0.0000000, 0.0000000, 0.1171875, 0.0000000, 0.0000000, 0.1250000, 0.0000000, 0.0000000, 0.0859375, -0.1171875, 0.1093750, -0.1640625, 0.0000000, 0.1406250, -0.0937500, 0.0000000, 0.0859375, 0.0937500, 0.0000000, 0.0000000, 0.0937500, -0.0937500, -0.0703125, 0.0000000, 0.0000000, -0.0625000, -0.0703125, 0.1250000, 0.0000000, 0.1406250, -0.1093750, 0.1640625, 0.0000000, -0.1718750, 0.0000000, -0.0781250, 0.0937500, 0.1093750, 0.0781250, 0.0703125, 0.0000000, -0.0781250, -0.0937500, 0.1171875, 0.0000000, 0.0625000, -0.0937500, -0.0859375, 0.1250000, 0.0000000, 0.0859375, 0.0000000, 0.1250000, -0.0546875, 0.0000000, 0.1406250, -0.1015625, 0.0000000, 0.1093750, 0.0000000, 0.0000000, 0.0000000, -0.1093750, -0.0781250, -0.0625000, 0.0000000, 0.0859375, -0.1171875, 0.0625000, 0.0000000, 0.0000000, -0.1093750, -0.0937500, 0.0000000, -0.1093750, -0.0937500, 0.0000000, 0.0000000, 0.0000000, 0.0000000, 0.0000000, -0.1093750, -0.1171875, -0.1250000, -0.0625000, 0.0703125, 0.0000000, -0.1015625, 0.0000000, 0.0000000, -0.0859375, -0.0703125, 0.0000000, 0.0000000, 0.0000000, 0.0937500, 0.0000000, 0.0000000, 0.0000000, 0.0000000, 0.0000000, 0.0000000, 0.0859375, 0.0859375, -0.1015625, 0.0000000, -0.0703125, -0.0937500, 0.1093750, 0.0000000, 0.0000000, 0.0000000, 0.0000000, 0.0625000, 0.1015625, -0.0937500, 0.1015625, 0.0000000, -0.1015625, -0.0781250, 0.1093750, 0.0000000, -0.0625000, 0.0000000, -0.0625000, -0.0781250, 0.0000000, 0.0000000};

#endif

#endif
