//Numpy array shape [3, 3, 24, 32]
//Min -0.218750000000
//Max 0.218750000000
//Number of zeros 3456

#ifndef W23_H_
#define W23_H_

#ifndef __SYNTHESIS__
weight23_t w23[6912];
#else
weight23_t w23[6912] = {0.0000000, 0.0000000, 0.0000000, 0.0000000, -0.0859375, -0.0859375, 0.0000000, 0.0000000, -0.1015625, 0.0000000, 0.0000000, 0.0000000, -0.1093750, 0.0000000, 0.0703125, 0.0000000, -0.1171875, 0.0000000, 0.0000000, 0.1015625, 0.0000000, 0.0000000, 0.0000000, 0.0937500, -0.0937500, 0.0000000, 0.0000000, 0.1093750, 0.1171875, 0.1093750, 0.0000000, 0.0000000, 0.0000000, 0.0781250, 0.0625000, -0.0859375, 0.0000000, 0.0000000, 0.0000000, 0.0000000, -0.0859375, -0.0859375, 0.0859375, 0.0781250, 0.0000000, 0.0781250, -0.0781250, 0.0000000, 0.0859375, 0.0000000, 0.0000000, -0.0625000, 0.1015625, 0.0000000, -0.0703125, 0.1484375, 0.0000000, 0.0000000, -0.1171875, 0.0000000, 0.0000000, 0.0000000, 0.0000000, 0.0000000, 0.0000000, 0.0000000, 0.0000000, 0.0000000, 0.0000000, 0.0703125, -0.1171875, 0.0000000, 0.1015625, 0.0859375, 0.1171875, 0.0000000, 0.0000000, 0.0937500, 0.0703125, -0.1015625, 0.0000000, 0.0000000, 0.0000000, 0.0000000, 0.0000000, -0.1328125, 0.0703125, -0.0781250, -0.1171875, 0.0781250, -0.1171875, -0.1171875, 0.0859375, 0.0000000, 0.0859375, 0.0000000, 0.0000000, 0.0703125, 0.0000000, 0.0000000, 0.0000000, 0.0859375, 0.0625000, 0.0000000, 0.0000000, 0.0000000, 0.0000000, 0.0000000, -0.1015625, -0.0859375, 0.0000000, -0.0859375, 0.0000000, 0.0000000, -0.1250000, -0.1093750, 0.0859375, -0.1171875, -0.1093750, 0.0000000, 0.0000000, -0.1171875, 0.0000000, 0.0000000, 0.1015625, -0.0937500, 0.0000000, 0.0859375, 0.0000000, -0.0781250, 0.0000000, 0.0781250, 0.0781250, -0.0937500, 0.0703125, 0.0000000, 0.0000000, -0.1171875, 0.0000000, -0.1015625, 0.0000000, 0.0000000, 0.0000000, 0.0000000, -0.0859375, -0.0937500, 0.0781250, -0.0859375, -0.0703125, -0.0625000, -0.1093750, 0.1406250, 0.0000000, 0.0000000, 0.1171875, 0.1015625, -0.1171875, 0.0937500, 0.0781250, 0.0000000, 0.0000000, 0.1015625, 0.0000000, 0.0781250, 0.0625000, 0.0000000, 0.0000000, 0.0937500, 0.0000000, 0.0859375, -0.1015625, -0.0781250, 0.0000000, 0.0000000, 0.0000000, 0.0000000, 0.0000000, 0.0703125, 0.0000000, -0.0703125, 0.0000000, 0.0000000, 0.1093750, 0.0000000, 0.1171875, 0.0625000, 0.0859375, 0.0625000, 0.0000000, 0.0000000, 0.0000000, 0.0000000, 0.0625000, -0.0625000, -0.0937500, -0.1406250, 0.0000000, -0.0859375, 0.0000000, 0.0000000, 0.0000000, 0.0781250, 0.0937500, 0.0000000, 0.0000000, -0.0937500, -0.0781250, -0.0859375, 0.0000000, 0.0000000, 0.0703125, 0.0000000, 0.0000000, 0.1171875, 0.0000000, 0.0859375, 0.0781250, -0.0937500, -0.1171875, -0.0859375, 0.0000000, 0.0937500, 0.0000000, -0.0703125, 0.0625000, 0.0000000, 0.0000000, -0.1015625, 0.0000000, 0.0000000, 0.0000000, 0.0000000, 0.0625000, -0.0703125, 0.0000000, 0.0000000, 0.0000000, 0.0000000, -0.0625000, 0.0000000, 0.0000000, 0.0000000, 0.0859375, -0.0781250, 0.0000000, -0.0625000, 0.0000000, 0.0000000, -0.1093750, 0.0000000, 0.0000000, 0.0000000, 0.0000000, -0.0937500, 0.0937500, 0.0000000, 0.0000000, 0.1093750, -0.0859375, -0.1250000, 0.0000000, 0.0000000, 0.0000000, 0.0000000, -0.0625000, 0.0703125, -0.1484375, -0.1328125, 0.0000000, 0.0625000, 0.0000000, -0.1406250, 0.0781250, 0.0781250, 0.1093750, 0.0000000, -0.1015625, 0.0000000, 0.0000000, 0.0703125, -0.1015625, 0.1171875, 0.0000000, -0.1171875, 0.0937500, 0.0000000, 0.0000000, 0.0000000, 0.0000000, -0.0625000, -0.1015625, -0.1562500, 0.1093750, 0.0000000, 0.1171875, 0.0000000, 0.0937500, 0.0000000, 0.0000000, 0.1015625, 0.0000000, 0.1093750, 0.0781250, 0.0625000, 0.0000000, 0.0000000, -0.1328125, 0.0000000, 0.0000000, 0.1015625, -0.0546875, 0.0703125, 0.0000000, 0.0000000, 0.0000000, 0.0000000, 0.0859375, -0.1093750, -0.0703125, 0.1171875, 0.0000000, 0.1250000, 0.1328125, 0.1015625, 0.0000000, -0.0703125, 0.0937500, 0.0000000, 0.0000000, 0.0000000, -0.0703125, 0.0937500, 0.1093750, 0.0000000, 0.0000000, 0.0000000, 0.0000000, 0.0000000, 0.0000000, -0.1093750, 0.0000000, -0.0703125, -0.1093750, 0.0000000, 0.0000000, 0.0000000, -0.0781250, 0.0859375, 0.0000000, 0.0000000, -0.0703125, 0.1015625, -0.0703125, 0.1250000, -0.1015625, 0.0000000, 0.1093750, 0.0000000, 0.1015625, -0.0703125, 0.0000000, 0.1250000, 0.0000000, 0.0000000, 0.0000000, -0.1093750, -0.1015625, 0.0000000, 0.0000000, 0.0000000, 0.0000000, 0.0000000, 0.0000000, 0.0000000, 0.0000000, 0.0000000, 0.0000000, -0.0625000, 0.1015625, 0.0000000, 0.0000000, 0.1015625, 0.0859375, -0.0703125, 0.0000000, -0.0625000, 0.0000000, 0.0000000, -0.0625000, 0.0000000, 0.0937500, -0.0859375, -0.0625000, 0.0000000, -0.0703125, -0.0703125, -0.0625000, 0.0000000, -0.0937500, -0.0625000, -0.0703125, 0.0000000, 0.0000000, 0.0000000, -0.0937500, 0.0781250, 0.0000000, 0.0937500, 0.1171875, 0.0000000, 0.0859375, 0.0703125, 0.0000000, 0.0000000, 0.0000000, 0.0000000, 0.0000000, 0.0703125, -0.0703125, -0.0703125, 0.0000000, 0.0000000, 0.1015625, 0.0000000, 0.0000000, -0.1093750, 0.0000000, 0.0000000, -0.0703125, 0.0859375, 0.1015625, 0.0000000, 0.0000000, -0.0781250, 0.0000000, -0.0703125, -0.0625000, 0.0000000, 0.0000000, -0.0703125, -0.0937500, 0.0000000, 0.0625000, 0.0000000, 0.0703125, -0.0625000, 0.0000000, -0.1093750, 0.0703125, 0.0000000, 0.0000000, 0.0781250, -0.1093750, 0.0000000, 0.0000000, 0.0703125, 0.0000000, -0.0859375, -0.0625000, 0.0000000, 0.0000000, 0.0000000, 0.0000000, 0.0000000, 0.0000000, 0.0000000, -0.0703125, -0.1093750, 0.0000000, 0.0000000, 0.1171875, 0.0781250, 0.0859375, -0.0859375, 0.0000000, 0.0000000, 0.0000000, 0.0000000, -0.0781250, 0.0000000, 0.0000000, -0.1171875, 0.0000000, 0.0859375, 0.0000000, 0.0937500, 0.1015625, 0.0000000, -0.0703125, -0.1171875, -0.0859375, 0.0000000, -0.0703125, 0.0000000, -0.0625000, -0.0703125, 0.0859375, 0.0000000, 0.0000000, 0.0000000, 0.0000000, 0.0000000, 0.0000000, 0.0000000, -0.0859375, 0.1015625, 0.1171875, 0.0000000, -0.0781250, 0.0000000, 0.0000000, 0.0000000, 0.1171875, 0.0859375, -0.0937500, -0.1328125, 0.1171875, 0.1171875, 0.0000000, 0.0000000, 0.1171875, 0.0000000, 0.0703125, 0.0000000, -0.0781250, 0.0000000, -0.0781250, 0.1093750, -0.1015625, -0.0937500, -0.0859375, 0.0000000, -0.1250000, 0.0000000, -0.0859375, 0.0000000, -0.0625000, 0.0000000, 0.1406250, -0.1406250, -0.1015625, 0.0000000, 0.0000000, 0.0000000, 0.0000000, 0.0000000, 0.0000000, 0.1093750, 0.0937500, -0.0937500, 0.0703125, -0.0859375, 0.0000000, 0.0000000, 0.0000000, 0.0703125, -0.1093750, 0.1093750, 0.0000000, -0.1250000, 0.0000000, 0.0000000, 0.0000000, 0.0000000, 0.0000000, 0.1640625, 0.1250000, -0.0781250, 0.0000000, 0.0000000, 0.0000000, 0.0000000, 0.0000000, 0.0000000, 0.0000000, -0.0781250, 0.1171875, 0.0000000, 0.0000000, 0.0000000, 0.0000000, 0.1250000, 0.0000000, 0.0000000, 0.0000000, 0.0000000, -0.0781250, -0.0859375, 0.0937500, 0.0000000, 0.0000000, -0.0859375, 0.0781250, 0.1015625, -0.0859375, 0.1015625, 0.1093750, 0.1093750, 0.0000000, 0.1093750, 0.1250000, 0.0625000, -0.0859375, -0.1250000, 0.1093750, 0.0781250, 0.0000000, 0.1250000, 0.0000000, -0.0703125, 0.0000000, -0.1562500, 0.0000000, 0.0859375, 0.1171875, 0.0937500, -0.0781250, 0.1171875, 0.0000000, 0.0000000, 0.0000000, 0.0000000, 0.1328125, 0.0000000, 0.0000000, 0.0000000, 0.0000000, 0.0000000, 0.0937500, -0.0703125, 0.0000000, 0.0703125, 0.1093750, 0.0000000, 0.0000000, -0.1250000, 0.0000000, 0.0703125, 0.0781250, 0.1171875, 0.0000000, 0.0000000, 0.0000000, 0.0000000, 0.0000000, 0.1015625, 0.1250000, 0.0000000, -0.0937500, 0.0000000, 0.0000000, 0.0000000, 0.0000000, 0.0000000, 0.0000000, 0.0000000, 0.1171875, 0.0000000, 0.0625000, 0.0000000, 0.0000000, -0.1015625, 0.0000000, 0.0546875, -0.1250000, 0.0000000, -0.0625000, 0.0000000, 0.0000000, -0.0625000, -0.1015625, -0.0703125, 0.0000000, 0.0859375, 0.0000000, 0.0000000, 0.0000000, 0.0000000, 0.0000000, 0.0000000, 0.0000000, 0.0000000, 0.0625000, 0.0000000, -0.0625000, 0.0000000, 0.0703125, 0.0546875, 0.0000000, 0.0937500, 0.0703125, 0.0859375, -0.1171875, 0.0625000, 0.0000000, 0.0000000, -0.0781250, 0.0000000, 0.0000000, 0.1171875, 0.0781250, 0.0000000, 0.0937500, 0.0000000, 0.0937500, 0.0000000, 0.0937500, -0.0781250, 0.0625000, 0.0000000, 0.0000000, 0.0000000, 0.0000000, 0.0000000, 0.0000000, -0.0859375, -0.0859375, -0.0703125, -0.1015625, 0.0000000, 0.0859375, 0.0000000, 0.0000000, 0.0000000, -0.0781250, -0.0859375, 0.1250000, 0.0000000, -0.0625000, -0.0859375, -0.0859375, 0.1406250, 0.0000000, 0.0000000, 0.0000000, 0.1250000, 0.0000000, 0.0000000, 0.0000000, 0.0000000, 0.1328125, 0.0937500, 0.0000000, -0.1015625, -0.0859375, 0.0625000, 0.1796875, 0.0546875, 0.0000000, 0.0000000, 0.0000000, 0.0000000, 0.0000000, 0.0000000, 0.0000000, 0.0000000, 0.0000000, -0.1562500, -0.1171875, 0.1796875, 0.0000000, 0.0000000, 0.0625000, 0.1484375, 0.1015625, 0.0000000, 0.0000000, -0.1015625, 0.0000000, 0.0000000, 0.0000000, 0.1015625, 0.1171875, -0.0703125, 0.0000000, 0.1093750, 0.0000000, 0.0937500, 0.0703125, 0.1171875, 0.0000000, 0.0000000, -0.1093750, 0.0000000, 0.0000000, 0.1093750, 0.0625000, 0.0000000, 0.1562500, 0.0000000, 0.0000000, 0.0000000, 0.1171875, 0.0781250, -0.1406250, -0.1250000, 0.0000000, 0.0000000, 0.0000000, 0.0000000, -0.1093750, -0.0859375, 0.0000000, 0.0000000, -0.1093750, 0.0000000, 0.0000000, 0.0000000, 0.0000000, -0.0781250, 0.0937500, 0.0000000, 0.0625000, 0.1171875, -0.0703125, -0.0859375, 0.0000000, -0.0781250, 0.0000000, 0.0625000, 0.0859375, 0.0703125, 0.0000000, 0.0000000, 0.0000000, 0.0703125, 0.0000000, 0.0859375, 0.1171875, 0.0937500, 0.0000000, 0.0000000, 0.0000000, -0.0781250, 0.0937500, 0.0000000, 0.0625000, 0.0000000, 0.0000000, 0.0000000, -0.0937500, 0.1093750, 0.0000000, -0.0937500, 0.0000000, 0.0000000, 0.0000000, 0.0000000, -0.0781250, 0.0000000, 0.0625000, 0.0000000, -0.0703125, 0.0781250, 0.0000000, -0.0937500, 0.1328125, 0.0000000, 0.0000000, 0.0000000, -0.0703125, 0.0859375, 0.0000000, 0.0000000, 0.0000000, 0.0000000, 0.0703125, 0.0859375, 0.1093750, 0.0000000, -0.1093750, 0.1484375, -0.1015625, 0.1171875, -0.0625000, 0.1171875, 0.1015625, -0.0703125, 0.0000000, 0.1015625, 0.0000000, -0.0859375, 0.1093750, 0.0000000, 0.0937500, 0.0000000, 0.0859375, 0.0000000, 0.0000000, -0.1171875, -0.0703125, 0.0000000, 0.0000000, 0.0000000, 0.0625000, 0.0000000, 0.0000000, 0.1171875, 0.0703125, -0.0937500, 0.1093750, -0.1250000, 0.0000000, 0.0781250, 0.0781250, 0.0000000, 0.0000000, 0.1015625, 0.1484375, 0.0937500, 0.0000000, -0.0703125, 0.0859375, -0.0703125, -0.0625000, 0.0781250, 0.0703125, 0.0703125, 0.0000000, 0.0000000, 0.0000000, 0.0703125, 0.0000000, -0.0703125, 0.0000000, 0.0000000, -0.0703125, 0.1406250, 0.0000000, -0.0937500, -0.1015625, 0.1015625, 0.0000000, 0.1093750, 0.0859375, 0.0000000, -0.1093750, -0.0781250, -0.0625000, 0.0000000, 0.0625000, -0.1171875, 0.0000000, 0.0000000, -0.0703125, 0.0937500, -0.0859375, 0.0000000, 0.0625000, 0.0000000, -0.0859375, -0.1015625, -0.0937500, -0.0937500, 0.0703125, -0.0859375, 0.0000000, 0.0625000, -0.0859375, 0.0000000, 0.0625000, 0.0000000, 0.1640625, 0.0000000, 0.0000000, -0.1015625, 0.0000000, -0.1015625, 0.0859375, 0.0000000, -0.1250000, 0.0000000, -0.0859375, 0.0000000, 0.0000000, 0.0000000, 0.0000000, 0.0000000, 0.0000000, 0.0000000, -0.1093750, 0.0937500, 0.0000000, 0.0000000, 0.0000000, 0.0703125, 0.0000000, 0.1015625, -0.1015625, 0.0000000, 0.0625000, 0.0000000, -0.0937500, 0.0000000, 0.0000000, 0.0781250, 0.0000000, 0.0000000, -0.0703125, -0.0859375, 0.0000000, 0.0000000, 0.0625000, -0.0781250, 0.0000000, 0.0000000, 0.0703125, 0.0000000, 0.0000000, 0.0000000, 0.0000000, 0.0000000, -0.1015625, 0.0000000, -0.0781250, 0.1718750, 0.0000000, 0.1171875, 0.0703125, 0.0000000, 0.0000000, 0.0000000, 0.1093750, 0.1328125, 0.0000000, 0.0937500, 0.1250000, 0.0937500, 0.0000000, 0.1250000, -0.1015625, -0.1171875, -0.1171875, -0.0625000, -0.0937500, -0.0625000, 0.0000000, 0.0000000, 0.0937500, 0.1562500, 0.1015625, 0.0000000, 0.0703125, 0.0781250, 0.1093750, 0.0781250, 0.0000000, -0.0703125, 0.0000000, -0.1015625, 0.0000000, 0.1093750, 0.0781250, 0.1171875, 0.0000000, 0.0000000, -0.0703125, 0.0000000, 0.0937500, 0.0859375, -0.1093750, 0.0000000, 0.0781250, 0.1406250, 0.0000000, 0.0000000, 0.0703125, 0.0703125, 0.0625000, 0.1093750, 0.0000000, 0.1328125, 0.0000000, 0.0000000, 0.0937500, 0.1171875, 0.1328125, 0.0000000, 0.0000000, -0.1093750, 0.0000000, 0.0000000, 0.0000000, 0.0000000, 0.0000000, 0.0000000, -0.1093750, 0.0937500, 0.1015625, 0.1015625, 0.0937500, 0.0859375, 0.1093750, 0.0000000, 0.1015625, -0.0781250, 0.0000000, 0.0000000, 0.0937500, 0.0000000, 0.0000000, 0.0625000, 0.0000000, -0.0781250, 0.0000000, 0.1093750, -0.1171875, -0.0703125, 0.0000000, 0.0000000, -0.0625000, -0.1015625, 0.0000000, 0.0000000, 0.0000000, 0.0000000, 0.1015625, 0.0000000, -0.0859375, -0.1093750, -0.1093750, 0.0000000, -0.0859375, -0.0703125, -0.0859375, -0.0781250, 0.1171875, 0.0937500, 0.0703125, 0.0703125, 0.0000000, -0.1171875, 0.0000000, 0.0000000, 0.1093750, 0.0703125, 0.0000000, 0.0000000, -0.0781250, 0.0000000, 0.1015625, 0.0000000, 0.0859375, -0.1093750, -0.0625000, -0.1093750, -0.0625000, 0.0000000, 0.0000000, 0.0000000, 0.0781250, 0.1250000, 0.0000000, 0.0859375, 0.0000000, 0.0000000, 0.0000000, 0.0000000, -0.1015625, 0.0000000, 0.0000000, -0.1015625, 0.0000000, 0.0000000, 0.0000000, 0.1015625, -0.0625000, 0.0000000, 0.0937500, 0.0781250, 0.1093750, -0.0703125, 0.0000000, 0.0000000, 0.0000000, 0.0000000, 0.0859375, 0.0000000, -0.0859375, 0.0000000, 0.0000000, 0.0859375, 0.0625000, -0.0625000, 0.0000000, -0.0859375, 0.0000000, 0.0000000, 0.1015625, 0.0000000, 0.0000000, 0.0000000, -0.0625000, 0.0000000, -0.0625000, -0.1250000, 0.0000000, 0.0000000, 0.1093750, 0.0000000, 0.0000000, -0.0937500, 0.1015625, 0.0000000, 0.0000000, 0.1015625, 0.0000000, 0.0000000, 0.0000000, 0.0703125, 0.0000000, -0.0859375, 0.0000000, 0.0781250, 0.0000000, -0.0781250, -0.0625000, 0.0000000, -0.1171875, 0.0000000, -0.0625000, 0.0000000, 0.1250000, 0.0781250, 0.0625000, 0.0781250, 0.0000000, 0.0000000, 0.0000000, -0.0937500, 0.0000000, -0.0781250, 0.0000000, 0.0000000, 0.0859375, -0.1093750, 0.0000000, -0.0781250, 0.0000000, 0.0000000, 0.0937500, -0.0703125, 0.0000000, -0.0937500, -0.0781250, 0.0000000, -0.0781250, 0.1093750, 0.0000000, 0.1171875, -0.1328125, 0.0000000, 0.0781250, -0.0937500, -0.0937500, 0.0000000, 0.1171875, 0.0000000, -0.1093750, 0.0000000, 0.1250000, 0.0000000, 0.0000000, 0.0000000, 0.0625000, 0.0000000, -0.1171875, -0.0703125, -0.1250000, 0.0781250, 0.0000000, 0.0000000, 0.0625000, 0.0703125, 0.0000000, 0.0000000, 0.0000000, 0.0000000, -0.0781250, 0.0000000, -0.0625000, 0.0000000, 0.0937500, -0.1250000, 0.0000000, -0.1093750, 0.0000000, 0.0000000, 0.1093750, -0.0781250, 0.0000000, 0.0000000, 0.0000000, 0.0859375, -0.0859375, 0.0000000, 0.0703125, 0.0937500, 0.0000000, 0.0000000, 0.0000000, 0.1171875, -0.0703125, 0.0000000, -0.0859375, 0.1093750, 0.0000000, 0.0000000, 0.0000000, 0.1171875, 0.1015625, -0.0937500, -0.0937500, 0.0000000, -0.1015625, 0.0000000, 0.0000000, 0.0000000, 0.0000000, 0.1093750, 0.0000000, -0.0859375, 0.0703125, -0.1015625, 0.0000000, 0.0000000, 0.0000000, 0.0000000, -0.0781250, 0.0000000, 0.0000000, -0.1250000, -0.0859375, 0.0000000, 0.0000000, -0.0859375, -0.1015625, 0.0781250, -0.0703125, 0.0000000, -0.1093750, -0.1015625, 0.0000000, -0.0937500, 0.0781250, 0.0781250, 0.0000000, 0.0000000, 0.0000000, -0.0937500, 0.1093750, -0.1171875, 0.0000000, 0.0859375, 0.0000000, -0.0859375, -0.0703125, 0.0000000, 0.0000000, 0.0000000, 0.0703125, -0.0781250, 0.0000000, 0.0000000, -0.1328125, -0.0937500, 0.0000000, -0.0703125, 0.0781250, 0.0000000, 0.0000000, 0.0703125, 0.0000000, 0.0000000, 0.0937500, 0.0000000, -0.1015625, 0.0000000, 0.0000000, 0.0000000, 0.0000000, 0.0000000, 0.0000000, 0.0000000, 0.0000000, 0.1093750, -0.0703125, 0.0000000, -0.0781250, 0.0781250, 0.0000000, 0.0937500, -0.1015625, 0.0937500, 0.0000000, 0.0000000, 0.0000000, 0.1093750, 0.0000000, 0.1171875, 0.0000000, 0.0000000, -0.0625000, 0.0000000, 0.0000000, 0.0000000, 0.0625000, 0.0781250, -0.1093750, 0.0000000, -0.1250000, 0.0000000, -0.0937500, 0.0000000, -0.0781250, 0.0000000, 0.1015625, 0.0000000, 0.0000000, -0.0937500, 0.0000000, 0.0000000, 0.0625000, -0.0937500, 0.0000000, 0.0000000, 0.0703125, 0.0000000, 0.0000000, 0.0859375, 0.0781250, 0.1250000, 0.0000000, 0.0000000, 0.0000000, -0.1015625, 0.0000000, 0.0000000, 0.1171875, -0.1015625, 0.0859375, 0.0000000, -0.1093750, -0.1093750, 0.0000000, -0.0937500, 0.1093750, 0.0000000, 0.0000000, -0.0937500, 0.0000000, 0.0000000, -0.0859375, -0.1093750, -0.0703125, 0.0000000, -0.0781250, 0.0937500, 0.0000000, -0.0703125, 0.0000000, 0.0000000, 0.0000000, 0.0000000, -0.0937500, 0.0000000, 0.0625000, 0.1093750, 0.0625000, 0.0000000, 0.0000000, 0.0000000, -0.0625000, 0.0000000, 0.0859375, -0.0937500, 0.0000000, 0.0703125, 0.0000000, 0.0859375, -0.0625000, 0.0625000, -0.1015625, 0.0000000, 0.0859375, 0.0937500, 0.0000000, 0.1171875, 0.0000000, 0.1093750, 0.0000000, 0.1093750, -0.0781250, 0.1015625, 0.0000000, 0.0000000, 0.0000000, 0.1171875, 0.0000000, 0.0000000, 0.0000000, 0.0000000, 0.0000000, 0.0000000, 0.0000000, -0.0703125, 0.1171875, 0.0000000, -0.0781250, 0.0000000, 0.0000000, -0.0703125, 0.0000000, 0.0000000, 0.0000000, -0.0859375, -0.0859375, -0.0937500, -0.1093750, 0.0625000, 0.0000000, 0.0000000, -0.0859375, 0.0000000, 0.0000000, 0.0000000, -0.0703125, 0.0000000, 0.0781250, 0.0703125, -0.0937500, -0.1328125, 0.0000000, 0.0000000, 0.0000000, 0.0000000, 0.0000000, 0.1015625, 0.0000000, 0.0000000, 0.0000000, -0.0703125, 0.0000000, 0.0000000, 0.0625000, 0.0000000, 0.0000000, 0.0000000, 0.1093750, -0.1093750, 0.0000000, -0.0781250, 0.0781250, 0.0703125, 0.0000000, 0.0000000, -0.1171875, 0.0000000, -0.1015625, 0.0703125, 0.0000000, 0.0000000, -0.1171875, 0.0000000, 0.0937500, -0.0937500, 0.0000000, 0.0000000, 0.0000000, 0.0000000, 0.1171875, 0.0000000, 0.0000000, 0.0000000, 0.0937500, 0.0000000, 0.0000000, -0.0781250, -0.1015625, -0.1406250, -0.0781250, 0.0000000, 0.0000000, 0.0000000, -0.1171875, 0.0000000, 0.1093750, 0.0859375, -0.1250000, 0.0000000, 0.0000000, 0.0859375, -0.0781250, 0.0000000, 0.0703125, 0.0000000, -0.1093750, 0.0000000, 0.0000000, 0.0000000, -0.1015625, 0.0859375, 0.0000000, 0.0000000, 0.0000000, 0.1171875, -0.0625000, 0.0000000, 0.0000000, -0.1015625, 0.0000000, 0.0000000, 0.0000000, 0.0000000, 0.0000000, -0.0937500, 0.0000000, 0.0000000, 0.0000000, -0.1015625, 0.0000000, 0.0859375, 0.0000000, -0.0546875, 0.0000000, 0.0000000, -0.1093750, 0.0000000, 0.0703125, 0.0000000, 0.0000000, 0.0000000, 0.0000000, -0.0625000, 0.0000000, -0.1093750, -0.1250000, 0.0000000, 0.0000000, -0.0781250, 0.0000000, 0.0937500, 0.0000000, -0.0703125, 0.0781250, 0.0000000, -0.0625000, 0.0000000, 0.0000000, 0.0000000, 0.0000000, 0.0000000, 0.0000000, 0.0000000, 0.0000000, 0.0000000, 0.0000000, 0.0000000, 0.0000000, -0.1015625, -0.0781250, 0.0000000, 0.1093750, 0.1171875, 0.0000000, 0.0000000, 0.0000000, 0.1015625, -0.0859375, 0.0781250, 0.0000000, 0.0000000, 0.0000000, 0.1171875, 0.0000000, 0.0000000, -0.0937500, 0.0000000, 0.0703125, 0.0000000, 0.0000000, 0.0000000, 0.0000000, 0.0000000, 0.0000000, 0.1093750, 0.1093750, 0.1015625, 0.0000000, 0.0000000, -0.0937500, 0.0000000, 0.0000000, 0.0000000, -0.0859375, 0.0937500, 0.0781250, 0.1171875, -0.0546875, 0.0000000, -0.1015625, -0.1015625, 0.1093750, 0.0937500, 0.0859375, -0.0781250, 0.0000000, 0.0000000, -0.1015625, -0.0703125, 0.0859375, 0.0000000, 0.0000000, 0.0937500, -0.0703125, 0.0703125, 0.1171875, -0.1328125, 0.0000000, 0.1093750, 0.0000000, 0.0000000, -0.0937500, -0.0937500, 0.0000000, 0.0000000, 0.0000000, -0.1093750, 0.0000000, -0.0781250, 0.1015625, 0.1484375, 0.1171875, -0.0859375, 0.0000000, 0.1796875, 0.0000000, 0.0703125, 0.0781250, 0.0000000, 0.0000000, -0.0703125, -0.0937500, 0.0000000, 0.0000000, 0.0000000, -0.1093750, 0.0000000, 0.0000000, 0.0000000, 0.0000000, 0.0000000, -0.0625000, -0.1093750, 0.0000000, 0.0000000, 0.0703125, 0.0859375, 0.0859375, 0.0000000, -0.0625000, 0.0625000, 0.0000000, 0.0937500, 0.0781250, -0.1171875, -0.1250000, 0.1328125, 0.0000000, 0.0000000, 0.1015625, 0.0000000, 0.1562500, 0.0000000, 0.0937500, 0.0000000, 0.0000000, 0.0000000, -0.0781250, 0.1406250, -0.0703125, 0.1093750, 0.0000000, 0.0937500, 0.0000000, -0.1015625, 0.1093750, 0.0000000, 0.0000000, 0.0000000, 0.0937500, 0.1328125, 0.0781250, 0.0000000, 0.0000000, 0.1093750, 0.1562500, 0.1250000, 0.0937500, 0.0000000, 0.0000000, -0.0703125, 0.0937500, 0.0000000, 0.0000000, 0.0000000, -0.0625000, 0.0000000, -0.0859375, 0.0000000, -0.1015625, -0.0859375, 0.1015625, -0.0781250, 0.0000000, 0.0000000, -0.0859375, 0.0000000, -0.0859375, 0.0000000, -0.0703125, -0.1015625, 0.0781250, 0.0781250, 0.0625000, 0.0000000, 0.0937500, 0.0625000, 0.1015625, 0.0000000, 0.0859375, 0.0000000, 0.0000000, 0.0000000, 0.0000000, 0.0000000, 0.0937500, -0.0937500, -0.1015625, 0.0000000, 0.0000000, 0.0000000, 0.0000000, -0.0703125, 0.0000000, -0.1171875, 0.0000000, 0.0000000, -0.1093750, 0.0000000, 0.0000000, 0.0000000, 0.0000000, -0.0625000, -0.1093750, -0.0703125, -0.1015625, -0.0781250, 0.0000000, -0.1093750, -0.0703125, 0.0000000, 0.0625000, -0.1015625, -0.0625000, 0.0000000, 0.0000000, 0.0000000, 0.1015625, 0.0000000, 0.0000000, 0.0000000, -0.0859375, 0.0000000, 0.0000000, 0.0000000, -0.0859375, 0.0937500, -0.1015625, 0.0000000, 0.1093750, 0.1015625, 0.0000000, -0.1250000, -0.0781250, 0.0000000, -0.1093750, 0.0000000, 0.0937500, 0.1093750, 0.0000000, 0.0000000, 0.0000000, 0.1015625, 0.1250000, -0.1171875, 0.0000000, 0.0000000, 0.0000000, -0.1250000, -0.1484375, 0.0937500, 0.0000000, 0.0000000, 0.0703125, 0.0937500, 0.0937500, -0.1250000, 0.0000000, 0.0000000, 0.0000000, 0.0000000, 0.0000000, -0.0859375, 0.0000000, 0.0000000, 0.0000000, 0.0000000, 0.1015625, 0.1015625, 0.0000000, 0.0000000, 0.0000000, 0.0000000, 0.0000000, 0.0000000, 0.0000000, 0.0000000, 0.0000000, 0.0000000, 0.0000000, 0.0000000, 0.0000000, 0.0000000, 0.0703125, 0.0000000, 0.0000000, 0.0000000, -0.1562500, 0.1406250, 0.1640625, -0.0937500, 0.0000000, -0.0937500, -0.0781250, 0.0000000, 0.1171875, -0.1484375, -0.1171875, 0.0000000, 0.1250000, 0.0000000, -0.0937500, 0.0000000, 0.1015625, -0.0625000, -0.0781250, -0.0781250, -0.0781250, 0.0000000, 0.0000000, 0.1171875, 0.0000000, 0.0000000, 0.1250000, 0.0000000, 0.0000000, 0.0859375, 0.0937500, 0.0000000, -0.0781250, -0.1484375, 0.0000000, 0.0000000, 0.0000000, -0.1015625, 0.0000000, 0.0000000, -0.0703125, 0.0000000, 0.0000000, 0.0000000, 0.1015625, 0.0000000, 0.0000000, -0.0859375, -0.1171875, 0.0703125, -0.1015625, 0.1250000, 0.0000000, 0.0000000, 0.0625000, -0.0703125, -0.0937500, 0.0000000, 0.0000000, 0.0000000, -0.1093750, 0.0000000, 0.0000000, -0.0937500, -0.0625000, 0.0000000, 0.0000000, 0.0000000, 0.0703125, 0.1015625, 0.0000000, -0.0937500, 0.0000000, 0.0000000, 0.0000000, 0.0000000, 0.0000000, 0.1015625, -0.1015625, -0.0625000, -0.1250000, 0.1328125, 0.0937500, 0.0000000, 0.0000000, 0.0000000, 0.0000000, 0.0000000, 0.0000000, 0.0000000, 0.0000000, -0.0859375, 0.0937500, 0.0000000, 0.0781250, -0.0781250, 0.0000000, 0.0000000, 0.0000000, -0.0937500, 0.0000000, 0.1171875, 0.0000000, 0.0000000, 0.0000000, 0.0000000, 0.0000000, 0.0000000, 0.0000000, 0.0703125, -0.0781250, 0.1093750, 0.0000000, 0.0000000, 0.0000000, 0.0000000, -0.0625000, 0.0000000, 0.0000000, 0.0000000, -0.0625000, 0.1250000, 0.0000000, 0.0000000, 0.1093750, 0.0859375, -0.1015625, 0.0000000, 0.0000000, -0.0625000, 0.0000000, 0.0000000, 0.0000000, -0.0703125, -0.0781250, 0.0000000, 0.0000000, -0.0781250, -0.0703125, -0.1015625, 0.0000000, 0.1250000, 0.0000000, 0.0000000, 0.1093750, 0.0000000, 0.1015625, 0.1015625, 0.0703125, 0.0000000, 0.0000000, 0.0000000, -0.1250000, 0.1015625, 0.0781250, -0.0859375, 0.0781250, 0.0000000, 0.0000000, -0.1171875, -0.0703125, 0.0000000, 0.0000000, 0.0000000, 0.1093750, 0.0859375, 0.0000000, -0.1015625, -0.0781250, -0.1328125, 0.0000000, -0.1171875, 0.0000000, 0.1015625, 0.0937500, 0.0000000, 0.0000000, 0.0781250, 0.0000000, -0.0625000, -0.0937500, 0.0000000, 0.0000000, 0.0000000, 0.0781250, -0.1015625, -0.0937500, 0.0000000, 0.0000000, -0.1015625, 0.0625000, 0.0000000, 0.0000000, 0.0703125, 0.0000000, -0.1015625, 0.0625000, 0.0000000, -0.0703125, -0.1015625, 0.0000000, 0.0937500, 0.0937500, -0.1093750, 0.1093750, 0.0000000, 0.0000000, 0.0000000, 0.0000000, 0.0000000, 0.0000000, 0.0000000, -0.1093750, 0.0859375, 0.1093750, 0.0000000, 0.1171875, -0.0781250, 0.0000000, 0.1015625, -0.0937500, 0.0781250, 0.0000000, 0.0000000, -0.0703125, 0.0000000, 0.0000000, 0.0000000, 0.0000000, 0.0000000, 0.0937500, 0.0000000, 0.0625000, 0.0000000, 0.0000000, -0.0781250, 0.0000000, 0.0781250, -0.1171875, 0.0000000, 0.0000000, 0.0000000, 0.0937500, 0.0000000, 0.0000000, 0.0000000, 0.0781250, 0.1093750, 0.0703125, 0.1250000, 0.1406250, -0.0703125, 0.0625000, 0.0000000, 0.0000000, -0.1015625, 0.1093750, 0.0000000, 0.0781250, 0.0000000, 0.0000000, 0.0000000, 0.0000000, -0.0703125, 0.0000000, 0.0000000, 0.0937500, -0.0937500, -0.0781250, 0.0000000, 0.0000000, 0.0703125, 0.0000000, 0.0000000, 0.0000000, 0.0000000, 0.0703125, 0.0937500, -0.1093750, 0.0000000, 0.0000000, 0.0000000, 0.0000000, 0.0000000, 0.0000000, 0.0546875, -0.1171875, 0.0625000, 0.0000000, 0.0000000, 0.0000000, -0.1250000, 0.0703125, 0.0000000, 0.0859375, 0.0781250, 0.0000000, 0.0000000, 0.1093750, -0.0703125, -0.0703125, 0.1328125, -0.0859375, 0.1406250, 0.0000000, 0.0000000, 0.0000000, 0.1328125, 0.1171875, 0.0000000, 0.0000000, -0.0703125, -0.1093750, 0.0000000, 0.1250000, 0.1015625, 0.0000000, 0.0000000, 0.0000000, 0.0781250, 0.1250000, 0.0000000, 0.0000000, -0.0703125, 0.0000000, 0.0000000, 0.0000000, 0.0000000, -0.0781250, 0.0000000, 0.0000000, 0.0000000, 0.0781250, 0.0937500, -0.1015625, -0.0937500, 0.0000000, 0.0000000, 0.1406250, 0.0781250, 0.0000000, -0.1093750, -0.1015625, 0.0000000, 0.0000000, 0.0000000, 0.0000000, -0.0703125, 0.0000000, 0.1015625, 0.1093750, 0.1250000, -0.0703125, -0.1015625, 0.0000000, 0.1171875, 0.0859375, 0.0000000, 0.0000000, 0.0000000, 0.0859375, 0.0000000, 0.0000000, 0.0859375, 0.0937500, 0.0000000, -0.0781250, 0.0000000, 0.1406250, 0.0000000, 0.0000000, -0.1093750, 0.0000000, 0.0000000, -0.0859375, -0.1093750, 0.0000000, 0.1250000, 0.0000000, 0.1328125, 0.0000000, -0.1093750, 0.0000000, 0.0000000, 0.0000000, 0.0000000, 0.0000000, 0.0703125, 0.0000000, -0.0937500, 0.0000000, -0.1250000, -0.0703125, 0.0000000, 0.1250000, -0.0703125, 0.0000000, -0.1406250, 0.0000000, 0.0000000, 0.0000000, 0.0781250, -0.1093750, 0.0000000, 0.0937500, 0.0000000, 0.0937500, 0.1093750, 0.0000000, 0.0000000, 0.0000000, -0.0859375, 0.0859375, 0.0859375, -0.0781250, 0.0000000, 0.0000000, 0.0937500, 0.0703125, 0.0000000, 0.0000000, 0.0000000, 0.0000000, -0.1250000, 0.0000000, 0.0000000, 0.0000000, 0.1562500, 0.0000000, 0.0000000, 0.0000000, 0.0000000, -0.0781250, -0.1328125, 0.0000000, 0.0000000, 0.0000000, -0.1171875, 0.0000000, 0.0000000, 0.0000000, 0.1015625, 0.0000000, 0.0000000, -0.0625000, 0.0000000, -0.0859375, 0.0000000, 0.0000000, 0.0000000, 0.0000000, -0.0625000, -0.1093750, 0.0000000, -0.0859375, -0.0937500, 0.0937500, -0.0937500, 0.0781250, 0.0000000, 0.0000000, -0.1093750, -0.1171875, 0.0000000, -0.0859375, 0.0000000, 0.1015625, 0.0000000, -0.0625000, 0.0000000, 0.0937500, 0.0000000, 0.0000000, 0.0000000, 0.0781250, 0.0000000, -0.0859375, 0.0000000, 0.1093750, 0.0000000, 0.0000000, -0.0703125, 0.0625000, -0.0859375, 0.0781250, 0.0859375, 0.0000000, 0.0000000, -0.1015625, 0.0781250, -0.0937500, 0.0000000, 0.0000000, 0.0000000, 0.0625000, -0.0781250, 0.0000000, 0.0000000, 0.0000000, -0.0625000, 0.0000000, 0.1015625, 0.0000000, 0.1015625, 0.0000000, 0.0000000, -0.0937500, -0.1015625, -0.1093750, -0.0625000, 0.0000000, -0.0859375, 0.0000000, 0.0000000, 0.0937500, 0.0000000, 0.1093750, 0.0000000, -0.0781250, -0.1093750, 0.0000000, 0.0000000, 0.0781250, -0.1093750, 0.0000000, 0.0000000, -0.1093750, 0.0781250, -0.0703125, 0.0000000, -0.0703125, 0.0000000, 0.0937500, -0.0781250, 0.0000000, 0.1015625, 0.0000000, 0.0000000, -0.0625000, -0.1015625, 0.0000000, 0.1015625, -0.0703125, -0.1015625, 0.0000000, 0.0000000, 0.0000000, 0.0781250, -0.0859375, 0.0000000, 0.0000000, 0.0000000, 0.0781250, 0.0000000, 0.0000000, 0.1093750, 0.0000000, 0.0000000, -0.1171875, -0.0781250, 0.0000000, 0.0000000, 0.0625000, -0.0859375, -0.1015625, -0.0859375, 0.0937500, 0.0000000, -0.0703125, 0.0781250, 0.0000000, 0.0000000, -0.0625000, -0.1015625, 0.0781250, 0.1015625, 0.0937500, -0.0625000, -0.0859375, 0.0000000, 0.0000000, -0.0703125, -0.1015625, 0.0000000, 0.0000000, 0.0000000, -0.1015625, 0.0000000, -0.1093750, 0.0703125, 0.0000000, -0.0625000, 0.0000000, -0.0703125, -0.1015625, 0.0000000, -0.0781250, 0.0000000, 0.0625000, -0.0781250, 0.0000000, -0.0781250, 0.0000000, 0.0000000, 0.0781250, 0.0000000, 0.0625000, 0.0625000, -0.0625000, -0.0937500, 0.0703125, 0.0000000, 0.0000000, 0.0859375, 0.0000000, -0.0781250, 0.0000000, 0.0000000, -0.0937500, 0.0000000, 0.0000000, 0.0000000, 0.0703125, 0.0703125, 0.0000000, 0.0000000, -0.1015625, 0.0000000, 0.0000000, -0.0625000, 0.0859375, 0.0000000, 0.0000000, 0.0000000, -0.0937500, 0.0625000, 0.0000000, 0.1171875, -0.1171875, -0.0703125, -0.0781250, -0.0781250, 0.0000000, 0.1093750, -0.0859375, 0.0000000, 0.1015625, 0.0000000, 0.0000000, -0.0625000, 0.1093750, 0.0000000, 0.0000000, 0.0000000, 0.0000000, 0.0000000, 0.0000000, 0.0000000, 0.0000000, 0.0859375, 0.0000000, -0.1328125, 0.0000000, 0.0000000, 0.0000000, 0.0000000, 0.1171875, 0.1093750, 0.0703125, -0.1406250, 0.1171875, 0.1093750, -0.0781250, -0.0625000, 0.0000000, 0.0000000, -0.0625000, 0.0000000, 0.0703125, 0.1015625, -0.1406250, 0.0000000, 0.0000000, -0.0625000, 0.0000000, 0.0000000, 0.0859375, 0.0000000, 0.1328125, -0.1796875, 0.1171875, 0.0000000, 0.0000000, 0.0000000, 0.0000000, 0.0937500, 0.0000000, 0.0000000, 0.0000000, 0.0859375, 0.0000000, 0.0000000, 0.0000000, 0.0000000, 0.0000000, -0.1875000, 0.0000000, 0.0000000, 0.0000000, -0.0937500, 0.0000000, -0.1015625, 0.0000000, 0.0000000, 0.0000000, 0.0000000, 0.0000000, 0.0000000, 0.0000000, 0.1171875, 0.0000000, 0.0000000, -0.1250000, -0.0859375, 0.0000000, 0.1406250, 0.0000000, 0.0000000, 0.0625000, -0.0703125, 0.0000000, 0.0000000, 0.0000000, 0.0000000, 0.0000000, -0.0859375, 0.0000000, 0.0703125, 0.1328125, 0.0000000, -0.0625000, 0.0000000, 0.0000000, 0.1015625, -0.0859375, 0.1250000, -0.1093750, 0.0000000, 0.0000000, 0.1171875, 0.0000000, -0.0625000, 0.0000000, -0.0703125, 0.1093750, 0.1015625, 0.1093750, 0.0000000, 0.1015625, 0.1250000, 0.0000000, 0.0000000, 0.0781250, 0.0000000, -0.0859375, 0.0000000, 0.1171875, 0.0000000, 0.0781250, 0.1015625, 0.0000000, 0.0000000, 0.0937500, 0.1250000, 0.0000000, 0.1171875, -0.0625000, 0.0937500, 0.0000000, 0.0625000, 0.1328125, 0.0000000, 0.0000000, 0.1171875, 0.0000000, -0.0625000, 0.0000000, 0.1093750, 0.0000000, 0.0859375, -0.0781250, 0.1328125, 0.0000000, 0.0000000, -0.0703125, 0.0625000, -0.0859375, 0.0000000, 0.1093750, -0.0625000, 0.0000000, 0.0000000, 0.1250000, 0.1015625, 0.0000000, 0.0000000, -0.0625000, -0.0859375, 0.0000000, 0.1015625, 0.0000000, 0.0000000, 0.1250000, -0.1484375, 0.0703125, 0.0000000, 0.1015625, 0.0000000, 0.0000000, 0.0000000, 0.0000000, 0.0000000, 0.0000000, -0.1015625, 0.0000000, 0.0000000, 0.0000000, 0.0937500, 0.0859375, 0.0000000, 0.0937500, 0.0000000, 0.0000000, 0.0000000, 0.0000000, -0.0937500, 0.0000000, 0.0546875, 0.0000000, 0.0000000, 0.1093750, 0.0000000, 0.0000000, -0.0859375, 0.0000000, 0.0000000, 0.0000000, 0.0703125, 0.0000000, 0.0000000, -0.0937500, -0.1015625, 0.0000000, 0.0000000, 0.0000000, 0.0000000, 0.0000000, -0.0937500, 0.0000000, 0.0000000, 0.0000000, 0.0000000, 0.0000000, 0.0000000, 0.0703125, -0.1406250, -0.1640625, 0.0000000, 0.0000000, -0.0703125, 0.0000000, 0.0000000, 0.0937500, 0.0000000, 0.0000000, 0.0781250, -0.1250000, 0.0000000, -0.0703125, 0.0000000, -0.0937500, -0.1406250, 0.0000000, 0.0000000, 0.1171875, 0.0000000, 0.0000000, -0.0703125, 0.1093750, 0.0000000, 0.0000000, 0.0703125, -0.0703125, -0.0781250, 0.0000000, 0.0000000, 0.0937500, 0.0000000, 0.0000000, 0.0000000, 0.0000000, 0.0000000, 0.0000000, 0.0000000, -0.0703125, -0.0859375, 0.0000000, 0.0000000, 0.0000000, -0.1015625, -0.0625000, 0.1250000, 0.1250000, 0.0000000, -0.1562500, 0.0000000, 0.0000000, 0.1250000, 0.0000000, 0.1015625, 0.0781250, 0.0000000, 0.1093750, 0.0937500, -0.0625000, 0.0000000, 0.0000000, 0.0000000, -0.0703125, -0.0859375, 0.1328125, 0.1015625, 0.1640625, 0.0000000, 0.1093750, 0.1015625, 0.0000000, 0.0000000, 0.0000000, 0.0000000, 0.1406250, 0.0000000, 0.0703125, 0.0000000, -0.1250000, 0.0000000, 0.0859375, 0.0781250, -0.0859375, -0.1250000, -0.0937500, 0.1093750, -0.0859375, 0.0000000, 0.1093750, 0.0000000, -0.0703125, 0.1328125, -0.0703125, 0.1093750, 0.0000000, -0.0859375, 0.0000000, 0.0000000, 0.0000000, 0.0000000, 0.0000000, -0.0781250, 0.0000000, 0.0000000, 0.0000000, 0.0000000, -0.0859375, 0.0625000, 0.0000000, 0.0000000, 0.0000000, 0.0000000, 0.0000000, 0.0000000, 0.0781250, 0.1406250, -0.0625000, 0.1093750, 0.0000000, 0.0000000, 0.1250000, -0.0781250, 0.0000000, 0.0000000, 0.0000000, 0.1093750, -0.1171875, 0.0000000, -0.1171875, 0.0000000, 0.1171875, 0.0937500, 0.0000000, 0.0937500, 0.1093750, -0.0937500, 0.0000000, 0.0000000, 0.0000000, 0.0000000, 0.0000000, -0.0625000, 0.0000000, 0.0937500, 0.0000000, 0.1328125, 0.0937500, 0.1015625, 0.0000000, 0.1093750, 0.0703125, 0.0000000, 0.1484375, 0.0000000, -0.0859375, -0.1562500, 0.0000000, -0.0937500, -0.1250000, 0.0859375, 0.0000000, 0.0000000, -0.0703125, 0.0000000, 0.0625000, 0.0703125, 0.1250000, 0.0000000, 0.0000000, -0.1406250, 0.0000000, 0.1171875, -0.0859375, 0.1015625, 0.0000000, 0.0000000, 0.0000000, -0.1171875, 0.0000000, 0.0000000, 0.0000000, -0.1250000, 0.0000000, 0.0000000, -0.0859375, 0.0000000, 0.0000000, 0.0000000, 0.0000000, -0.0937500, 0.0000000, -0.1640625, -0.2187500, -0.0781250, 0.1093750, 0.0000000, 0.0000000, 0.0703125, 0.0937500, 0.0000000, 0.2109375, 0.0000000, 0.0000000, 0.0000000, 0.0000000, 0.0000000, 0.0000000, 0.1328125, 0.0000000, -0.0859375, 0.1171875, 0.0000000, 0.0000000, 0.0000000, 0.0000000, -0.1718750, -0.2031250, 0.0000000, 0.0000000, 0.0937500, 0.0000000, 0.1250000, 0.0859375, 0.0000000, 0.0000000, 0.0000000, 0.0000000, 0.0000000, 0.0781250, 0.0000000, 0.0937500, 0.1093750, 0.0000000, -0.1328125, 0.0000000, 0.0000000, 0.0000000, 0.0000000, 0.0781250, 0.0000000, 0.1562500, 0.0000000, -0.0625000, 0.0000000, 0.0000000, 0.0000000, -0.1171875, 0.0000000, -0.0781250, 0.0000000, 0.1093750, 0.1328125, 0.0000000, 0.1015625, 0.0000000, 0.0000000, 0.1015625, -0.0625000, -0.0781250, 0.1562500, -0.1093750, 0.0000000, 0.0000000, 0.1484375, 0.0000000, 0.0000000, 0.0937500, 0.1171875, 0.0859375, 0.0000000, 0.0000000, -0.0937500, 0.0000000, 0.0000000, -0.0781250, 0.1796875, 0.0000000, -0.0625000, 0.1015625, 0.0000000, 0.0000000, 0.0000000, 0.0000000, 0.1093750, 0.0000000, 0.0000000, -0.0781250, 0.0000000, 0.0703125, 0.0000000, 0.0000000, 0.0937500, 0.0000000, 0.0000000, 0.0000000, 0.0000000, 0.0000000, 0.0000000, 0.0859375, 0.0000000, 0.0000000, -0.0859375, -0.0937500, 0.0000000, 0.0937500, -0.1562500, 0.0000000, 0.0625000, 0.1015625, -0.0781250, -0.0937500, -0.1562500, 0.0000000, 0.0000000, -0.0781250, 0.0000000, -0.1015625, 0.0781250, 0.0000000, -0.0703125, -0.0703125, -0.1250000, 0.0000000, 0.0000000, 0.0000000, 0.0000000, -0.1171875, 0.1015625, -0.0937500, -0.0703125, 0.0000000, 0.0000000, -0.1171875, 0.0859375, 0.0000000, -0.0937500, 0.0000000, -0.1015625, 0.0000000, 0.0000000, 0.0000000, 0.0000000, -0.0937500, 0.0000000, -0.0859375, 0.0000000, 0.0000000, 0.0000000, 0.0000000, 0.0000000, 0.0625000, 0.0000000, 0.0000000, -0.1250000, 0.1171875, -0.0859375, 0.0000000, 0.0000000, 0.0000000, -0.0937500, 0.0000000, -0.0781250, 0.0000000, 0.0000000, 0.0000000, 0.0859375, 0.0000000, -0.1093750, -0.1406250, 0.0937500, 0.0000000, 0.0000000, -0.0781250, 0.1250000, 0.1250000, 0.0000000, 0.0703125, 0.1484375, 0.0000000, 0.0000000, 0.1406250, 0.0000000, 0.0000000, 0.1484375, 0.0000000, 0.0000000, 0.0625000, 0.0000000, -0.0781250, -0.0937500, 0.0937500, 0.0000000, 0.0000000, 0.1171875, -0.0859375, 0.1406250, 0.0000000, 0.0000000, 0.0000000, 0.0000000, 0.0000000, 0.0000000, 0.1093750, 0.1328125, 0.0000000, -0.0625000, 0.0703125, -0.0625000, 0.0000000, 0.0000000, 0.0000000, 0.0000000, -0.0625000, -0.0703125, -0.1015625, 0.0000000, 0.0000000, 0.0000000, -0.0703125, 0.1562500, -0.1171875, 0.1328125, -0.0781250, 0.0000000, 0.0000000, 0.0000000, -0.0937500, 0.0000000, 0.0000000, 0.0000000, 0.0000000, 0.1328125, 0.0859375, 0.1015625, 0.0937500, 0.0000000, 0.1015625, 0.0000000, 0.0000000, 0.1093750, 0.1250000, 0.0703125, 0.1093750, 0.0000000, 0.1093750, -0.0859375, -0.1015625, 0.0000000, 0.1093750, -0.1093750, 0.0937500, 0.0000000, 0.0000000, 0.0000000, 0.0859375, 0.0000000, 0.1484375, 0.0000000, 0.0000000, 0.0000000, -0.0859375, 0.1093750, -0.1093750, 0.1406250, 0.1171875, 0.0000000, 0.0937500, 0.1484375, 0.0937500, 0.0000000, 0.0781250, 0.1640625, 0.0937500, 0.0000000, 0.0000000, 0.0000000, -0.1250000, 0.0781250, -0.1171875, 0.1171875, 0.1484375, 0.0781250, 0.0000000, 0.0703125, -0.0703125, 0.0000000, -0.1171875, 0.0000000, 0.0000000, 0.0000000, 0.0000000, 0.1171875, 0.0000000, 0.0000000, 0.1250000, 0.1406250, 0.0000000, -0.0781250, 0.0937500, -0.0703125, 0.0000000, 0.0000000, 0.0781250, 0.1562500, 0.0000000, 0.0859375, 0.0000000, 0.0000000, 0.0000000, 0.0781250, 0.0000000, 0.0000000, 0.0000000, -0.1328125, 0.0000000, -0.1093750, 0.0703125, 0.0000000, -0.1093750, 0.0000000, -0.0781250, -0.1250000, 0.0000000, -0.1250000, -0.1328125, 0.0000000, 0.0000000, -0.1406250, -0.0781250, 0.0000000, 0.0859375, 0.0000000, 0.0000000, 0.0000000, 0.0000000, 0.1171875, 0.0781250, 0.0000000, 0.1093750, -0.1328125, 0.0000000, -0.0859375, 0.0000000, -0.0937500, 0.0000000, 0.0000000, 0.0625000, 0.0000000, 0.0859375, 0.0000000, -0.1171875, -0.0703125, -0.1093750, 0.0000000, -0.0781250, 0.0000000, -0.0937500, 0.0000000, 0.0000000, 0.1250000, 0.0000000, 0.0000000, 0.0703125, 0.0000000, -0.1015625, -0.1328125, -0.0937500, 0.0000000, 0.0937500, -0.1171875, -0.0781250, -0.0546875, -0.1406250, 0.0625000, -0.1250000, 0.0000000, -0.1250000, -0.1015625, 0.0703125, -0.1250000, 0.0937500, 0.0000000, 0.0000000, 0.0000000, -0.1796875, 0.0000000, 0.0937500, 0.0000000, 0.0000000, 0.1015625, 0.0000000, -0.1250000, 0.0000000, 0.0859375, -0.0625000, 0.1562500, -0.0703125, 0.1484375, 0.0859375, 0.1093750, 0.0000000, 0.1328125, 0.0000000, 0.0000000, 0.0000000, 0.0000000, -0.0859375, -0.2031250, 0.0000000, 0.0000000, 0.0000000, 0.0000000, -0.1093750, 0.0000000, 0.0703125, -0.0937500, 0.0000000, 0.1406250, -0.0703125, 0.0000000, 0.0000000, 0.0000000, -0.0703125, 0.1406250, 0.0000000, -0.0859375, 0.1328125, 0.0000000, -0.0703125, 0.0000000, 0.0000000, 0.0000000, -0.1875000, 0.0000000, 0.0000000, 0.0000000, 0.1093750, 0.0000000, 0.0000000, 0.0000000, -0.0781250, 0.0000000, -0.0937500, 0.0000000, 0.0000000, 0.0000000, -0.0703125, 0.1093750, 0.1406250, 0.0000000, 0.0000000, 0.0000000, 0.1250000, 0.0000000, 0.0000000, 0.1328125, 0.1171875, 0.0000000, -0.0859375, 0.0000000, 0.0000000, -0.1015625, -0.1093750, 0.1640625, 0.0000000, -0.1171875, 0.0937500, -0.0781250, 0.0781250, 0.0000000, 0.1171875, 0.0000000, 0.0000000, -0.0937500, 0.0000000, 0.1093750, -0.0781250, 0.0000000, 0.0000000, 0.0000000, 0.0000000, -0.0703125, 0.0000000, -0.0859375, 0.0000000, 0.0859375, 0.0000000, -0.0703125, 0.0625000, 0.0703125, 0.1171875, 0.0000000, 0.0000000, 0.1171875, 0.0000000, -0.0859375, -0.1093750, 0.1015625, 0.0781250, -0.0625000, -0.0781250, 0.0000000, 0.0000000, 0.0000000, 0.0000000, 0.0000000, -0.0781250, 0.0000000, 0.0625000, -0.1171875, 0.0000000, 0.1093750, 0.0000000, -0.0859375, 0.0000000, 0.0000000, -0.0781250, 0.0000000, 0.0000000, 0.0000000, 0.0000000, -0.0937500, -0.1171875, 0.0000000, 0.0000000, 0.0000000, 0.0000000, 0.0000000, 0.0000000, 0.0000000, 0.0000000, 0.0625000, 0.1093750, 0.0000000, 0.1250000, 0.0000000, 0.1093750, -0.0937500, -0.0859375, -0.0625000, 0.1093750, 0.0625000, 0.0000000, 0.0000000, -0.1093750, 0.0000000, -0.0781250, 0.0625000, 0.0781250, 0.0000000, 0.1171875, -0.0937500, 0.0000000, 0.0000000, -0.1093750, -0.0703125, 0.0000000, 0.0000000, -0.0781250, 0.1406250, 0.0000000, 0.0000000, 0.0937500, 0.0000000, 0.0000000, 0.0000000, 0.0781250, 0.0000000, 0.0000000, -0.0625000, 0.0000000, 0.1093750, -0.0703125, -0.1015625, 0.0000000, 0.0000000, -0.0859375, 0.1015625, 0.0000000, 0.0859375, 0.0000000, -0.0703125, 0.1171875, 0.0000000, -0.1250000, 0.0000000, 0.0625000, 0.0781250, 0.0000000, -0.0781250, 0.0000000, 0.0000000, 0.0703125, 0.0000000, 0.0000000, 0.0000000, 0.0000000, -0.0859375, 0.0000000, -0.1484375, -0.1484375, 0.0937500, 0.0000000, 0.1171875, 0.0000000, 0.1015625, 0.0937500, -0.1250000, -0.0937500, 0.0000000, 0.0000000, 0.1171875, -0.0703125, 0.0000000, -0.0703125, 0.0000000, 0.1328125, -0.0625000, -0.0859375, 0.0000000, 0.0000000, 0.0000000, 0.0000000, -0.1171875, -0.1484375, 0.0937500, 0.0625000, 0.0781250, 0.0000000, 0.0859375, 0.0000000, 0.0000000, 0.0000000, -0.0625000, 0.0000000, 0.0000000, 0.0000000, 0.0000000, 0.0000000, 0.0000000, 0.0937500, 0.0000000, -0.0781250, 0.0000000, -0.0625000, -0.0859375, 0.0000000, -0.1875000, 0.0000000, 0.0000000, 0.0000000, 0.0000000, 0.0000000, 0.0859375, 0.0000000, 0.0000000, -0.0937500, 0.0000000, -0.0546875, 0.0000000, 0.0781250, 0.0000000, -0.0703125, 0.0000000, 0.0000000, 0.1328125, 0.0781250, 0.0000000, 0.0000000, -0.0859375, -0.1171875, -0.1015625, 0.1015625, 0.0937500, 0.0000000, 0.0000000, -0.0703125, 0.0000000, -0.0703125, 0.0000000, -0.1015625, -0.1093750, 0.0625000, -0.1015625, -0.0781250, 0.0000000, -0.1093750, 0.0625000, 0.0000000, 0.0000000, 0.0000000, 0.0000000, 0.0000000, 0.0000000, -0.1250000, 0.0000000, 0.0000000, -0.0937500, 0.1171875, 0.0000000, -0.0703125, 0.0000000, -0.0703125, 0.0000000, 0.0000000, 0.0000000, 0.1015625, 0.0000000, 0.0937500, -0.0937500, 0.0000000, -0.1093750, -0.1250000, 0.0000000, -0.0859375, 0.0703125, -0.1015625, 0.1093750, 0.0000000, 0.0000000, 0.0000000, 0.0781250, 0.0000000, 0.0937500, -0.1015625, 0.0859375, 0.0000000, 0.0000000, -0.1015625, 0.0937500, 0.0000000, 0.0000000, 0.0000000, 0.0000000, 0.0000000, -0.0859375, 0.0781250, 0.0000000, 0.1015625, 0.0000000, 0.0000000, 0.0937500, -0.1328125, -0.0781250, 0.0000000, 0.0000000, -0.0781250, 0.0703125, 0.0000000, 0.0859375, -0.0625000, 0.1171875, -0.1015625, 0.0000000, -0.0859375, -0.0937500, 0.1015625, 0.0000000, 0.1015625, 0.0000000, -0.1015625, 0.0000000, 0.1015625, -0.0937500, 0.0859375, -0.1093750, 0.0000000, -0.1250000, 0.0000000, 0.0000000, 0.0000000, -0.0781250, 0.0000000, 0.0859375, 0.0000000, -0.0625000, 0.0859375, 0.0000000, 0.0000000, -0.0937500, -0.1015625, 0.0000000, 0.0000000, 0.0000000, 0.0703125, 0.0000000, 0.1093750, 0.0859375, 0.0000000, -0.1015625, -0.0781250, -0.0781250, 0.0859375, 0.0781250, -0.0625000, -0.1015625, 0.0000000, -0.0781250, 0.0937500, -0.0859375, 0.0781250, 0.0859375, 0.0625000, -0.0859375, -0.0625000, -0.0859375, -0.1093750, -0.1093750, 0.0625000, 0.0000000, -0.0937500, -0.0937500, 0.0000000, 0.1093750, 0.0000000, -0.0781250, -0.0937500, 0.0000000, 0.0703125, 0.0000000, 0.0859375, 0.0000000, -0.0859375, 0.0000000, 0.1171875, 0.0781250, 0.0703125, -0.0781250, -0.0703125, 0.0625000, 0.0000000, 0.0000000, 0.0000000, 0.0000000, 0.0000000, 0.0000000, 0.0000000, 0.1171875, -0.1250000, 0.0000000, 0.0000000, -0.0703125, -0.0781250, -0.1093750, 0.0000000, 0.0937500, -0.0937500, 0.0625000, 0.0000000, 0.0000000, 0.1015625, -0.0703125, 0.0000000, 0.0000000, -0.1093750, 0.0000000, 0.0000000, -0.0781250, 0.0703125, 0.0000000, 0.0703125, -0.0781250, 0.0000000, -0.0937500, 0.0000000, 0.0000000, 0.0000000, 0.0000000, 0.0000000, 0.0703125, 0.0000000, 0.0000000, -0.0703125, 0.0000000, -0.1015625, 0.0625000, -0.0937500, -0.0781250, 0.1015625, 0.0000000, -0.1093750, -0.0703125, -0.0937500, 0.0000000, 0.0781250, 0.0000000, 0.0000000, 0.0000000, 0.1250000, 0.0000000, 0.0000000, 0.0000000, 0.0000000, -0.0937500, 0.0859375, 0.0000000, -0.0703125, 0.0000000, 0.0000000, 0.0000000, -0.0937500, -0.1015625, 0.0000000, 0.0000000, -0.1093750, 0.0781250, 0.0000000, 0.0703125, 0.0000000, -0.0937500, -0.0703125, 0.0000000, 0.1250000, 0.0703125, 0.0000000, 0.0000000, -0.1093750, 0.0000000, 0.1093750, 0.1250000, 0.0000000, -0.0625000, 0.0000000, 0.0000000, 0.0000000, 0.1093750, 0.1171875, -0.1406250, 0.0000000, 0.0000000, -0.0703125, 0.0859375, 0.0781250, 0.0000000, 0.0000000, 0.0000000, 0.0000000, 0.0000000, 0.0000000, 0.0000000, 0.1093750, -0.0703125, 0.0859375, 0.1015625, 0.0000000, 0.0000000, 0.0000000, -0.1093750, 0.0000000, 0.0000000, 0.0937500, -0.1015625, -0.1718750, -0.1015625, -0.0703125, 0.0000000, 0.0000000, 0.1171875, 0.0000000, 0.0000000, 0.0781250, 0.0000000, 0.0703125, 0.0781250, 0.0000000, -0.0937500, 0.0000000, 0.0000000, 0.0000000, 0.0000000, 0.1015625, 0.1328125, -0.1093750, 0.0703125, 0.0000000, 0.0000000, 0.0000000, -0.0781250, -0.1171875, 0.0000000, -0.0781250, 0.0000000, 0.0000000, -0.1171875, -0.1015625, 0.0000000, 0.0000000, -0.0859375, 0.0000000, 0.0859375, -0.0937500, -0.0781250, 0.0000000, 0.0625000, 0.0000000, -0.0859375, 0.0000000, -0.0781250, -0.1093750, 0.0703125, 0.0000000, 0.0859375, 0.0625000, 0.0859375, 0.0000000, 0.1171875, -0.1406250, -0.1953125, 0.0000000, 0.0000000, 0.0000000, -0.0625000, 0.1015625, -0.0937500, 0.0000000, 0.0000000, -0.0859375, -0.0703125, 0.0859375, 0.0000000, 0.0000000, 0.0781250, -0.1875000, 0.0000000, 0.0000000, -0.1093750, 0.0000000, -0.1093750, -0.0781250, -0.0937500, 0.0000000, 0.0000000, 0.1015625, 0.0000000, 0.0937500, -0.1093750, 0.0000000, 0.0781250, -0.0859375, 0.1093750, 0.0859375, 0.0000000, 0.0000000, 0.0000000, 0.0000000, 0.0781250, 0.0000000, -0.1484375, 0.0859375, 0.0000000, 0.1093750, 0.0703125, 0.0937500, 0.0000000, 0.1718750, 0.1328125, 0.1796875, 0.0703125, 0.0000000, 0.0000000, -0.0859375, 0.0000000, -0.1328125, 0.0546875, 0.0000000, -0.0781250, 0.0000000, 0.0000000, 0.0000000, -0.1015625, 0.0000000, -0.0703125, -0.0546875, 0.1015625, 0.1171875, 0.0000000, 0.0000000, -0.1093750, 0.0000000, 0.0000000, 0.0000000, 0.0000000, 0.0000000, -0.1562500, -0.0859375, 0.0000000, -0.1015625, -0.1171875, -0.0625000, -0.1015625, -0.0781250, 0.0000000, 0.0000000, 0.0703125, -0.0937500, 0.0000000, -0.0703125, 0.0000000, 0.0000000, -0.0703125, 0.0625000, -0.0625000, -0.0625000, 0.0000000, 0.0937500, 0.0000000, 0.0000000, 0.0000000, 0.0000000, 0.0937500, -0.0781250, 0.1093750, -0.0703125, 0.1015625, 0.0703125, -0.0937500, 0.0000000, 0.0781250, 0.0000000, -0.0546875, -0.0703125, -0.0859375, 0.0000000, 0.0000000, 0.0000000, 0.0000000, 0.0000000, 0.0000000, 0.0000000, 0.1093750, 0.0000000, 0.0000000, 0.0000000, 0.1171875, 0.0000000, 0.0000000, 0.0703125, -0.1171875, 0.0703125, 0.0000000, -0.0859375, 0.0000000, 0.0703125, -0.0859375, -0.0859375, 0.0703125, -0.1406250, -0.0859375, -0.1171875, 0.0000000, 0.0000000, -0.0937500, 0.0000000, 0.0703125, 0.0000000, 0.0781250, 0.1093750, 0.0000000, -0.0625000, 0.0000000, -0.0859375, -0.1171875, 0.0000000, -0.1093750, 0.0703125, 0.0703125, 0.0000000, -0.1328125, -0.0781250, 0.0000000, 0.0781250, -0.1406250, -0.0625000, -0.1171875, 0.0781250, -0.0703125, 0.0000000, 0.0000000, 0.0000000, 0.0859375, 0.0000000, -0.0781250, 0.0000000, 0.0000000, 0.0000000, 0.1640625, 0.1015625, 0.0000000, 0.0781250, -0.0859375, 0.0000000, 0.0625000, -0.1250000, 0.0000000, 0.0000000, 0.0703125, -0.0781250, -0.1250000, 0.0000000, 0.1328125, 0.0000000, -0.1171875, 0.0000000, 0.0000000, 0.0000000, 0.0625000, 0.0000000, -0.1015625, 0.0000000, 0.0625000, -0.0703125, -0.0703125, -0.0703125, -0.0859375, 0.0000000, 0.0000000, -0.0937500, 0.0625000, 0.0781250, -0.1093750, -0.1015625, 0.0000000, 0.0000000, -0.0781250, 0.0000000, 0.0000000, -0.0781250, -0.1015625, -0.1093750, -0.0937500, 0.1093750, 0.0000000, 0.0000000, 0.0703125, 0.0000000, 0.0000000, 0.1171875, 0.0000000, 0.1171875, 0.0000000, -0.0781250, 0.0000000, 0.0000000, 0.0859375, -0.0937500, 0.0000000, 0.0000000, -0.1015625, 0.0000000, -0.0937500, 0.1015625, 0.0000000, 0.0859375, 0.0000000, 0.0000000, -0.0703125, 0.0937500, 0.0000000, 0.0859375, 0.1406250, 0.0000000, 0.0000000, 0.0000000, 0.1250000, 0.0000000, 0.0000000, 0.0859375, 0.0000000, 0.0859375, 0.0703125, 0.0000000, 0.0703125, -0.1328125, 0.0000000, 0.0000000, 0.0781250, 0.0000000, -0.0859375, 0.1484375, 0.0000000, 0.0000000, 0.1406250, 0.1093750, 0.0000000, 0.0000000, 0.0000000, 0.0781250, 0.1718750, 0.0000000, 0.0000000, 0.0000000, -0.0859375, 0.0000000, 0.0000000, -0.0546875, -0.1250000, 0.0000000, 0.0000000, 0.0000000, 0.0000000, 0.0000000, 0.0781250, -0.0703125, 0.0000000, 0.0703125, 0.0000000, 0.0000000, 0.0937500, 0.0000000, 0.0000000, 0.0703125, 0.0000000, 0.0000000, 0.0000000, 0.0000000, 0.0781250, 0.0000000, 0.0000000, 0.0000000, 0.1093750, -0.0859375, 0.0781250, 0.0000000, 0.1015625, 0.0937500, 0.0000000, 0.0000000, -0.0859375, 0.0000000, 0.0000000, 0.1093750, -0.0703125, -0.0781250, 0.0000000, 0.0000000, 0.0000000, 0.1328125, 0.0000000, -0.1015625, 0.0000000, 0.0781250, 0.0703125, -0.1484375, -0.0937500, 0.1093750, 0.0000000, 0.0703125, 0.0000000, -0.1093750, -0.0781250, -0.1093750, 0.0000000, -0.0703125, 0.0781250, 0.0000000, 0.0000000, 0.0000000, 0.1093750, 0.0000000, 0.0000000, 0.0000000, -0.0625000, -0.0937500, 0.0000000, 0.0000000, 0.0625000, 0.1015625, 0.1093750, 0.0000000, 0.0937500, 0.0859375, 0.0000000, 0.0000000, 0.0000000, 0.0937500, 0.0000000, 0.1015625, 0.0625000, 0.0000000, 0.0000000, 0.1093750, -0.0625000, -0.1015625, 0.0000000, 0.0937500, 0.0000000, 0.0625000, -0.0625000, 0.0000000, 0.0000000, 0.0000000, 0.0000000, 0.0000000, 0.0000000, 0.0000000, 0.0703125, 0.0000000, -0.0859375, -0.1015625, 0.0000000, -0.0937500, -0.0937500, 0.0937500, 0.0000000, -0.0781250, 0.1093750, -0.1171875, 0.0625000, 0.0000000, -0.0781250, -0.0937500, 0.0000000, 0.0000000, -0.0937500, 0.0000000, 0.0000000, 0.0000000, -0.1015625, 0.0000000, 0.1250000, 0.0703125, -0.0703125, 0.0000000, 0.1328125, -0.1093750, -0.0781250, 0.0000000, 0.1250000, 0.0000000, 0.0703125, 0.0000000, 0.0000000, 0.0000000, 0.0625000, 0.0000000, 0.1093750, 0.0000000, -0.1015625, 0.0000000, 0.0000000, 0.0000000, -0.0937500, -0.1015625, 0.1015625, -0.0703125, 0.0781250, 0.0000000, 0.1328125, 0.0703125, 0.0000000, -0.0781250, 0.0625000, 0.0000000, 0.0000000, 0.0937500, 0.0703125, -0.0625000, 0.0000000, -0.0937500, -0.1171875, 0.0000000, 0.1171875, 0.0000000, 0.0625000, 0.0000000, 0.0000000, 0.0625000, 0.0000000, 0.1015625, 0.0000000, -0.0703125, 0.1093750, 0.0000000, 0.1093750, 0.0937500, 0.0000000, 0.0937500, 0.0000000, 0.0625000, 0.0000000, 0.0000000, 0.1171875, 0.0000000, 0.0000000, -0.0859375, 0.0000000, 0.0937500, -0.1171875, 0.1015625, 0.0000000, 0.0000000, 0.0000000, -0.1015625, 0.0781250, 0.0000000, 0.0000000, -0.0625000, 0.0781250, 0.0000000, 0.0000000, 0.0000000, 0.0000000, 0.0000000, 0.1406250, 0.0781250, 0.0000000, -0.0703125, 0.1093750, 0.0000000, -0.0859375, 0.0000000, 0.0000000, 0.0000000, -0.0703125, -0.1015625, 0.1015625, 0.0000000, 0.0000000, -0.0625000, 0.0000000, -0.1015625, 0.1015625, 0.0859375, 0.0000000, 0.0000000, 0.0000000, 0.0859375, 0.0000000, 0.1171875, 0.0937500, 0.0000000, -0.0625000, 0.0625000, 0.0000000, -0.0859375, 0.1328125, 0.0000000, 0.1171875, 0.0000000, 0.1640625, -0.1093750, 0.0000000, 0.0000000, 0.0000000, 0.0703125, -0.0703125, 0.0000000, 0.0625000, 0.0000000, -0.0781250, 0.0000000, 0.1796875, 0.0937500, 0.0000000, 0.0625000, 0.0000000, -0.0625000, 0.0000000, 0.1406250, 0.0000000, 0.0000000, 0.0625000, 0.0000000, 0.1250000, -0.0859375, 0.0000000, 0.0000000, 0.0625000, 0.0000000, -0.1093750, 0.1015625, 0.0000000, -0.1171875, 0.0000000, 0.0000000, 0.0000000, 0.0000000, 0.0000000, -0.0937500, 0.0781250, 0.0859375, 0.0000000, -0.0781250, -0.0703125, 0.0781250, 0.0000000, 0.0000000, 0.1718750, -0.0781250, -0.0781250, -0.0781250, 0.0000000, -0.0625000, 0.0000000, 0.0000000, 0.1406250, -0.1171875, 0.0000000, 0.0000000, 0.0000000, 0.0859375, 0.0000000, 0.1015625, 0.0859375, 0.0000000, 0.0000000, 0.0000000, 0.0703125, 0.0000000, 0.0000000, 0.0000000, 0.0000000, 0.0000000, -0.0937500, 0.0625000, 0.0000000, 0.0000000, -0.0625000, 0.0000000, 0.0703125, 0.0000000, 0.0937500, 0.0000000, 0.0000000, 0.0000000, 0.0703125, 0.0000000, 0.0000000, 0.0000000, 0.0000000, 0.0000000, 0.0000000, 0.0000000, 0.0000000, 0.0000000, 0.0000000, 0.0000000, 0.0000000, -0.1328125, -0.0703125, 0.0703125, 0.0703125, -0.0703125, 0.0000000, 0.0000000, -0.0625000, 0.0546875, 0.0000000, 0.0000000, 0.0000000, -0.1171875, 0.0859375, -0.0937500, 0.0000000, 0.0000000, 0.0859375, 0.0000000, 0.0000000, 0.0000000, 0.0000000, -0.1093750, -0.1093750, 0.0000000, 0.0000000, 0.0000000, -0.1015625, -0.1093750, -0.0625000, 0.0000000, -0.0937500, 0.0000000, 0.0000000, 0.0000000, 0.0000000, -0.0859375, 0.0000000, 0.0703125, 0.0859375, 0.0000000, 0.1093750, 0.0000000, 0.0625000, 0.0000000, 0.1406250, 0.1171875, 0.0000000, 0.0000000, 0.0000000, -0.1015625, 0.0781250, 0.0000000, 0.1250000, -0.0703125, 0.0625000, 0.0000000, 0.1015625, 0.1640625, 0.0000000, 0.0625000, 0.0000000, 0.0000000, 0.0000000, 0.0000000, 0.0000000, -0.0781250, 0.0000000, 0.0000000, 0.0000000, 0.0000000, 0.0000000, -0.0703125, 0.1093750, 0.0000000, 0.0000000, 0.0000000, 0.0000000, 0.0000000, 0.0000000, 0.0000000, 0.0000000, 0.1250000, 0.1093750, -0.0781250, -0.0937500, 0.1015625, 0.0000000, -0.1171875, 0.0000000, -0.0781250, 0.0000000, 0.0000000, 0.1406250, 0.0000000, 0.1328125, 0.0000000, 0.1328125, 0.0000000, -0.1015625, 0.0000000, 0.0000000, 0.0000000, 0.1171875, -0.1093750, 0.0000000, 0.0703125, 0.0000000, 0.0000000, 0.0000000, 0.0000000, 0.1093750, 0.1328125, 0.0937500, 0.0000000, 0.0703125, 0.0781250, 0.0000000, -0.0859375, -0.1093750, 0.0859375, 0.0000000, -0.0937500, 0.1328125, 0.1093750, 0.0937500, -0.0625000, -0.0937500, 0.0781250, 0.0000000, 0.0000000, 0.0000000, 0.0000000, -0.0625000, 0.0000000, 0.0000000, -0.1015625, 0.0703125, -0.1015625, 0.0000000, 0.1093750, 0.1562500, -0.1093750, 0.0859375, 0.1015625, 0.0000000, 0.0000000, 0.0000000, -0.0859375, 0.1093750, 0.0000000, -0.1093750, 0.0000000, 0.0781250, 0.0000000, 0.0000000, 0.0000000, 0.0000000, 0.1015625, 0.0000000, 0.0000000, 0.0000000, 0.0000000, 0.0000000, 0.0000000, 0.1328125, 0.0000000, 0.1093750, 0.0000000, 0.0000000, -0.1171875, 0.0000000, 0.0859375, -0.0859375, 0.0000000, 0.0000000, 0.0703125, 0.0000000, 0.1484375, 0.0000000, 0.0000000, -0.0781250, 0.0000000, 0.0000000, 0.1640625, 0.1484375, 0.0000000, 0.0000000, 0.0000000, -0.0859375, 0.0000000, -0.1015625, 0.0000000, 0.1093750, -0.0781250, 0.0000000, 0.0000000, 0.0937500, -0.0937500, 0.0000000, -0.0703125, 0.0000000, 0.0000000, -0.0625000, 0.0000000, -0.1093750, 0.0000000, 0.0000000, 0.1171875, 0.1015625, 0.0937500, -0.1250000, 0.0937500, 0.0859375, 0.0000000, -0.0859375, -0.1093750, 0.0000000, 0.0000000, 0.0000000, 0.1093750, 0.0000000, -0.0937500, -0.1171875, -0.0937500, 0.0000000, -0.0625000, 0.0000000, 0.0000000, 0.0937500, 0.0000000, 0.0000000, 0.0000000, 0.1484375, 0.0000000, 0.0000000, -0.0781250, 0.0000000, -0.0937500, 0.0000000, -0.0859375, 0.0000000, 0.0000000, 0.0000000, 0.0859375, 0.0000000, -0.1015625, 0.1015625, -0.0937500, -0.0781250, 0.1171875, 0.0781250, -0.0859375, 0.0000000, 0.0000000, 0.0000000, 0.0937500, 0.0625000, -0.1171875, 0.0000000, 0.0937500, 0.0000000, 0.0000000, 0.0000000, 0.0000000, -0.0625000, -0.1015625, 0.0000000, -0.0625000, 0.1562500, 0.0000000, 0.0000000, -0.1093750, 0.1328125, 0.1250000, 0.0000000, 0.1171875, 0.0000000, 0.0781250, -0.0937500, -0.1093750, 0.0000000, -0.1015625, 0.0625000, 0.0000000, 0.0000000, -0.0859375, -0.0703125, -0.0703125, 0.1093750, 0.0000000, 0.0000000, 0.0000000, 0.0000000, 0.0000000, 0.0859375, 0.0000000, 0.0703125, 0.0000000, 0.0000000, 0.0000000, 0.0000000, 0.1093750, -0.0937500, -0.1093750, -0.1015625, 0.0859375, 0.1171875, 0.0000000, 0.0000000, 0.0000000, 0.1015625, 0.1328125, -0.0937500, 0.0859375, -0.0703125, 0.0000000, 0.0000000, 0.0937500, -0.0859375, -0.1328125, 0.1562500, 0.1171875, 0.1250000, 0.0000000, 0.0000000, 0.0703125, 0.0937500, 0.0000000, 0.1562500, 0.0000000, 0.0000000, 0.0937500, 0.0000000, -0.0625000, 0.0859375, 0.0000000, 0.2187500, 0.0625000, -0.0937500, 0.0000000, -0.1484375, -0.0781250, 0.0000000, 0.0000000, 0.0000000, 0.0000000, 0.0000000, 0.0937500, 0.1093750, 0.0000000, 0.0000000, 0.0000000, 0.2187500, 0.0000000, -0.0703125, -0.0859375, -0.1406250, 0.0000000, 0.0625000, 0.1015625, 0.0000000, 0.0000000, 0.0000000, 0.0000000, -0.0859375, 0.1171875, 0.0000000, 0.0000000, 0.0000000, -0.1015625, -0.1250000, 0.0000000, 0.0000000, 0.0000000, 0.0625000, -0.1171875, 0.0000000, 0.1328125, 0.0000000, 0.0781250, -0.1875000, 0.0000000, -0.1015625, -0.0781250, 0.2187500, 0.0859375, 0.1015625, 0.0000000, -0.1093750, 0.0000000, -0.1015625, 0.0000000, 0.0000000, 0.0000000, 0.0000000, 0.0000000, 0.0000000, 0.0703125, -0.1406250, 0.1250000, -0.0546875, 0.1093750, -0.1093750, 0.0000000, 0.1015625, 0.0000000, 0.0000000, 0.0000000, 0.0000000, 0.0625000, -0.0781250, -0.1328125, 0.0000000, -0.1406250, 0.0937500, 0.0000000, -0.0859375, 0.0781250, 0.0000000, -0.1093750, 0.0000000, -0.1093750, -0.0781250, -0.0859375, 0.0000000, 0.0000000, -0.1171875, 0.0000000, -0.0625000, 0.0000000, -0.0781250, -0.0781250, 0.0000000, 0.0000000, -0.1406250, -0.1015625, 0.0000000, 0.0000000, -0.1250000, 0.0937500, 0.0000000, 0.0000000, 0.0000000, 0.0000000, 0.0000000, 0.0000000, 0.0000000, 0.0000000, 0.1171875, 0.0000000, 0.0000000, 0.0000000, 0.0000000, 0.1093750, 0.0859375, 0.0000000, 0.0000000, 0.0000000, -0.1171875, 0.0000000, -0.0625000, 0.0000000, 0.0000000, 0.1093750, 0.0937500, 0.0703125, -0.1093750, 0.0000000, 0.0625000, 0.0000000, 0.0000000, 0.0781250, -0.1328125, -0.1015625, 0.0000000, 0.0000000, 0.0000000, 0.0859375, 0.0000000, 0.0000000, 0.0000000, 0.1484375, 0.0000000, -0.0703125, 0.0000000, 0.1484375, 0.0000000, 0.0000000, 0.0000000, 0.1796875, 0.0000000, 0.0937500, 0.0000000, -0.0859375, 0.0781250, 0.0937500, 0.0000000, 0.0000000, 0.1250000, 0.0000000, 0.0000000, -0.1171875, 0.0000000, 0.1406250, 0.0000000, 0.0000000, 0.0000000, 0.0000000, 0.1875000, 0.0937500, 0.0000000, 0.0000000, 0.0000000, 0.1718750, 0.1093750, 0.1406250, 0.0000000, 0.0000000, 0.0000000, 0.1250000, 0.0000000, -0.1562500, 0.0000000, 0.0625000, 0.0000000, 0.0000000, 0.1640625, 0.0000000, 0.0000000, 0.0000000, 0.1015625, -0.0703125, 0.0000000, 0.0000000, 0.0000000, 0.0781250, 0.1171875, 0.1171875, 0.1640625, 0.0000000, 0.0000000, -0.1406250, 0.0937500, 0.0000000, 0.0000000, -0.1562500, -0.1015625, -0.0703125, 0.1250000, 0.0000000, -0.0781250, 0.0703125, 0.0000000, -0.1250000, 0.0000000, 0.0703125, 0.1015625, 0.1015625, 0.1406250, -0.0937500, 0.0000000, 0.0000000, 0.0937500, 0.1093750, -0.1093750, -0.1250000, 0.0703125, 0.0000000, 0.0000000, -0.1796875, 0.0000000, 0.0000000, 0.1406250, -0.1171875, 0.0703125, 0.0000000, 0.0000000, 0.1015625, 0.1328125, 0.0781250, 0.1484375, 0.0000000, 0.0000000, 0.0000000, 0.0000000, 0.0000000, -0.0703125, 0.1250000, -0.1093750, 0.0000000, -0.0859375, -0.1093750, 0.0000000, 0.0000000, 0.0000000, 0.0000000, 0.0000000, -0.1171875, 0.1171875, 0.0000000, 0.0000000, 0.0000000, -0.0703125, -0.1328125, 0.0703125, 0.0000000, 0.0000000, -0.1640625, 0.0000000, 0.0000000, 0.1093750, 0.0000000, -0.1640625, 0.1328125, -0.0937500, 0.0000000, 0.1328125, -0.0781250, 0.0000000, 0.0000000, 0.0000000, 0.0000000, 0.0000000, -0.0703125, -0.0859375, 0.0000000, 0.0000000, 0.1015625, 0.0000000, 0.0000000, 0.1171875, 0.0859375, 0.0000000, 0.0000000, 0.0000000, 0.1328125, 0.0000000, 0.0859375, 0.0000000, 0.2031250, -0.0859375, 0.0000000, 0.0000000, -0.0625000, 0.0000000, 0.0000000, -0.0546875, 0.0703125, 0.1015625, -0.0625000, 0.0000000, 0.0000000, 0.0000000, 0.0781250, 0.0000000, 0.1171875, 0.1093750, 0.0937500, 0.0000000, 0.1406250, 0.1171875, 0.1015625, 0.0000000, 0.1796875, 0.0000000, 0.0859375, 0.1093750, 0.0937500, 0.0000000, 0.0000000, 0.0937500, 0.0000000, 0.0937500, 0.1093750, 0.0000000, 0.0859375, -0.0859375, 0.0000000, 0.0000000, 0.0000000, -0.0625000, 0.0000000, 0.0000000, 0.1328125, -0.0859375, -0.0625000, 0.1250000, 0.0000000, -0.1093750, 0.0000000, 0.0000000, 0.1406250, -0.1015625, 0.0000000, 0.0000000, 0.1250000, 0.0781250, -0.0703125, 0.0000000, 0.0000000, 0.0000000, 0.0000000, 0.1250000, 0.0000000, 0.1093750, 0.0000000, 0.0000000, 0.1015625, 0.0000000, 0.0937500, 0.1562500, -0.0781250, 0.0000000, 0.0000000, 0.0000000, 0.1015625, -0.0781250, 0.1093750, 0.1250000, 0.1171875, 0.0000000, 0.1250000, 0.0000000, 0.0000000, 0.0000000, 0.0000000, 0.0937500, 0.1250000, -0.1015625, -0.0703125, 0.0000000, 0.0000000, 0.0000000, 0.0703125, 0.0781250, 0.0625000, 0.0000000, -0.1406250, -0.0703125, -0.0625000, 0.0000000, -0.1015625, 0.1015625, 0.1875000, 0.0000000, 0.0000000, 0.0000000, 0.1250000, 0.0000000, 0.0000000, 0.1171875, 0.0000000, -0.1171875, 0.0000000, 0.1328125, 0.0000000, 0.0000000, -0.0781250, -0.0937500, 0.0000000, 0.0000000, 0.0000000, 0.0000000, 0.0000000, 0.0625000, 0.0000000, 0.0000000, 0.0625000, 0.0000000, -0.0781250, -0.0703125, -0.1015625, 0.1250000, -0.0937500, -0.0703125, -0.1093750, 0.0000000, 0.0000000, -0.0937500, 0.1015625, 0.0000000, 0.0000000, 0.0625000, -0.1171875, 0.0000000, -0.0703125, -0.0781250, 0.0000000, -0.0781250, 0.0000000, -0.0703125, -0.0937500, -0.0703125, 0.0000000, 0.0000000, 0.0000000, 0.0703125, 0.0000000, 0.1093750, 0.0000000, -0.0625000, 0.1015625, 0.0859375, 0.0000000, -0.0781250, -0.0625000, 0.1093750, -0.0937500, -0.0703125, 0.0703125, 0.0000000, 0.1015625, 0.0859375, 0.0000000, 0.0000000, 0.0000000, 0.1093750, 0.0000000, 0.0000000, -0.1015625, 0.0859375, 0.0000000, -0.0937500, 0.0703125, 0.1250000, 0.0000000, 0.0000000, 0.0937500, 0.0000000, 0.0703125, 0.0000000, 0.1562500, 0.1171875, 0.0000000, 0.0000000, 0.0000000, 0.0000000, -0.1093750, -0.0781250, -0.1015625, 0.0937500, 0.0000000, 0.0000000, 0.1171875, 0.1171875, 0.0000000, 0.0000000, 0.0000000, 0.0703125, 0.0000000, 0.0859375, -0.0703125, 0.0000000, 0.0000000, 0.0703125, 0.0000000, 0.0000000, -0.0937500, 0.0000000, 0.0000000, -0.0703125, 0.0937500, -0.1015625, 0.1250000, 0.0000000, 0.0937500, 0.0703125, 0.0000000, -0.0859375, -0.1093750, -0.0859375, 0.1171875, 0.0937500, 0.0000000, 0.0000000, 0.0000000, 0.0781250, 0.0000000, 0.0000000, 0.0000000, 0.0000000, 0.1250000, 0.0859375, 0.0000000, 0.1093750, 0.1171875, 0.0000000, 0.0000000, -0.0781250, 0.0625000, 0.0000000, 0.0000000, 0.0000000, 0.0000000, 0.0000000, 0.0000000, 0.1093750, -0.1015625, 0.0000000, 0.1015625, 0.0000000, -0.0859375, -0.0625000, -0.1171875, 0.0000000, -0.1015625, 0.0000000, 0.0000000, 0.0000000, 0.0000000, 0.1093750, -0.0703125, -0.0937500, 0.0000000, 0.0859375, -0.0703125, 0.0000000, 0.0000000, 0.0000000, 0.0000000, 0.0000000, -0.0625000, -0.1015625, 0.0625000, 0.0000000, 0.1093750, 0.0703125, 0.0000000, 0.0781250, 0.0000000, 0.0000000, -0.1093750, 0.0781250, 0.0000000, 0.0000000, 0.0000000, 0.0000000, 0.0000000, 0.0000000, 0.0000000, 0.1093750, 0.0703125, 0.0000000, 0.0000000, 0.0000000, 0.0937500, 0.0000000, -0.0937500, 0.0000000, 0.0781250, 0.0000000, 0.0000000, -0.0937500, 0.0000000, 0.0000000, 0.0000000, 0.0000000, 0.0000000, 0.0625000, 0.0000000, 0.1093750, 0.0625000, 0.1406250, 0.0703125, 0.0000000, 0.0937500, 0.1328125, 0.0000000, -0.1093750, 0.0000000, 0.0703125, -0.1171875, 0.1015625, 0.0546875, 0.0000000, 0.0000000, 0.0000000, 0.0000000, 0.0000000, 0.0859375, 0.0000000, 0.0000000, -0.0625000, -0.0625000, 0.1406250, 0.0000000, -0.0937500, 0.0000000, 0.0000000, 0.0937500, -0.1250000, -0.0781250, 0.0000000, -0.0859375, 0.0000000, -0.1250000, 0.0000000, 0.0000000, 0.0000000, -0.1171875, 0.0781250, 0.0000000, 0.0000000, -0.0859375, 0.0000000, 0.0625000, 0.0000000, 0.0000000, 0.0000000, 0.0000000, 0.0000000, 0.0000000, -0.0703125, 0.0937500, -0.1328125, 0.0781250, 0.0000000, 0.0781250, 0.0000000, -0.1328125, -0.0625000, 0.0546875, -0.1093750, 0.0000000, 0.0781250, 0.0000000, 0.0000000, -0.0937500, -0.1015625, 0.0000000, 0.0781250, 0.0000000, 0.0000000, 0.1015625, 0.0000000, 0.0000000, 0.0000000, -0.0781250, -0.0625000, -0.0937500, -0.0937500, 0.0000000, 0.1093750, -0.0781250, -0.0625000, 0.0703125, 0.0000000, 0.0000000, 0.0000000, -0.1015625, 0.0859375, -0.1093750, 0.0000000, -0.0781250, 0.0000000, 0.0000000, 0.0000000, 0.0000000, -0.0937500, 0.0000000, -0.0937500, 0.0937500, 0.0000000, 0.0000000, 0.0625000, -0.0859375, 0.0937500, 0.0000000, -0.1406250, -0.0937500, 0.0937500, -0.0625000, 0.0000000, 0.0000000, 0.0000000, -0.1093750, 0.0781250, 0.1015625, 0.0000000, 0.0859375, 0.0859375, 0.0000000, 0.0000000, 0.0000000, 0.0000000, 0.1328125, 0.0000000, -0.0703125, -0.1250000, 0.0000000, 0.0000000, 0.0000000, -0.1250000, 0.0625000, -0.1015625, 0.0000000, -0.1328125, 0.0000000, 0.0000000, 0.0703125, 0.0000000, 0.1171875, 0.0000000, 0.0000000, -0.1250000, 0.0000000, 0.0703125, 0.0000000, 0.0703125, 0.0000000, 0.0000000, 0.0703125, -0.1250000, 0.0000000, 0.0859375, 0.1015625, -0.1562500, -0.0703125, -0.0781250, 0.0000000, -0.1250000, 0.0000000, 0.0781250, 0.0000000, 0.1406250, -0.0859375, 0.1015625, 0.0625000, -0.1640625, 0.0000000, 0.0000000, -0.0781250, 0.0000000, 0.0000000, 0.0937500, 0.0000000, 0.0000000, 0.0703125, 0.0859375, 0.1406250, 0.0000000, 0.0000000, 0.0000000, 0.0781250, -0.1953125, 0.0000000, 0.0000000, 0.0000000, 0.0000000, 0.0000000, 0.0781250, 0.1640625, 0.0000000, 0.1484375, 0.0859375, 0.0000000, 0.1328125, 0.0703125, 0.0000000, 0.0000000, 0.0000000, 0.0000000, 0.0000000, 0.0000000, 0.0000000, 0.0000000, 0.0000000, 0.1171875, -0.1562500, -0.1093750, 0.0000000, -0.0546875, 0.0000000, -0.0703125, 0.0000000, 0.1328125, 0.0000000, -0.0625000, 0.1171875, 0.0859375, 0.1484375, 0.1171875, 0.0703125, 0.0625000, 0.0703125, 0.0000000, 0.0000000, 0.0000000, 0.1484375, 0.0000000, 0.0000000, -0.0703125, 0.0000000, 0.0625000, 0.1328125, 0.0000000, 0.0000000, -0.1093750, 0.0937500, -0.0781250, 0.0000000, 0.0703125, -0.0781250, 0.0000000, 0.0000000, 0.0000000, 0.0000000, -0.1718750, 0.1093750, 0.0000000, 0.0000000, -0.0937500, 0.0937500, -0.1250000, 0.0000000, 0.0781250, 0.0000000, -0.1250000, 0.1093750, -0.0625000, 0.1640625, 0.0000000, 0.0000000, 0.0000000, 0.0000000, -0.0625000, 0.0000000, -0.0859375, 0.1718750, 0.1171875, 0.0000000, -0.1015625, 0.1093750, 0.0937500, 0.0000000, -0.1093750, 0.0000000, 0.0000000, 0.0937500, -0.0859375, -0.1562500, 0.0000000, 0.1250000, -0.0703125, 0.0000000, 0.0000000, 0.0000000, 0.1250000, -0.1328125, -0.1015625, 0.0000000, 0.0000000, 0.0000000, 0.0000000, 0.1406250, 0.0000000, 0.0000000, 0.1796875, 0.0000000, 0.0000000, 0.0625000, 0.0000000, 0.0000000, 0.0000000, 0.1562500, 0.0937500, 0.0000000, 0.1015625, -0.0703125, -0.0859375, 0.0000000, 0.0000000, -0.0703125, 0.0000000, 0.0000000, 0.1015625, -0.0781250, 0.0000000, 0.0859375, 0.1250000, 0.0937500, -0.0625000, 0.0000000, 0.0000000, 0.0000000, 0.0000000, -0.0625000, -0.0937500, 0.0000000, 0.0703125, 0.0000000, 0.0000000, 0.0000000, 0.0000000, 0.0000000, 0.0000000, 0.0000000, 0.1015625, 0.0000000, 0.0000000, 0.0000000, 0.0000000, 0.0000000, 0.0000000, 0.0781250, -0.0703125, 0.0000000, 0.0000000, 0.0781250, 0.0000000, 0.0000000, -0.1093750, 0.0000000, 0.0781250, 0.0000000, 0.0000000, 0.0000000, 0.0000000, 0.1015625, -0.0781250, -0.1171875, -0.0781250, 0.0937500, 0.0000000, 0.0000000, -0.0703125, 0.0000000, 0.0937500, 0.0000000, -0.1093750, -0.0703125, -0.0859375, 0.1328125, 0.0000000, -0.1093750, 0.0000000, 0.0000000, 0.0000000, -0.1015625, 0.0000000, 0.0000000, 0.0625000, 0.0781250, 0.0000000, 0.0000000, -0.1171875, -0.1250000, -0.0625000, 0.0703125, -0.1015625, -0.1015625, 0.0000000, 0.0000000, 0.0937500, -0.1015625, 0.0000000, 0.0000000, 0.0937500, 0.0859375, -0.1093750, 0.0000000, 0.0000000, 0.0859375, 0.0000000, 0.0000000, 0.0000000, -0.0937500, 0.0000000, 0.0000000, 0.0000000, -0.1015625, -0.1093750, 0.0000000, 0.0000000, 0.0000000, 0.0703125, -0.1328125, 0.0000000, -0.1093750, 0.0625000, 0.0000000, 0.0000000, 0.0000000, 0.0000000, 0.0000000, 0.0000000, -0.1250000, -0.1093750, -0.0703125, 0.0000000, -0.0625000, -0.1015625, 0.0000000, 0.0000000, 0.0859375, -0.0703125, -0.0781250, 0.0859375, 0.0000000, 0.0703125, 0.0937500, 0.0000000, 0.0000000, 0.0859375, 0.0000000, 0.0937500, -0.1093750, -0.0859375, -0.1093750, 0.0000000, -0.1250000, 0.0000000, 0.0781250, 0.0703125, 0.0000000, -0.0625000, 0.0000000, 0.0000000, -0.1015625, 0.0000000, 0.0703125, 0.0625000, 0.0859375, -0.0625000, -0.0703125, 0.0859375, 0.0000000, -0.1328125, 0.0000000, 0.1015625, -0.0546875, 0.0000000, -0.1718750, 0.0000000, 0.0000000, 0.0781250, 0.0937500, 0.0000000, -0.0781250, 0.0000000, 0.0000000, 0.0000000, 0.0000000, 0.0000000, 0.0000000, 0.1015625, 0.0000000, 0.0000000, 0.0000000, 0.0000000, 0.0000000, -0.0937500, 0.0000000, -0.1171875, -0.1171875, 0.0000000, -0.1640625, 0.0000000, 0.0000000, -0.0781250, 0.0000000, 0.1093750, -0.0781250, -0.0859375, 0.0000000, 0.0859375, 0.0000000, 0.0000000, 0.0000000, 0.0000000, 0.0000000, 0.0000000, -0.0859375, 0.0000000, -0.0937500, -0.0781250, 0.0000000, 0.0000000, -0.1093750, 0.0000000, 0.0000000, 0.0000000, 0.0000000, 0.0937500, 0.0703125, -0.1171875, 0.0859375, 0.1093750, -0.1406250, 0.0000000, 0.0000000, 0.1093750, 0.0000000, 0.1093750, 0.1328125, 0.0000000, -0.1093750, 0.0859375, 0.0000000, 0.0000000, 0.0859375, 0.0625000, -0.0937500, 0.0000000, 0.0000000, -0.1328125, -0.0703125, 0.1093750, 0.0625000, 0.0859375, 0.0000000, 0.1250000, 0.0000000, 0.0000000, 0.0000000, 0.0625000, 0.0000000, 0.1015625, 0.1328125, 0.0703125, 0.0000000, -0.0937500, 0.0859375, 0.0000000, 0.0781250, -0.0859375, -0.0781250, 0.0000000, -0.1093750, 0.0546875, 0.0000000, 0.0000000, 0.0000000, -0.1015625, 0.0000000, 0.0000000, 0.0000000, 0.0703125, 0.0000000, 0.0000000, -0.1015625, 0.0000000, -0.0625000, -0.1250000, 0.0000000, 0.0000000, 0.0000000, 0.0000000, 0.0625000, 0.0000000, 0.1171875, -0.1875000, -0.2109375, 0.0000000, 0.1093750, 0.0000000, 0.0000000, 0.0000000, -0.0781250, 0.0000000, 0.0000000, 0.0000000, 0.0000000, 0.1328125, -0.0625000, 0.1093750, 0.1015625, 0.0000000, 0.0000000, 0.0781250, 0.0000000, 0.1171875, 0.0000000, 0.0000000, -0.0781250, 0.0000000, 0.0000000, 0.0000000, 0.0703125, 0.0000000, 0.0000000, 0.0703125, 0.0000000, 0.1171875, -0.1328125, 0.1015625, 0.0000000, -0.0703125, -0.1093750, 0.0000000, 0.0937500, 0.0000000, -0.0937500, -0.0859375, 0.1093750, 0.0000000, -0.0937500, 0.0000000, -0.0781250, -0.1718750, -0.1953125, -0.1328125, 0.1171875, 0.0000000, -0.0859375, 0.0000000, -0.0937500, 0.0000000, -0.0781250, -0.0781250, 0.1406250, 0.1250000, -0.0703125, 0.0000000, -0.0937500, 0.0000000, 0.0000000, -0.1406250, 0.0859375, 0.0625000, 0.0000000, 0.1015625, 0.0781250, -0.0859375, 0.0000000, 0.0000000, -0.0703125, -0.0625000, 0.0000000, 0.0000000, -0.1171875, 0.0625000, 0.1093750, -0.0937500, 0.0000000, 0.0000000, 0.0000000, -0.0859375, -0.0859375, -0.0625000, -0.1171875, -0.0859375, -0.1093750, -0.0937500, 0.0000000, 0.0625000, 0.0703125, 0.0000000, -0.1093750, 0.0000000, -0.0625000, -0.1015625, -0.1171875, -0.1171875, -0.0859375, -0.0703125, 0.0000000, -0.0937500, 0.0000000, 0.0000000, 0.0000000, -0.0859375, 0.0000000, 0.0000000, -0.0937500, 0.0000000, 0.0000000, -0.0859375, 0.0000000, -0.0703125, 0.0000000, 0.0703125, 0.0000000, 0.0000000, -0.0781250, 0.0703125, -0.0859375, -0.0859375, 0.0000000, 0.0000000, 0.0859375, 0.1093750, 0.0000000, -0.1093750, 0.0781250, 0.0000000, 0.1015625, 0.0937500, 0.1093750, -0.0703125, 0.0000000, -0.0859375, 0.0000000, 0.0781250, -0.1015625, 0.0000000, 0.0000000, 0.1093750, -0.0625000, 0.0000000, 0.0000000, 0.0625000, 0.0703125, -0.0703125, -0.0625000, 0.0000000, 0.0000000, -0.0781250, -0.0859375, 0.0000000, 0.0000000, 0.0937500, -0.0703125, -0.0625000, 0.0000000, 0.0781250, 0.0000000, 0.0000000, -0.1015625, -0.0781250, -0.0781250, -0.0781250, 0.0000000, -0.0625000, 0.0000000, 0.0000000, 0.0000000, 0.0000000, 0.0000000, 0.0000000, 0.0000000, 0.0000000, -0.1171875, 0.0000000, 0.0000000, 0.0000000, 0.0937500, -0.0859375, -0.0937500, -0.0859375, 0.0000000, -0.1093750, -0.1093750, -0.1171875, 0.0000000, 0.0000000, 0.0000000, -0.0703125, 0.0000000, 0.0859375, -0.0859375, 0.0000000, -0.0625000, 0.0000000, -0.1093750, -0.1015625, 0.0000000, 0.0000000, -0.0781250, 0.0000000, 0.0000000, 0.0859375, 0.0000000, 0.0000000, -0.1015625, 0.0000000, 0.0000000, 0.0000000, -0.0781250, -0.0859375, 0.0000000, -0.0859375, 0.0000000, -0.1093750, -0.1015625, 0.0000000, 0.0625000, 0.0781250, 0.0000000, 0.0000000, 0.0000000, 0.0000000, 0.0000000, -0.1093750, 0.0625000, 0.0000000, 0.0000000, 0.0000000, 0.0000000, 0.0000000, 0.0000000, 0.0000000, -0.0781250, 0.0000000, 0.0000000, 0.0000000, -0.0625000, -0.0937500, 0.0000000, 0.0000000, 0.0000000, 0.0000000, 0.0000000, 0.0000000, -0.0703125, -0.0625000, 0.0703125, -0.1093750, 0.0000000, 0.0000000, 0.0000000, -0.0625000, 0.0781250, -0.1171875, 0.0859375, 0.0000000, -0.1015625, 0.0000000, 0.0000000, 0.1015625, 0.0000000, 0.0000000, -0.0625000, 0.0781250, -0.1171875, 0.0000000, 0.1015625, 0.1093750, 0.0000000, -0.0937500, 0.0859375, 0.0000000, -0.0625000, 0.1015625, 0.0000000, 0.1015625, 0.0000000, -0.0859375, -0.0859375, 0.0000000, 0.0000000, -0.1015625, 0.1015625, -0.0781250, 0.0937500, 0.0000000, 0.0000000, 0.1093750, -0.0937500, -0.0859375, 0.0859375, 0.1093750, 0.1015625, 0.0000000, 0.0625000, -0.0703125, 0.0000000, 0.0781250, 0.0000000, 0.0859375, 0.0625000, 0.0000000, 0.0000000, 0.1328125, -0.1250000, 0.0000000, 0.0000000, -0.1171875, 0.0000000, 0.0000000, -0.0937500, 0.0703125, -0.0937500, 0.0000000, 0.0000000, -0.1093750, 0.0000000, 0.0781250, 0.0000000, 0.0000000, 0.0000000, -0.0937500, 0.1250000, -0.1015625, -0.0781250, 0.0000000, 0.0000000, 0.0000000, 0.0000000, -0.1562500, 0.0000000, 0.0859375, 0.0000000, 0.0625000, 0.0000000, -0.0859375, 0.0000000, 0.0000000, 0.0859375, 0.0000000, 0.0937500, -0.0859375, 0.1328125, 0.0000000, 0.0000000, 0.0000000, 0.1250000, 0.0000000, -0.0937500, 0.0859375, 0.0000000, 0.0000000, -0.0781250, 0.0000000, 0.0000000, 0.0000000, 0.1015625, 0.0000000, 0.0781250, -0.0859375, 0.0000000, 0.1093750, 0.0000000, 0.0000000, 0.1171875, -0.0937500, 0.0000000, 0.0000000, -0.0937500, -0.0937500, 0.0703125, 0.0000000, 0.0000000, 0.1093750, 0.0000000, 0.0000000, 0.0000000, -0.1015625, 0.0000000, 0.0703125, -0.0859375, 0.0000000, 0.0937500, 0.0703125, -0.0937500, 0.1093750, -0.0625000, -0.0625000, 0.0000000, 0.0000000, -0.0625000, 0.0000000, 0.0000000, 0.0000000, 0.0000000, 0.0000000, 0.0000000, -0.0546875, 0.0000000, 0.0000000, 0.0000000, -0.0937500, 0.1015625, 0.1171875, 0.0000000, -0.1093750, 0.1015625, 0.0000000, 0.0000000, 0.1250000, 0.0625000, -0.1015625, 0.0937500, -0.0781250, 0.0000000, 0.0781250, 0.0000000, 0.0000000, 0.0859375, 0.0000000, 0.0000000, 0.1015625, 0.1171875, -0.1640625, 0.0000000, 0.0625000, 0.0000000, 0.0703125, 0.0000000, 0.0000000, -0.0937500, 0.0000000, -0.1171875, 0.0703125, 0.1015625, 0.0000000, 0.0000000, 0.0000000, 0.1015625, -0.0859375, 0.0625000, -0.1328125, 0.1093750, 0.0000000, 0.0000000, 0.0000000, 0.0000000, 0.0000000, 0.0000000, 0.0000000, 0.0000000, 0.0000000, 0.0000000, -0.1015625, 0.0703125, 0.0703125, 0.0000000, 0.1250000, 0.0781250, 0.0000000, 0.0000000, 0.0000000, 0.0000000, 0.0000000, -0.0859375, 0.0000000, 0.0781250, 0.0703125, 0.0000000, 0.0000000, 0.0000000, 0.0000000, -0.1484375, 0.0000000, 0.0859375, 0.1093750, 0.0000000, 0.0859375, 0.0000000, 0.0000000, -0.2031250, 0.1015625, 0.0703125, 0.0000000, -0.0781250, 0.0000000, 0.0000000, 0.0000000, 0.0703125, 0.0000000, 0.0000000, 0.0859375, 0.0000000, 0.0625000, 0.0000000, 0.1093750, 0.0000000, 0.0859375, 0.0000000, -0.0859375, -0.1250000, 0.1093750, 0.0703125, -0.1015625, 0.0859375, -0.0937500, -0.1093750, -0.0937500, 0.0859375, 0.1093750, 0.0781250, 0.0781250, -0.1250000, 0.0000000, 0.0000000, 0.0000000, 0.0000000, 0.0859375, 0.0000000, -0.1250000, 0.1015625, 0.0000000, -0.1171875, 0.0000000, -0.0781250, -0.0625000, 0.1093750, 0.0859375, -0.1093750, 0.0859375, 0.0703125, -0.0937500, 0.0000000, 0.0000000, 0.0781250, 0.0000000, -0.0781250, -0.1093750, 0.0000000, 0.0000000, 0.0625000, -0.0937500, 0.0000000, 0.0000000, 0.0000000, 0.0000000, 0.1171875, 0.0000000, -0.1484375, 0.0703125, 0.0937500, 0.0000000, 0.0000000, 0.0000000, -0.0781250, 0.0000000, 0.0000000, 0.0000000, 0.0000000, 0.0000000, 0.0000000, -0.1093750, 0.0000000, 0.0000000, 0.1015625, 0.0781250, 0.0000000, 0.1171875, 0.1406250, 0.0000000, 0.0859375, 0.0000000, 0.0000000, 0.0625000, 0.1015625, 0.0000000, 0.0000000, 0.0000000, 0.0000000, 0.0000000, 0.1093750, 0.0000000, -0.0781250, 0.0000000, 0.0000000, -0.0859375, 0.0000000, -0.1015625, 0.1015625, 0.0000000, 0.0859375, 0.0000000, -0.0625000, -0.0703125, 0.0000000, -0.1171875, 0.0781250, 0.0000000, -0.1015625, 0.0000000, 0.0000000, 0.0859375, 0.0937500, 0.1093750, -0.1015625, -0.0703125, -0.1250000, 0.1250000, 0.1171875, -0.1093750, 0.0000000, 0.0000000, 0.0000000, 0.0937500, 0.0000000, 0.0000000, 0.1250000, -0.0937500, -0.0859375, 0.0000000, -0.0781250, 0.0937500, 0.0703125, 0.0625000, 0.0781250, -0.1171875, 0.1406250, 0.0000000, -0.0625000, 0.0000000, -0.1015625, 0.1015625, 0.0000000, 0.0000000, 0.0000000, 0.0000000, 0.0000000, -0.1015625, 0.0000000, -0.1015625, 0.1171875, 0.0703125, 0.0000000, 0.0000000, 0.1093750, 0.0000000, 0.0859375, 0.1093750, 0.0000000, 0.0000000, 0.0781250, 0.0781250, 0.0000000, 0.0000000, 0.0000000, 0.0000000, 0.1406250, 0.1171875, 0.0000000, 0.0000000, -0.1171875, 0.0703125, -0.1093750, -0.0781250, 0.1093750, 0.0000000, 0.0000000, 0.0000000, 0.0000000, 0.0000000, 0.0625000, 0.0000000, 0.0000000, 0.0859375, 0.1093750, 0.0000000, 0.1171875, -0.0781250, 0.0000000, 0.0000000, 0.1250000, 0.0000000, 0.0000000, 0.0000000, 0.0859375, -0.0781250, -0.1093750, 0.0000000, 0.0000000, 0.0000000, 0.0000000, 0.0000000, 0.0000000, 0.0000000, 0.0000000, 0.0000000, 0.0781250, 0.0000000, -0.1093750, 0.1015625, 0.0000000, -0.0937500, 0.0000000, -0.1171875, 0.0000000, 0.1328125, 0.1171875, -0.0859375, 0.0625000};

#endif

#endif
